"","S-BART","T-BART","X-BART","R-LASSO","R-BOOST","CF","BCF","S-RF","T-RF","X-RF"
"1",4.3440072952911,2.91883063617354,4.28372341092941,4.64735844836849,-1.98864089449247,5.07479296943457,2.05292561997189,0.5759895907508,0.452646103170183,2.51713845619081
"2",1.71279146815529,0.00826379762033303,1.67511672502058,2.05016183691307,-4.90529960182304,1.77819079441484,0.522524451258813,-1.24140447890597,-3.8885313292704,0.794536275438092
"3",0.750245284960903,-0.616967263886588,0.474430874671743,0.86150625595652,-3.91152667059026,0.99417694893492,0.165034582541789,-0.56585182989626,-2.75585938137199,-0.678698124056444
"4",1.13565152839271,0.0999150479732246,0.798457088129254,1.76943813596349,-10.3435686758101,0.934910814358373,0.466673075060411,-0.467464821228128,-2.2530308359243,-0.0510818310493704
"5",3.38898517208644,3.36597515922552,3.65758481188199,3.83945779726941,-4.02028029260167,3.06338796615201,1.6585307233434,1.08008251131118,0.690600906943416,1.59528744998648
"6",1.6998944786503,0.259261734826754,1.15811998973627,2.32727625963139,-8.88793698915174,1.80553601434745,0.750467229853266,-1.14307744924387,-2.19314919088778,0.110290364979083
"7",2.79851267870758,2.61718865832477,2.8840466616117,2.82026567530404,-3.12688513037535,3.38054998565523,1.33508769634405,0.472371401013555,1.89929332684826,1.00025408062399
"8",2.90329616743655,1.84108804736886,2.90907240323962,3.75023145799925,-0.0455327295062561,3.33821604679751,1.31685945586351,-0.218583335952153,0.0536792605371973,1.24224379141351
"9",1.62284133831982,-0.391447944881778,1.25560681302295,1.96219045778522,-3.49447570758262,1.62944856129255,0.521848779743509,-0.986023486724922,-3.59088918859405,0.534896492074494
"10",4.19055228968284,4.12300860805826,4.59700612762058,4.4930874743492,-0.374317084310711,4.66677648781681,1.93045699892112,0.617550323254692,2.09671011117146,2.88839164912398
"11",3.15817639296916,2.43965228511757,3.12423005007012,4.01996718641113,-1.38953638625927,2.94013789347099,1.59948637737354,0.269136067714777,0.756509783300194,0.935405216510806
"12",5.0160308377797,3.3620676143294,4.20600977063339,6.0998777835166,-3.020167724361,6.27701408882175,2.37385075720385,0.548938149991243,1.3896258369736,4.06491305485478
"13",3.80374363329293,2.70055399757888,3.60509154533661,3.77709267343186,-0.610436298976967,3.8746412864148,1.97677435895596,0.454038967096779,0.549248860898134,2.23508929701911
"14",0.266920929767333,-0.499414960392427,0.380065292029089,0.548110882593254,-8.12189083342079,0.981804155137561,0.0281025876740444,-1.11560759360558,-2.47642660086928,-0.162698329456205
"15",9.30268452251399,8.23942582356389,9.06578065428569,9.59726647392164,2.8703240534841,9.68986333295666,6.36350290365553,3.44548424084981,5.63393213274159,7.56554858054743
"16",3.0167283347898,1.19603316042558,2.50116505227221,3.55389709446649,-5.19677352378141,3.37483241330906,1.39344863874228,-0.322365359491597,-1.52079914316173,1.37516990602816
"17",2.07677698653461,1.5303764436719,2.32364405568583,2.19891363692271,-6.34834069679509,1.81326834575812,0.731328847917493,-0.0747770137404546,-0.146024705705239,1.31117445570783
"18",1.63580775805184,0.869145905601199,1.50089691656719,1.62427352061511,-6.17000845670959,0.597881778482538,0.506588645802939,-0.2726485464308,-0.777366528908412,0.364870015753795
"19",3.22446283300997,2.22124293286052,3.24877444338731,3.63481987275444,-4.71930814414291,2.22621467413086,1.4534048779482,0.01863932453047,-0.414403105721171,1.5159789386681
"20",1.82122508663091,1.63429410470922,2.11431989218302,2.23149573356746,-6.59716238597954,1.68360341651721,0.594966532319191,-0.202470244443923,-1.3336329185456,-0.0258025983942321
"21",5.27287780707536,4.74285380270307,5.33066230130669,5.39684127736439,-1.85527568620889,5.38897522547068,2.38945552439595,0.77547043367149,2.20146051289469,2.94362068551805
"22",-0.0180565438822625,-0.745614931822547,0.212570495007138,-0.335911963810245,-6.4349695414132,-0.589576605639558,-0.268682106921598,-0.802412892282667,-2.05091275521462,-2.28153475070732
"23",3.04477484017691,1.60808056038964,2.90609518896633,3.87704104156121,-2.01534143061446,2.90457334422112,1.48895505511279,-0.288705134230327,-1.17819071085135,1.66397833786056
"24",2.98554992144718,2.77512203822829,3.16217759285524,3.54694354801305,-3.75171984148567,3.37607556792168,1.34941422676763,0.317631242796779,0.339984511291342,2.77454320678857
"25",0.119138043264639,-1.42200903584753,0.0691338981933842,0.778162740650251,-7.52993782021409,0.151536697905697,-0.0461443492207426,-1.28472289618324,-3.51798807468889,-1.95228188035146
"26",2.62870357340967,1.10215357712249,2.66212563875191,2.8919252520308,-3.72103911944829,2.27871432133467,1.15694996576215,-0.206611436565629,-0.58607375435946,1.33913735282324
"27",3.75511856016061,1.54112358670091,3.29715159654029,3.86539840373781,-0.224944925282287,3.34904922925519,1.6924368014648,-0.146219726294687,-0.877601126013281,1.6701840403575
"28",3.99804641397042,3.11405577811756,4.00326223777784,4.85759025138577,2.48299418420144,5.22822408479954,2.18104435912762,1.04126002681389,1.17385688792454,4.62815147509998
"29",-0.925694395526746,-2.23107554187109,-1.21564257038261,-0.345237949702718,-4.85681714174819,-0.505772787206587,-0.363013671264004,-1.14285256085771,-4.47696070992545,-1.49831531922527
"30",5.05128086428917,3.38317489314589,5.09190005547731,6.27434444166317,-0.820514083924263,6.23890649033486,2.59123156207828,0.745543770725952,0.878866698442553,3.52708406299516
"31",1.12024564589627,0.183485376448052,1.17257541480216,1.33313754193682,-7.96429094895474,0.779211124958355,0.224488152874551,-0.765313316654685,-1.04298344905803,-0.519118251610851
"32",7.70413926034527,6.95428361241942,7.65628652147802,8.06147690244905,1.37819118905572,8.24564550646085,5.0038370759749,2.81934218916074,5.08867239636997,6.12326002030075
"33",3.77387753134515,2.41316922133478,3.66541108795813,4.5558328453656,-4.58183072243848,4.22076729521965,1.45379342131208,-0.211812480465396,-1.44524682354141,1.21748609064795
"34",3.77604710124856,2.50949463125185,3.61219097205091,4.73500008180392,-0.494009135079316,4.10979807895694,1.8122536838665,-0.326070277528329,0.378920442678712,1.47501237963982
"35",0.937997492066473,0.0874474736828885,0.558324065461381,1.48108168465329,-5.45380253341585,1.30526335468503,0.609849564672588,-1.00859317877521,-2.61877177784976,-0.802780818136549
"36",1.08943831863748,0.734444270284802,1.54018279176448,1.10520658679378,-3.53441973049403,1.75229202388067,0.379618242670411,0.0367909335018544,-1.63532583231337,0.320085729240583
"37",1.09215212739437,0.146466192929329,1.05806706340078,1.15788214294663,-0.946055299423839,1.04715067811683,0.56987808071376,-0.897318968489834,-2.41324191904503,-0.338623041298024
"38",4.73836481436661,3.46460601409452,4.61269064538708,5.44542868246457,-0.555430533470912,5.23686124953454,2.44140876568165,1.29345469009716,1.35429522582234,2.04379113548154
"39",2.96095665726277,2.22902229437064,3.33366158375312,3.36553430683676,-2.74274959428652,3.59439088550221,1.28590421432336,-0.0937417721371618,1.06714881838848,3.93831000873532
"40",1.26054077864337,-0.103850967325618,1.12776205906427,1.59769011202975,-9.37553367054278,1.30572219960965,0.444116809697105,-0.979397270116913,-3.31831781381971,0.443611162679239
"41",3.39765934167742,2.4435263877418,3.42125027216283,3.44394650992949,-3.51858898074031,2.91570623303985,1.54909711641478,0.447299479064854,0.267109199328357,2.19909355488091
"42",2.22002063372675,0.965564546945427,2.01719502434031,2.07579731098548,-4.00051502251628,2.12317865410462,0.830997806823424,-0.0884138728037709,-1.0424899829257,0.217753371401415
"43",5.20686249984355,4.87896288466605,5.47539482628666,5.31056925364727,-1.78542606061795,4.63354390904977,2.24953420606766,1.04283185450585,3.49506647377224,3.31042627094838
"44",4.9108943330547,4.67321546213446,5.28599375548148,5.69267830320292,0.511512722941074,5.74165580514335,2.31282258782278,1.07436686229076,2.73436804831291,3.46344908342911
"45",4.59225252392454,3.42966564320716,4.73468570435298,5.35378976886529,0.0483268877147353,4.72055820802381,2.23205143806679,0.712732863318813,2.19490698597453,3.57710910790683
"46",6.0797069365912,4.6486956944493,6.16620573242088,6.29096760334038,-2.809074732356,7.02771700427777,3.51193717465667,1.21798164125056,2.2596176172143,5.20785467135884
"47",3.7831359754596,3.16604352551539,3.75995350623628,4.0595291629128,-2.08595808475913,4.54831852642819,1.56402702556795,0.4637961696207,1.16974874275976,2.01006335391473
"48",0.15085472856807,-0.585735675999182,-0.0146384898172581,0.383479382446372,-6.80148107596911,0.0119048785638596,0.306742130168693,-0.968415861439812,-3.20766426522636,-2.34473686473166
"49",4.39193705637514,3.26164234840597,4.50261687626331,5.05404559317568,1.54458703284429,4.43454322217798,1.91734291274202,0.421944837849419,0.514168587622342,2.28425095825021
"50",2.12209938281203,1.58044136847328,2.28224025583756,2.81535223776137,-3.43812540949633,2.20294487223774,1.05966794794463,-0.431620538234711,-0.728858063618342,-0.183363438093041
"51",6.85554706115078,5.88356960302189,7.04122123763243,8.19787693149491,2.62525284897264,7.6913620360016,4.12288599898323,1.55517642210176,3.03514852339151,4.45841388379083
"52",3.43301125143749,2.21146643379497,3.61484025033567,3.67794752267383,-1.05696160227489,3.07156225648321,1.34422635722537,0.599665438617594,1.19933350091594,0.999970434543716
"53",3.80110429892965,2.25326316595167,4.05463768249783,4.50124753597268,-2.36299304442742,4.33363267505685,1.50682426978122,0.386638063610646,-0.672389285867674,2.84594054096618
"54",3.35243995930186,2.04705169306895,3.14283065541708,3.38536053541822,-5.70116496183374,3.12628801138899,1.177666895963,0.160794072182833,0.189762661414864,0.488853208336003
"55",4.51175633152519,2.6685883292795,4.49173859468315,5.40320124712481,-1.85996867808798,6.29392131338496,2.36689657567906,-0.0468591252962748,-0.832295735677083,3.30633345355779
"56",0.248914321307217,-1.37758162520459,-0.214890991866282,0.310907345466277,-7.07587478339843,1.33582594399667e-05,-0.222440712454674,-1.18375647342068,-4.21290832689439,-1.67251531941532
"57",5.11205639612639,4.68476362313032,5.52410352110233,5.99840817436264,-0.547131089046822,4.88587793566142,2.65791326172466,0.909556484326753,3.35213311130682,3.5870927115115
"58",3.85119833765571,2.31144263900116,3.60960274450687,4.49600116220194,-2.37884496611248,3.97442266798859,1.69247930227798,0.285111324750135,0.143881806248836,2.09991408522948
"59",5.76805382824298,4.98905788692768,5.61587276042697,6.6008652225452,0.431215454370067,4.78201007127697,3.54192365900655,1.34599572193436,3.56512779090762,4.52861355790386
"60",4.76722911777032,4.26224809274933,4.8857987133263,5.70203781969008,2.45347123140308,5.90397721638334,2.39643540129952,0.822566957336611,2.44775032047677,4.02223495867093
"61",6.19195054619898,5.2773715423051,6.1962012308025,6.68481053370205,-2.84413424376151,6.76499517731528,3.77136361883433,1.98914179891612,4.06746341789191,5.65842445529779
"62",2.69274465039498,1.45856469098589,2.5772666813908,2.7432163097877,-4.49095151193837,1.81556793940764,1.12925341291562,-0.639867049414911,-1.38976823088791,1.19569863869482
"63",4.4656811082117,1.93097675993084,3.46029556677564,5.55773299330337,2.61847276420316,5.80077206655935,2.44519106349678,-0.44248292320653,-1.4226303582913,1.54419074153253
"64",1.74999992640562,0.963860882959246,1.57880107943489,1.82487960683088,-5.48752865751984,1.23333161934113,0.601140808595083,-0.593595730111636,-1.92147623705917,-0.330522078051642
"65",3.03480416574359,1.87468548899709,2.54937963392008,3.32382848948388,-3.17036479197474,2.77921124052561,1.32347978739246,0.578473618860995,-0.400927910644017,-0.520233262141107
"66",3.09445895412625,1.60510540757691,2.60150310928073,3.50625145433729,-1.67814498164878,4.27081949736203,1.37451503652979,0.123055683855979,-1.0395624483658,0.796172304864221
"67",1.34523971661533,0.621243857100809,1.24145484210494,1.44180901736181,-8.77182485843014,1.33930805652686,0.686933840872251,-1.37771143664578,-2.81795777228414,-0.0843526766387057
"68",-0.472151309289835,-1.62135410024062,-0.497950832505847,-0.124847535897344,-8.31546390885425,0.0479878338698828,-0.358392129847814,-0.997030955033014,-2.68584153796202,-1.07714080673767
"69",2.10384124123921,0.614708978347443,2.16078863544481,2.80888250239617,-1.00201623351782,2.44962970775865,0.913668931319979,-0.665323826290617,-1.87347129620695,0.538173454684819
"70",2.82123728528607,1.26526370178773,2.76228730091923,3.1499676226332,-6.83742356788996,3.42515550511526,1.20145421410308,-0.383504683321173,-1.65325581253349,0.643257228207858
"71",2.08963010087576,0.137472874852432,1.55423847436594,2.26485487369644,-6.41938289267413,1.93836279451626,1.00410231376851,-1.61055958163388,-1.96261226996342,1.07148115976521
"72",3.41558087981923,2.25128452512781,3.32756792925704,4.15223112714293,-4.07994662806482,2.81986225348812,1.5779935018608,-0.241372931084299,-1.30015370808121,1.72462323058663
"73",2.38249518819798,1.01323582131801,1.88951377799937,3.00866153590388,-3.0669191137381,2.78465914597745,1.00560487213044,-0.439803459142384,-1.85388016857599,-1.02179331813797
"74",2.71637121512084,1.61818221708033,2.77255720493519,3.27145753890337,-2.18197275512158,2.49741681854759,1.58219003451111,-0.122390053660621,-1.65740330429638,1.2517948949
"75",1.89186976354471,1.65611429851932,2.23243807252834,2.92073226132552,-5.78115067409895,2.41166686964252,1.02114040861289,-0.297145398475664,-1.13860994844693,1.28702708214248
"76",3.52095385609656,1.63690828068728,2.72011640372156,3.71332723225788,-2.38727629550825,4.06083635534964,1.52795683986559,-0.358643156910374,-1.21494742337935,2.32921654113958
"77",3.78550419964596,2.80237510444741,3.69625179051485,4.26266917090744,-3.63999032194707,4.23132909329449,1.78329803968847,0.44814083834534,1.25875247655012,2.92190768433599
"78",2.630745585782,1.9502462445967,2.21371257755811,2.7839444481026,-4.56214246821314,3.57279546177081,1.05796921563627,0.0257459342612456,1.74091775592558,1.29460195648195
"79",0.283787547410773,-1.79455990551664,-0.285158430242975,1.00575681100159,-3.3103704576372,0.307896645343084,0.11138699249738,-1.66924856433041,-4.89634670759445,-1.99883377592552
"80",2.65009366341087,1.15163335169747,2.10840721325906,3.23734628420881,-4.01355478918828,2.38035005507535,1.19855714867156,-0.375355567250933,-1.04785738512874,0.706460229512355
