"","S-BART","T-BART","X-BART","R-LASSO","R-BOOST","CF","BCF","S-RF","T-RF","X-RF"
"1",2.82635238666402,3.23201501502709,3.79019371581661,2.7496818572271,-1.83918583451977,0.793824743277744,4.01196913190492,4.95996099868663,2.77045071925901,4.96749517084419
"2",-3.04342504978695,-4.55173012777841,-3.08100280782184,-3.09605883098738,-9.0467880341223,-3.52224972611766,-1.07130613649146,-1.38614090934792,-5.85267669990146,-2.92940532980874
"3",-0.0490779417491699,-1.31881118909166,0.430876227985796,-1.63678998151418,-4.91809118481935,-1.22890711596998,1.40335105165756,2.03312453096618,-1.79944606702274,0.676828079951259
"4",-1.61195096413979,-3.14480887399299,-1.60318812651383,-2.41754346101214,-6.9270421176127,-2.97331250470472,-0.0477491434964071,1.02436878808459,-4.14749841092024,-3.25856566744317
"5",-1.14069949654985,-2.96947606473359,-1.23063134385615,-2.03110358623351,-9.11731709926636,-2.06427690145836,0.0230002358971126,0.087150314866391,-4.40278500460801,-1.62452930136377
"6",-1.57186750828676,-2.5549606475069,-1.02669263922931,-2.33613807177249,-4.39850930441448,-2.28158979866723,0.165169635133296,1.21522604280843,-2.77227126088453,-1.332580863615
"7",-2.29796001123279,-2.98021062273661,-0.941048669643566,-3.09493022293429,-6.09397914091574,-3.61347559405145,-0.821900367709889,0.14254790762896,-3.09201269338882,-1.0003780625233
"8",0.246909846994945,-0.165599999998375,0.833896872259189,-0.568315372658815,-4.13561161269844,-0.618920031812405,0.973449113404576,2.42513374346751,-0.637646184404145,-0.455618757602838
"9",-2.40552363264694,-3.19405584708918,-2.5641836240567,-3.18149802611141,-6.32060814864848,-2.95688976978372,-0.866937009694989,0.951063052986426,-3.8032266062523,-1.93577901981219
"10",-1.2947436748172,-2.24234688295833,-1.19298437992612,-1.64066056392472,-7.16283662692583,-2.43709217923663,0.283659310408534,0.760220170979977,-3.43096147987884,-0.729728705645129
"11",2.14594726256711,1.02908461424764,2.32320415600094,1.21291589831634,-7.443638126689,1.50530880794193,2.77651739062785,3.52280341210372,0.671438182378935,1.27989163803595
"12",-0.749893188188998,-1.91753801970631,-0.567065430824685,-1.7075553281802,-10.4079124381963,-1.68590712030078,0.877262176662554,1.65122995340827,-2.37315206324054,-0.894360403890765
"13",-1.21446792158702,-2.2921709322719,-0.943769584719719,-1.8469839228935,-6.05015269882717,-1.84468634427478,0.745882841166899,0.864975035782515,-2.91322370933516,-1.06223641973549
"14",-2.11370387569262,-3.44690058947352,-2.39797471284928,-3.23404810273477,-5.46147941253381,-3.33350870032742,-1.32880207085586,0.91368679538044,-3.67276206055395,-2.20024033736452
"15",-1.29737828586697,-2.28524197202691,-0.864422080336732,-1.8853472715589,-6.87266147696538,-2.35157619126156,-0.435748448455565,1.45433180123232,-3.03471132302812,0.025080492658596
"16",-1.43741978834016,-1.82021942103885,-1.00359769670315,-1.85226995798514,-6.81395796904857,-2.07437166119579,0.238862035460761,0.851693390803702,-3.24869060718747,-1.26295335236639
"17",1.65487775301451,1.15391050072655,2.51891070339773,1.05978228595885,-2.19529773801098,0.0181623888091192,3.14602843785075,3.16122590729551,-0.250302880819335,1.23526573457122
"18",1.1911564522103,-0.0111278146090244,1.41607324981809,0.7577166829998,-6.090155818896,0.390721861040326,3.3254697627752,2.63089816079961,-0.687413735463289,2.20714285485253
"19",-1.6603976572986,-2.39396827552178,-1.49261283348531,-2.36002365068671,-6.2188662089604,-2.68723777961319,0.589128382931342,1.14088190715804,-3.02729056524363,-1.90314258977554
"20",-0.195320475654228,-1.42802434699802,0.0692623839426253,-0.828635496882086,-6.05552477271944,-0.883940874789976,2.18658016506058,1.68349568938015,-2.2814385582252,0.74507883358857
"21",2.7137092515752,0.892999882194103,2.88487798016195,2.63162540549891,-4.42140739509008,2.69975220888436,4.29728110340049,2.90266961852495,-0.164922523242971,1.41910387017382
"22",0.0903242399305775,-1.06496065780664,0.0424622565922256,-0.554816201130816,-7.64310277131362,0.814911505619324,0.550029896931475,1.96301044042152,-1.03803136426637,-0.115150634289223
"23",-2.0019000158267,-3.06377115019067,-2.15484144921002,-2.98178732056994,-9.67698946192889,-2.76911745700317,-0.853351170616547,0.845432298118007,-3.83568176128726,-2.44218073254443
"24",1.01392992470593,-0.246337506339707,1.55591143934598,-0.100773352153818,-5.3139550105926,-0.077696961711405,2.18628348624371,2.4514949381594,-1.00100396304058,0.15035636042099
"25",0.246579576669114,-0.5506633558401,0.230442760413176,-0.312197424281601,-4.2446862571484,-0.238588960502572,2.13696884832534,2.44845097085984,-1.2345585805576,0.487006106371616
"26",-3.02125180105817,-4.06752950389736,-2.75851639350392,-3.82481063661588,-6.7353930953324,-3.91348088353564,-1.88124309287582,-0.80355725664919,-5.32973609216744,-3.82876341396978
"27",-1.75950437411446,-1.56788733555667,-1.25701360650701,-2.68270777693221,-5.14777092015135,-2.78913143800023,-0.0726908543650125,1.40092973752986,-1.71359025653376,-1.02252112942793
"28",-0.447506451530337,-1.19729506024158,-0.39524032563476,-0.386991015829172,-6.66165800002483,-1.56456571086263,1.1071987255923,2.64172764812143,-1.59449408374627,-0.708766795485955
"29",0.344865643815994,-0.838628183286587,0.630790889743292,-0.540800667874929,-2.86396134532407,-1.01208256546048,2.13511989986682,2.58256395299529,-1.39811587307461,0.118091232924838
"30",1.44448221149874,0.986285098235141,2.14422182915666,0.652315528719761,-2.7860091962305,-0.0346662403483336,3.09065615454555,3.3251221410825,1.09389189477229,1.44905411264296
"31",-1.31677665924195,-2.59957380546789,-1.22071009127324,-2.3285462143798,-6.48897499391325,-2.49893064965152,0.163909297816197,1.057017088628,-3.45181843375739,-1.74777129183187
"32",-1.72080668836725,-2.40889928859995,-1.82508553865897,-2.29826111900365,-7.77255593602099,-2.53731692497088,0.313640319011507,0.98420472795213,-2.75731475382116,-0.683114856639265
"33",-0.504637060559145,-1.75416015186965,-0.247745773665254,-1.28245707862158,-9.04561302055797,-1.53350960671355,1.39103075795504,1.59330852051555,-2.23307273275571,-1.25778851774766
"34",-1.92815574367831,-2.80194418494229,-1.00276506639325,-2.95261278197344,-4.83923512178892,-3.48520999417812,-0.926419277812015,0.635912568967834,-3.17164163998128,-1.28825577082309
"35",-0.402770642887004,-1.51214817760344,-0.770676595775132,-0.727699257845552,-6.53249243588894,-1.06023534844359,1.72932206845835,2.28093115581748,-1.49333734825272,-1.15436053335493
"36",-0.338144472482929,-1.67735271167534,-0.534382034672236,-1.20287479378678,-5.63361026195041,-1.31689111154908,1.06631290603176,2.59848162464155,-1.44390611309513,-0.0674679112343644
"37",-3.05203257483396,-4.42762077824226,-2.88566815998311,-3.87719487445854,-8.15672288034746,-3.79484585282075,-1.56438139698447,-1.01459361049629,-5.11946282216802,-3.91085230105555
"38",-0.342361688499972,-1.59582736772828,0.162757787586121,-1.32437453873822,-7.56180077059069,-1.58648890915407,1.01266370111524,1.2069981522794,-2.40531628735909,0.264796834425437
"39",-2.07161470131806,-3.73155553027059,-1.87380292104887,-3.0791593975912,-6.60882920803893,-2.91781488723155,-0.632904856048763,-0.753113729201544,-4.69259663145417,-0.76448549849764
"40",-0.295481199100815,-1.2447536849657,0.19125701760017,-1.15607240465944,-4.16143069316348,-1.16414048716265,1.06940183184842,2.07539609899684,-1.76955678554392,0.271135808468999
"41",0.0309035840280086,-1.04431968249344,0.579080999843945,-0.485701206888887,-3.6597614875467,-2.3925312187515,1.07658386406683,2.55487143973241,-1.07993869091448,0.944973499468986
"42",0.85521043099816,0.168307158907825,1.12228666290549,0.0149216685251187,-1.76863845778519,-0.0949740456946463,2.3417417602565,2.91771888659109,-0.509272041216127,-0.0613367678692479
"43",-4.54910942598232,-6.21592384836228,-4.67832472824639,-5.96541813864891,-7.89048784163105,-5.82603139686632,-4.35519238384429,-2.89397870133791,-6.47526510934505,-4.47330104848644
"44",-0.465338182457308,-1.82375013897086,0.0366608576500487,-1.22289013562856,-5.45248984995881,-0.970554642444467,0.517958505907959,0.888207642403543,-2.36422645375308,0.131868234911268
"45",-0.0302938174198421,-0.614497738773453,0.302076796508847,-1.20358158067453,-2.512067295247,-1.03629986728876,1.45076689188073,2.89053938747745,-1.21954663593534,0.0145393362138706
"46",-0.597828392737367,-1.32653986290628,-0.208307882732918,-1.62891768780066,-4.48257249398972,-1.65560408316288,0.700955213432238,1.3709152001745,-1.96899073256637,-2.2773926612972
"47",-0.241781452756389,-1.50387116619203,0.14341071001263,-0.194159449601606,-5.23061792043698,0.179528408246654,2.46342211100219,1.09352204953404,-2.92842953864845,0.688715308777398
"48",-1.50223873626182,-2.20748406155367,-0.704949258452985,-1.06800421882874,-3.41458389681084,-2.06684416924943,-0.0469318414612931,0.634884141981523,-3.09053400130127,-0.77396013224671
"49",-0.181727406119547,-0.675742165764487,0.0703126110487499,-0.376138274956993,-7.13415082398792,-0.819957823934345,1.97298807337252,1.70059375029943,-1.40378733123517,-0.988262494798999
"50",-3.39040188837625,-5.36119468073571,-3.28219753486531,-4.95005591114265,-7.01349287933002,-4.41509328741544,-2.50218602667163,-0.624623643702994,-6.07545752664344,-2.84703651956386
"51",-1.51989359983354,-2.84631406556344,-1.73030058188824,-1.75525700724138,-7.21113621308967,-3.02847642114223,0.658107198018825,0.735811717652096,-3.65745960215744,-1.04326452562002
"52",-2.45227414600828,-3.84459274583554,-1.91599172278457,-1.76737346302735,-8.88688952574283,-2.509368457706,0.546779425631356,0.196794741741395,-4.90620225528,-1.22359414277242
"53",0.935254292129747,0.103944625065323,1.43383999447009,0.198445088158807,-4.23900393282846,0.42224369321526,2.58746241287069,2.62027475952611,-0.112932355313022,1.89565444657693
"54",-1.31931765797256,-2.4038503934737,-1.03488334926817,-2.08461103000228,-3.67352457352578,-2.53882128808359,0.590636749932776,0.90846151343469,-3.59110131960957,-0.96031419896904
"55",-1.28770496399279,-1.83447053114621,-1.13293307004652,-1.45057548798027,-6.44335395134146,-2.65736469947553,0.484735549990268,1.85336567369595,-2.74034542856651,-0.835864640663552
"56",-0.346389217337949,-1.85696561308768,-0.547559981872577,-0.789801557060621,-7.55388542712837,-0.989799050846125,1.37844496136318,0.915420846145598,-2.79387290228636,0.462822328612781
"57",0.522611546501826,0.196888169271525,1.22333990749586,-0.198524475014673,-2.5224570232725,-0.727422214543498,2.18823141145091,2.89577215739198,-0.609634445006403,-0.218757000500392
"58",1.77318414592734,0.863551817330183,2.00852272251088,0.955855001538858,-2.145640296238,1.76904313248839,3.07368298879588,3.48995549346148,-0.173722722811865,2.60698831211051
"59",-2.01412680631521,-2.38657533677573,-1.80563534550601,-2.61430349692479,-8.79032064550633,-3.45395476605393,-0.610663155717132,1.43226336894438,-2.24357390839183,-1.63152792955605
"60",-3.86967389960739,-4.48404787168447,-3.64607413569804,-4.47515429484355,-8.79182459089352,-4.06659880990077,-1.87189512932513,-0.522103034787616,-4.32815858786653,-2.98176618813278
"61",-1.35992134143893,-2.71161856008551,-1.22434341508355,-2.62137807852581,-6.23916854772393,-2.78023868018712,0.208081114121805,0.486741745200308,-3.75501038905676,-1.90461791121899
"62",-1.27772474073476,-2.84231861469609,-1.13568925318967,-2.04971977332817,-3.44239585765052,-1.6811913648715,0.443400985334402,1.12316978444546,-3.81735331908194,-2.2415844113111
"63",-0.788443613652591,-1.67912381571395,-0.623427280750782,-2.230762018514,-3.65342857426012,-1.93307457507587,0.409783755638132,2.34329880836391,-1.53095207276964,-0.828417814387116
"64",-0.154525869721715,-1.54323482422705,0.0401775463979354,-1.11801071425248,-6.6631878112683,-1.1252270046038,1.60268206863303,2.07760232488811,-1.59957929239077,0.899990762501869
"65",3.39033445676358,2.47533509004534,4.47432342777303,4.01040338602403,0.573240585700937,2.96889848077256,4.34315417249825,3.24763405593364,2.10781540782595,4.28001154111488
"66",-0.107484256521608,-0.72344387005881,0.321535389143715,-0.830078274800517,-2.29948747478719,-0.852705664344528,1.38977580203758,2.24062667981725,-1.33907708487358,-0.0793913919975242
"67",-3.07263191174314,-3.5794174775098,-2.79820389123397,-4.37495505154997,-11.1345902884297,-4.12986648574334,-2.07591687131527,-0.145912049964457,-4.96383512308424,-3.00606897361717
"68",-0.905609881192121,-1.59746820059641,-0.595045861076649,-1.88921668280041,-3.49364487102565,-2.14379243106816,0.550182772655516,1.73133042122396,-1.18039711913371,-1.11882076205191
"69",-0.879895174516174,-2.22001421382622,-0.978563467018667,-1.42445330036082,-4.67131832266871,-2.12356361648163,0.458632391500422,1.18738186877581,-3.37737082448375,-1.37848326306353
"70",-0.0585853972712727,-1.05398367110751,0.146120884346537,-0.398370786502487,-2.88600409921748,-0.909201419427517,1.71982574942521,2.56670885840197,-0.627565075203976,0.441824406240737
"71",-3.22463838250002,-4.23217154461137,-2.79548877098012,-3.1729859878767,-8.16101086040357,-3.541120920959,-1.58380944088808,-1.25198763916302,-4.93138635648106,-2.62565686882413
"72",0.909828816654809,0.325026975270273,1.07001541503338,0.328508306538734,-4.5828574881825,-0.523494476997198,2.46871360229156,3.15979730320919,-0.672194861933143,0.28623413869849
"73",-0.127499318471258,-1.11785996979481,-0.13000087546074,-1.37758498139623,-5.38251805239773,-1.296498881333,1.0214958722479,2.04491814430927,-1.48834911679114,-0.68225950513776
"74",-0.0102001817008144,-0.838185515619578,0.0481712931635527,-0.627313927259618,-5.75954427646034,-1.16271708303128,2.04860271070158,2.24481819031599,-2.18435623930228,0.442378703088516
"75",0.859347277735721,-0.445013772813332,0.889960317545755,-0.113320237927301,-4.59213718060346,-0.304687841634952,2.45125399581987,2.72875141488422,-0.799931664530393,0.818376842888136
"76",-1.74273650614094,-2.29287936301705,-1.66913449616548,-1.66158044099641,-5.91578754337425,-2.14986134841536,-0.370376854771916,1.66366707713292,-2.82496316982802,-1.72082874266169
"77",-2.42726335434053,-3.30126414594141,-2.22876085292036,-3.73905985975796,-5.73014738666208,-4.46487470501329,-1.4425817817298,-0.251281167693401,-4.72742163642171,-2.25565655312448
"78",-1.91787916443827,-2.80353547992086,-1.88646432299839,-2.45506143163419,-6.74566107325901,-3.03678858345208,-0.0276007781323042,0.534033070137146,-4.09387021709019,-2.34929946950367
"79",-2.27860053588346,-2.60042430102819,-1.61047052999032,-2.0555988933391,-7.16386533125644,-3.69755662030656,-1.14948668778096,-0.182264894732855,-4.15600267496893,-1.4427916121643
"80",-1.33528337640099,-2.25629224052228,-1.60070594029532,-2.44497883413982,-7.65496713768893,-2.20215239767849,-0.164172472099635,1.57846439304276,-2.66943488271624,-0.728892012740127
