"","S-BART","T-BART","X-BART","R-LASSO","R-BOOST","CF","BCF","S-RF","T-RF","X-RF"
"1",-0.27333584903621,-0.235295993855902,-0.315247941096183,-0.388379013051953,-0.423823299243407,-0.266748704828707,-0.234854267535505,-0.0807908917482327,-0.0832919460795914,-0.190603259640897
"2",-0.230208299254277,-0.224385997135378,-0.239437605081186,-0.458608930837479,-0.45401607598194,-0.473358905319741,-0.133979191949021,-0.11107512447221,-0.164535585103655,-0.242124372983094
"3",0.341663811805958,0.27548853997048,0.288575991434413,0.2464547682848,-0.231694606665378,0.1075694316142,0.368049684078524,0.415358647890675,0.352475395557689,0.211858086122463
"4",-0.835614484908261,-0.775825735989447,-0.746293282124556,-1.08838258558109,-1.39980729046824,-1.03089983621799,-0.897925585665677,-0.726786934876985,-0.757037143595421,-0.809766943420953
"5",-0.867495122338114,-0.828809723738069,-0.897819864841397,-0.802961668627256,-1.23895115772845,-0.983479396080672,-0.669459027340198,-0.92669391708059,-0.97147364277732,-1.15674255206454
"6",0.712770949773984,0.746912712493341,0.708591805728464,0.386080728891845,0.388160469403743,0.430446029405466,0.73826769836443,0.900466504720034,0.773848032252082,0.611805766408616
"7",0.352071358062995,0.432997524229913,0.36234774427781,0.336841542890446,0.0512468834776135,0.210823567629301,0.426522336582051,0.636451401292579,0.542160782944668,0.426324032859558
"8",0.963271585756779,1.02192806462368,1.09627890248806,0.83186220595737,0.727833107138154,0.688350174360639,1.17412252494966,1.05169833937138,0.89695904527935,0.880915257044475
"9",0.00415391506214975,-0.00380608001682163,0.051428591751301,-0.11093177032536,-0.50662613577204,-0.160867069563648,0.0161435957254082,0.141796599613966,0.061378067316474,-0.0463921668609468
"10",0.118985103859196,0.0859370826618636,0.120575770010588,-0.309630483477742,-0.427674666583347,-0.275362668408692,0.164878708183911,0.165004890408026,0.106219729670648,-0.072233975378776
"11",0.361540294174418,0.373419326228328,0.424263931668266,0.217582956741065,-0.122188549192685,0.230155873891418,0.400207311576635,0.442810587172209,0.294822823763502,0.204471038972672
"12",0.17690574169513,0.152931057861273,0.214479713165574,0.174290154494357,-0.197825465468174,0.0299047176199376,0.306428082840012,0.284029384805941,0.23852812668316,0.259604490149503
"13",-1.20014292825333,-1.27167440918706,-1.14287451472367,-0.99847168841942,-1.26950281602318,-1.24564162605638,-1.08293042619442,-1.22252063791838,-1.32068324600365,-1.24058105269665
"14",-0.617686555770735,-0.493762336948989,-0.591040795965758,-0.662258169032286,-0.879279751613861,-0.759317186786099,-0.489764779763417,-0.474046417930637,-0.496583012892871,-0.678075263045038
"15",0.526233475250716,0.394475581002709,0.502924697479272,0.331482020383887,0.292809984697889,0.298734848886231,0.551562741344847,0.404868849563651,0.292672554021163,0.449180853450674
"16",0.785010835774098,0.79897781865206,0.796118484086427,0.647628544937229,0.169242652899006,0.661908087382257,0.839981663332096,0.821113271977157,0.742523228721617,0.486451021817896
"17",0.274106154173508,0.229651755408122,0.364219553093618,0.424876876221732,0.0570587350704126,0.454732458802823,0.417565840830972,0.329577330130125,0.22050065634428,0.233930693132699
"18",0.0699551550334983,-0.0778164347372678,0.079864294235406,-0.061460803677713,0.0295217706033759,0.0265196849863195,0.121276997946869,0.0711614280170818,-0.0539790816897807,-0.135530755315811
"19",-0.55863544536168,-0.626111804885058,-0.620922093150839,-0.739296337597394,-0.955372318074044,-0.562106529964981,-0.604815843324325,-0.646577872612347,-0.625951991896078,-0.70601935932497
"20",-0.29106193308011,-0.437484108181296,-0.303762056358828,-0.227381148403658,-0.587982769234206,-0.437278097081159,-0.10489816545129,-0.465080736322938,-0.514989182773457,-0.473718026616053
"21",0.226426241714478,0.233392352280428,0.269129601299936,0.195367102174619,0.0212538741980843,0.111344947417259,0.326463733926123,0.242015198681908,0.13894457157227,0.0895623638232623
"22",-0.379332519052498,-0.380732990288316,-0.364075455003926,-0.458327722802489,-0.367248478736114,-0.400127883840509,-0.335217263508258,-0.407571033140732,-0.475550521357195,-0.586749390307254
"23",-0.538211960952752,-0.372818511113489,-0.457147386240441,-0.723453577601504,-0.814732475853365,-0.877291820402197,-0.465330755860198,-0.403889426603413,-0.392038367537488,-0.435636495316883
"24",0.0335203150497438,0.00763389736155623,0.0637084020337029,-0.304370325288601,-0.323556556593671,-0.0836069707543075,0.0278085343375881,0.230001933602187,0.0886044755136377,0.0370677138475427
"25",0.407083337768851,0.308379344503324,0.403280806131364,0.237070491104127,-0.0328137448860833,0.291412239785042,0.532516824975084,0.256930108956428,0.190825502536375,0.265030692499532
"26",0.404234512323292,0.363170123414001,0.340707943237745,0.211713324194019,-0.12083072560377,0.209183705402445,0.382658200874697,0.545353423143658,0.410688552676878,0.364394926200934
"27",1.1973610031813,1.23804557094972,1.23090945476441,0.97147600125322,0.577192813278944,0.903399043328479,1.2197233197217,1.32674860842199,1.12603061285785,1.1699143630868
"28",1.04233489024038,0.976029334012776,1.02772791361674,0.815606124093009,0.747248401828076,0.736574096762253,1.06786333440417,1.14196674762402,1.09647994693302,0.879015708678951
"29",0.438529007108621,0.375814266026609,0.483251643187818,0.31011052267353,0.100259776004213,0.25572957613647,0.513589820544964,0.46495725545765,0.334541725025812,0.348212560486477
"30",-0.231746089742212,-0.18342919640527,-0.111918451270516,-0.509275941188203,-0.889661999947705,-0.763104064561579,-0.138603713337522,-0.0922394671258587,-0.0773682644237736,-0.537300950058258
"31",1.04584824235854,1.06183267938634,1.06484174135004,0.854114067720207,0.647850873403965,0.743549834874274,0.996395348145701,1.28105597111393,1.0798684144885,0.857618638555713
"32",0.698556634770148,0.698057592915326,0.661345406852742,0.598230122271082,0.339404423667424,0.69567176601208,0.719262868806402,0.945038531095506,0.648862369289044,0.716634619330103
"33",-1.12026570254463,-1.20922177800748,-1.08950508009395,-1.1645291533773,-1.27631986806195,-1.23752182912985,-1.03626215354618,-1.12555689071731,-1.12185461739104,-1.00349073731114
"34",-0.0910698172866587,0.0854005352045425,-0.116888408529698,-0.206205192014258,-0.403950487258472,-0.34850830459868,-0.065269456576134,0.163578389706856,0.0661004232608688,-0.169008398436398
"35",0.426643481188185,0.333783775742998,0.512927301131669,0.290781660324678,0.00151405122130171,0.108171954204764,0.570528537127734,0.361848625311626,0.227068044613389,0.222030663991604
"36",0.65700988148514,0.541804947648645,0.641664259213925,0.531422024450454,0.260242296348127,0.499006321431683,0.660558737715,0.532147692405761,0.393964371134138,0.64594375838445
"37",0.528667011397472,0.666275871959732,0.573505705818173,0.484930483173066,-0.0692762567691577,0.338031431144594,0.637168724742651,0.69521979860306,0.686603807700545,0.374820674508543
"38",0.013854255476565,0.0448493236530928,0.0389436215547073,0.0567987889760612,-0.332630251921921,-0.0743021547959781,0.0439669074324413,-0.0138733700249648,-0.0442513173534277,0.0600070792583872
"39",-0.829601462285971,-0.799303450772962,-0.762869705967472,-0.953015033204527,-1.31631503257316,-1.0284041092022,-0.72568995696163,-0.596125939692494,-0.657319291274378,-0.839588281853568
"40",-0.374380010048385,-0.432134149105937,-0.300965567974411,-0.284508480699307,-0.685420743322733,-0.525014423413722,-0.168521915299307,-0.420237084925683,-0.489459817129313,-0.406575333217649
"41",0.412340010537266,0.424770435959133,0.485794564044553,0.0913964153488975,0.0487304784001892,0.262985042484219,0.454741705522794,0.403090893346522,0.35034080808398,0.377816350366941
"42",0.729994193493726,0.636568749838901,0.804793136449279,0.597400073604358,0.130189529716515,0.61904488292072,0.725016042104022,0.606350297150404,0.57349950456066,0.587753773447639
"43",-0.415925629923168,-0.416052719841703,-0.417986940920894,-0.463394539688138,-0.88833974322988,-0.37065532694006,-0.369866738427363,-0.337761090986014,-0.428439101056547,-0.440711723581314
"44",-0.0273643715043894,-0.0748361867984755,-0.0623949576311119,-0.17563825894857,-0.483452133784487,-0.153933841902819,-0.00042253459055685,-0.0531573688910918,-0.0377951983270654,-0.0769329560124425
"45",0.146207685737547,0.0554459557342317,0.020383398965624,-0.0554045956787959,-0.259976867320102,0.014112616241209,0.0721347506485458,0.172167194287371,0.0604366347539869,-0.106876024318762
"46",0.0337655327168093,-0.0138904233583007,0.039976294060591,-0.312102173898032,-0.442250333440203,-0.275315838470896,0.0962456336693422,-0.0453632860169464,-0.0531760322846968,0.0540517664407012
"47",-0.118411003812987,-0.164477536155976,-0.121617551557688,-0.406605132749123,-0.468606448654599,-0.331631537552977,-0.114437316900619,-0.00895545686912489,-0.0651178162817055,-0.398873410958497
"48",0.0108748888081469,-0.0849707834074543,-0.00962843001499794,0.0760331566015163,-0.205805094300684,0.0445500588340114,0.158856984621005,0.0646102166791479,-0.0467656325584072,0.0480923056314256
"49",-0.0726604831073375,-0.058345630179242,-0.0543631933550386,-0.163587663016927,-0.0132681705997089,-0.200015539415116,-0.0846551069958856,-0.0514268910593897,-0.0699894839654711,0.0566226271714889
"50",0.0792784494456841,0.0254235280529135,0.113356931720102,0.245910741958928,-0.243932217164764,0.0483209767911069,0.213845775135731,0.192106413184531,0.122928135479635,0.0982212566309972
"51",0.312238054248597,0.288959830433918,0.338632803549577,0.193558607613766,0.121653998474421,0.361966454239649,0.388097192148996,0.312569047205037,0.286856211659595,0.488440593737744
"52",-0.190083855626247,-0.108602516954696,-0.114163780401627,-0.31756023921397,-0.722933540620415,-0.31874091442181,-0.071579364199068,-0.187141697759037,-0.241638858569142,-0.160554991785489
"53",0.387313964754257,0.304680627026517,0.391777489137754,0.325724519530243,0.0317806980988217,0.293533143382625,0.526319418600663,0.571300714791876,0.484497608240401,0.320012069349827
"54",0.662130996580894,0.768903185969137,0.687001195253143,0.431766574009598,0.0305744810835761,0.26194230636249,0.679428591918194,0.891870606238503,0.881205201294731,0.51919171257993
"55",0.414811638506507,0.511244096802479,0.526954291743263,0.670922839184183,0.179613655606509,0.39542590003619,0.630462382395692,0.601294420701602,0.532903086729827,0.641843591843659
"56",0.200386480530373,0.0251670661825957,0.208066127286703,0.0968179830894338,-0.200698873854412,-0.0671829716858529,0.267894840792502,0.0852754427818192,0.00436466395124774,0.142928240899248
"57",0.0711929478579647,0.134552774088244,0.123760508753998,0.0387830891561844,-0.0911142051625869,-0.0302521374400488,0.209014718555868,0.0230536235552155,-0.0412770582211736,0.0824782109190298
"58",-0.67572730258083,-0.863085581937824,-0.700562430443012,-0.70448577903121,-0.740121547770664,-0.686160922556314,-0.549357473176868,-0.857900006536239,-0.813164433760223,-0.610528567127477
"59",-0.32664329288644,-0.489151921621246,-0.288466690862083,-0.502602425054783,-0.620407638945919,-0.422401512470899,-0.209672069189107,-0.44177208883179,-0.493701708134184,-0.433483192359599
"60",-0.62464901202964,-0.754171258294159,-0.636172989411429,-0.675830797887272,-1.29623073059108,-0.794934601598251,-0.629470840887582,-0.842468208275486,-0.909196092692144,-0.818305674798253
"61",0.350778429204411,0.353444565851425,0.347346315466269,0.0580503725426031,-0.12334109954871,0.140359836102177,0.320675308402218,0.489768386143627,0.390709248166155,0.332341981236386
"62",0.311947767888553,0.342019774736802,0.393825470359706,0.112252314900708,-0.459854124046716,-0.0281645653175086,0.357877692981583,0.356393077124698,0.205390258984208,0.122467026619833
"63",-0.438082424486353,-0.549021164193482,-0.485035618740575,-0.295996325434002,-0.414229228666319,-0.475420688630667,-0.357846615305615,-0.568421012986658,-0.647354554799862,-0.477417642426262
"64",0.600677939793534,0.657898781537381,0.567378894140242,0.23361202843437,0.0758269799864363,0.297756671391332,0.601203607328258,0.861622140099933,0.708583993451932,0.560355823130894
"65",1.16078658427075,1.23500992004811,1.17223945250198,1.02790062621691,0.67835059685071,0.785047628235565,1.13581188279161,1.47940843301046,1.35953877472292,1.22658488945016
"66",0.05077404103163,-0.00163258348304705,-0.0537511675008889,-0.0850773944686683,-0.141047126064444,-0.175846697687628,0.00738395773678566,0.0841311305051323,0.0472632048455131,0.0454216111419507
"67",0.362189049257006,0.20993749955466,0.456647050907118,0.334896223166158,0.402172382932852,0.452901438473732,0.444090381072285,0.46682462995664,0.377298092263732,0.529403738215532
"68",0.210273771037756,0.0788077211711605,0.247816904704304,0.172335600880954,0.125986773046892,0.0551559397829546,0.251413742257952,0.252309049109327,0.179898753957071,0.200966312159015
"69",0.742369208250252,0.740423720074219,0.859491599620183,0.518613367825728,0.420834229712683,0.472367045248806,0.762156363049331,0.8043728897744,0.621466597747242,0.680131259597077
"70",-0.36100440580644,-0.194586656170496,-0.333570054758686,-0.523184808076724,-0.879644562162925,-0.543552633852377,-0.358552189182122,0.016321390629692,-0.0713132910485171,-0.257360719688437
"71",-0.886208618621821,-0.881595721312131,-0.826732737719214,-1.07366324453762,-0.959784903857878,-0.947034415429398,-0.795752144779275,-0.947324995538062,-0.977724561454243,-0.844725954762936
"72",-0.0022177544012919,0.0229540065957408,0.042576503437122,-0.3208787581328,-0.376843861239392,-0.229848836337115,0.0204963891578466,0.0486524765032489,0.0093515373708216,-0.249670312900357
"73",-0.222619099813041,-0.306468601004781,-0.239316733606975,-0.271262608888372,-0.254615823534602,-0.210495606380076,-0.247551425049146,-0.300800071137189,-0.373081224442906,-0.312472987291444
"74",0.907734747615705,1.0312673152027,0.938309760498164,0.655080300808347,0.731374053130723,0.599492199543714,0.950903680011376,1.06011131517894,0.955886073130664,0.753908853670566
"75",0.234633062316534,0.350146402028743,0.40288980159681,0.345754392329849,-0.300167018526321,0.138844555099985,0.424969116953173,0.4812813137651,0.46124930560589,0.385093646153082
"76",-0.199398329056442,-0.306929098856406,-0.133713130644761,-0.240481835557738,-0.349310141016822,-0.421819744496739,-0.110285969929924,-0.187749233570717,-0.194756607388753,-0.29353621710659
"77",0.424313054479343,0.370161078094436,0.337545650460399,0.465938845424531,0.202578756495486,0.336073731909366,0.440359931181787,0.555766998017004,0.516480434223186,0.361408266793545
"78",-0.654102998228513,-0.558720779901904,-0.680486060939805,-0.84417847174985,-0.924794425370743,-0.84794128984621,-0.586545735086706,-0.448809739868933,-0.44557535443509,-0.694757342673967
"79",-0.614400209294399,-0.784920247580773,-0.70492534333421,-0.653420132286262,-1.04454149266466,-0.867116901289314,-0.594636036459803,-0.773926176621193,-0.820928075920168,-0.732006344955037
"80",-0.0630322252348432,-0.0862687709670508,-0.035607279191649,-0.318189269261588,-0.0460359538741699,-0.399110915074166,-0.0308539800210035,0.125261962065873,0.0127622692938652,-0.256069903629127
