"","S-BART","T-BART","X-BART","R-LASSO","R-BOOST","CF","BCF","S-RF","T-RF","X-RF"
"1",0.00045071529882014,0.00311442751203347,0.00447741508119198,-0.026333809384877,-0.20324010237813,-0.068307172344754,-0.000990543215944758,0.0270197632679158,0.00408144746878829,-0.0250479158005708
"2",-0.00431698151572869,0.00266067776998368,-0.00669580142640524,-0.0270611909719672,-0.179756320303017,-0.0532266852806609,-0.0151224060563542,0.0230888202466346,0.0142812075940341,-0.0201685544521418
"3",-5.21133511465599e-05,-0.0149124909940699,-0.0101895597476454,-0.025121118097534,-0.198956755522494,-0.0675670888938517,-0.0111513357419555,0.00794535837388762,0.00213782885199377,-0.0380415726387191
"4",0.0109631616712906,-0.0174893383787517,0.000312989745928785,-0.022894337725242,-0.129364461932205,-0.0570947631456891,-0.00567499957521999,0.0179435997967538,0.0137386674156287,-0.0274741377751634
"5",-0.0034839585886042,0.00636458313357773,0.00218521871753303,-0.0294060645699049,-0.195947495279528,-0.0333548701457849,-0.00735429659349462,0.020135865990148,0.0029968361606786,-0.0265288691000987
"6",-0.00242589484302474,0.013637928347458,0.000731152956520942,-0.0228859783864675,-0.159481466640489,-0.013631470305762,0.010144999708823,-0.00671205839885911,-0.0159315695059249,-0.0356459584096919
"7",0.0035612769209255,0.0470788295701896,0.0317856002933213,-0.0257427719769635,-0.0547945188993253,-0.0407309197704143,0.00854573129606897,0.0345510895059156,0.00976393478257548,-0.0163837699493475
"8",-0.00717762130259661,-0.00909201174129104,-0.00370326115503224,-0.0291027412509367,-0.173955678478694,-0.0672544831490725,-0.00749995673903948,-0.0290084079263767,-0.0392223591961622,-0.0581205134334112
"9",-0.0125921515932193,0.0318509329029097,0.00119806833173256,-0.0243711198973989,-0.185311985557679,-0.0927884534914825,0.00391386479489692,-0.0392395404770436,-0.0466382523511735,-0.0653423056624306
"10",-0.00547718382119722,0.00478133955814869,-0.00728583139884145,-0.0250190503238044,-0.231806477784824,-0.0888153164219403,-0.00555148992848016,0.00380786834851393,-0.0220952659159837,-0.0359718790680889
"11",-0.00873955240538302,-0.00481451027066562,-0.0148020289447793,-0.0374722749562484,-0.196692267809823,-0.116813793552113,0.00240146980744184,-0.0701362385506747,-0.0837716092416185,-0.0770954112093263
"12",-0.00111405902208333,0.0266355999791533,0.00314170958217061,-0.025276853103878,-0.16211148263103,-0.0501089753172327,1.83946230888968e-05,0.0470704491976177,0.0353511700492101,-0.0379228503117364
"13",-0.00545205282651521,0.0018759537754374,0.00841092049733588,-0.0342719926744944,-0.147666644129995,0.0126622083990915,-0.00479136060575615,0.0366199012999162,0.0244930968374152,-0.0151108049057168
"14",0.00370386603665041,-0.00804676080274118,-0.021182099896126,-0.00810185799825025,-0.159948604428934,-0.154939857826504,0.00743312113368577,-0.0402101925511337,-0.0542821073222178,-0.0734214447230756
"15",-0.00839018807490957,-0.00532158656975623,-0.00728542246168957,-0.00389699005648537,-0.2565210771218,-0.0954325134796956,-0.00788022844072556,-0.0125821430027787,-0.00143971422161321,-0.0430521855535914
"16",0.00698578332988077,0.00855915606533205,0.00863981606348259,-0.0267310686933559,-0.344087408446684,-0.0583355433555349,0.00881449101322698,0.0370307378992869,0.0281773936921726,-0.0158856194932359
"17",0.0113192931795514,0.00508032664732746,0.00156230718156718,-0.0289018910351521,-0.191806231938749,-0.114211324768794,0.00400432375825953,-0.0412593084074904,-0.0707077753724052,-0.0823145506583172
"18",-0.00172409327864546,0.0195528716450316,0.00342393450723974,-0.0321866988324861,-0.127211746713686,-0.0357956955386744,0.00557034810720583,0.0668103650395141,0.046461592949982,-0.0274651572630077
"19",-0.00426351932760753,8.28874069897537e-05,-0.00265526695462134,-0.02563755962217,-0.301078659017088,-0.0718109115262803,0.000481294408621687,-0.0168545603830662,-0.0184574514830678,-0.0626431152335711
"20",-0.0102103694219541,-0.0127881769759184,-0.018255659764911,-0.0204453909031058,-0.140716413731858,-0.150250286186642,-0.00412305130325616,-0.0840957790216811,-0.0876302070965096,-0.0618283438999991
"21",0.00433256468973383,0.0200599677365413,0.0117421538924583,-0.0179880239885805,-0.207336399646675,-0.0276215853318097,-0.00509179594755622,0.0676456066346931,0.0645629381489728,-0.0225453059768449
"22",-0.00124161942555443,0.00617931131695342,0.00337447996350581,-0.0168706150405396,-0.133499373708262,-0.0408618892787795,0.00248331920788889,0.0171078771104234,0.00760950130593897,-0.0335882543838718
"23",0.00139483185039684,-0.0105491067617837,-0.000677534433046508,-0.00427088271304659,-0.205346211512842,-0.0820761391766528,-0.00105607972136478,-0.0110401902407159,-0.00931097362468336,-0.042812404117683
"24",0.000459713814783333,0.0234847745311865,0.00826018453607627,-0.0179132257875965,-0.175824495975384,-0.100400848261258,-0.00269097177067224,-0.0165881802784259,-0.0266136815296466,-0.0495821601427531
"25",-0.00710126836662454,0.00589593379189017,0.00432547666636633,-0.0235598618938495,-0.273395182692224,-0.0867691111176524,-0.0147317669530847,-0.0253180418070752,-0.0501718512387259,-0.0556379830779378
"26",0.00437523597768783,-0.000192231394376602,0.00181719616930618,-0.0297763666933227,-0.0818217897255969,-0.0632014319920844,0.0152237983822769,0.0276730697449999,0.0252217847167434,-0.0331647251713995
"27",-0.00880883075767384,0.0122511439418866,0.00589226096612563,-0.0385955261409717,-0.148162614433258,-0.0755966689139882,0.010387456516614,0.0184217630542428,0.0119293767926207,-0.0384876828417303
"28",0.00704646828175066,-0.00233856003506405,0.000136558815912026,-0.0119219708987772,-0.131366985735872,-0.0453904919594451,-0.00441429364540407,0.0325933696575585,0.0236322805436331,-0.0261068941605225
"29",0.0118550630056938,0.0129125239761094,0.0103746431870518,-0.0204322691529256,-0.258112983355939,-0.0706012160847852,0.00643332594106486,-0.0356312458217336,-0.0355149670938843,-0.0504159491669623
"30",0.00166046518363079,-0.0128920548752373,-0.00550473092386744,-0.023038184904893,-0.161516234555694,-0.0598970755381449,-0.00177334079335313,-0.0116950923031436,-0.02181249847552,-0.0538529727668626
"31",-0.0127830295534609,-0.00110880253026991,-0.00343094567120171,-0.020597380310945,-0.31356840161091,-0.0848268737363592,-0.0049576471778197,0.00317398928842541,-0.0172170375074953,-0.0440163607579109
"32",-0.00779998214417341,-0.00216957825086247,-0.00105488844227137,-0.0250945802847064,-0.174133854349419,-0.0925596667325649,0.00497813472542338,0.00271410496645449,0.00144132773472633,-0.040147916619695
"33",-0.00699432566411205,0.00953074224930488,0.00633759795750247,-0.0221762183041094,-0.180615133736545,-0.0822832376710073,-0.00288813937737329,0.012316373578409,0.00250395893226035,-0.0364602627529791
"34",0.00882072930740203,0.0165999925347557,0.00653442750416898,-0.0305867745178597,-0.124363251583059,-0.0146378461268152,-0.00930459776272049,0.078341220253468,0.0661399357461117,-0.00264635130697773
"35",0.000150705015567547,0.045842873337547,0.014415004283445,-0.02359260214723,-0.273399125004076,-0.114197407408766,0.0105863275099155,-0.0626331708222251,-0.0591905118654753,-0.0724078349624788
"36",0.00256294017921109,0.00634970020177374,0.00118464798357032,-0.0409004238447313,-0.117505267895776,-0.0768901377466525,0.00139183189346035,0.0130544571281568,0.000243827824984367,-0.0428640993864316
"37",-0.00283716727395959,0.0113215057112716,-0.00658817489537119,-0.0300030033180058,-0.217452266421407,-0.00864980438313621,-0.00175004885590479,0.0452822084151466,0.0379701166348491,-0.017519044399267
"38",-0.00401070062648484,-0.00445900573737334,-0.00250777395992391,-0.0209996387524702,-0.136712453768263,-0.0634625415078756,-0.00240240624572562,0.0583121060238835,0.0354055216601282,-0.0462651299139
"39",0.0125366356118077,0.00705649963656384,0.00362395687885906,-0.0239688115793819,-0.0592872942776281,0.0433803763953051,0.0062047140798394,0.0926205477604134,0.0734772280243206,-0.0102743254173335
"40",0.00320782121237057,0.0345813496808937,0.0178867736556775,-0.030782444570044,-0.163768207051701,-0.10653600191039,0.0020613614456572,-0.0262166008341967,-0.0264137864166095,-0.04944401058256
"41",-0.00158945165485628,-0.0280301812323306,-0.0229795201478543,-0.0343298465946766,-0.15692603517155,-0.0693716824689177,0.00186907656695434,-0.0287466349634015,-0.0313379151904133,-0.0475717936190012
"42",-0.00341787722765626,-0.0111207091389719,-0.00466759682612321,-0.0276353953747619,-0.45788075988773,-0.0721002751456523,-0.00312416814793471,0.026143175140755,0.0122540688841338,-0.026504569529647
"43",-0.00861498612397584,0.00911711134690138,0.00352793522877855,-0.0186674933027123,-0.286042567061655,-0.0494773292987645,-0.00996003375484915,0.0288244678884324,0.0216017563759596,-0.0255364132839963
"44",-0.00395001571924317,0.0127692056435729,0.000695773652253435,-0.031099631323733,-0.250158305330015,-0.0643119472778729,-0.00700748515357283,-0.00912661745184921,-0.0174529873000606,-0.0458724309480963
"45",0.00408394066074382,0.00682236270912764,0.00194752602066924,-0.0189494819788864,-0.183180842304482,-0.0498102868732754,-0.00858844908370677,0.0108857272818612,-0.0112318462188243,-0.0497703740630862
"46",-0.00948933285580163,0.0125125549754359,0.000348282304980071,-0.0148263258036842,-0.203721858274836,-0.0652295168984884,0.0176752621395194,-0.0182523708917942,-0.0184024617647903,-0.0547130093961509
"47",0.00717411239753758,0.0102997903010922,0.0155179771639441,-0.011884991273453,-0.34254313320693,-0.0772631757819787,0.000974603959489175,-0.0151582639493209,-0.0356693894741596,-0.0539073438871559
"48",-0.0182730021788299,-0.032564391037257,-0.0195178509637914,-0.0343836002347356,-0.231082715903036,-0.0556339174093917,-0.0260831586198826,-0.00571051865667332,-0.0204962635838195,-0.0395776479549957
"49",-0.0013990278352199,0.00729484247174733,0.00173988753846529,-0.0335240128248666,-0.215209791451437,-0.0672451858011604,-0.0156302963663926,-0.00400901334549532,-0.0124008279532976,-0.0234978400963837
"50",0.0168732611544475,0.00986003045837451,0.00543945795184979,-0.0349855585362959,-0.156473311349428,-0.0185516812086981,0.00391452231048064,0.0364549836735122,0.0328402817352924,-0.0255180115588403
"51",-0.0170400722224828,0.0145708573961725,0.015456924233311,-0.0282080051722625,-0.239914923682108,-0.0649320281747746,-0.0122060161712178,-0.0210448586401569,-0.0338755247734925,-0.0662606718330284
"52",-0.00186452012490491,-0.00507382090838245,-0.00503946945220699,-0.0159335659637095,-0.380027918742412,-0.0787495514259467,-0.0183665699653355,-0.0148174343328747,-0.0179690619021142,-0.0351560309461492
"53",0.0056483204015067,0.00803509639472517,0.00482745910466126,-0.0274641800982526,-0.198721031975452,0.00052648330535463,0.000345145955737392,0.0244865622569043,0.0105953320186594,-0.0316323882682728
"54",-0.00414202023217923,0.00593907194413981,0.000744703663297406,-0.00624993428224664,-0.0800471659987516,-0.0207005231060229,-0.00835418632867896,0.0483401766362871,0.0374146720978971,-0.0194715990057526
"55",0.0197691631870969,-0.0316566498809502,-0.0206028233897904,-0.0400749614651476,-0.133896187431322,-0.0823060562986036,0.033910369910384,-0.0550483824937021,-0.0720372149199711,-0.068508078942211
"56",-0.00648503208254745,0.000216382093688177,-0.00033792123310514,-0.0226166325378613,-0.12100834983976,-0.111999204792141,-0.0165732026838367,-0.0469687120415914,-0.063520604329987,-0.0628718817530893
"57",0.00509214131130701,-0.0272375087457107,-0.00800645669323563,-0.027573251850586,-0.27853777938494,-0.0753919644561139,-0.00586951162854315,-0.0124116086305075,-0.0300161529086216,-0.0574815422140311
"58",-0.00135123307282014,-0.0139939515347574,-0.0162735208731158,-0.0310568193581958,-0.207655828745126,-0.110640611269706,-0.0173479787747346,-0.0443121879693105,-0.0470263470043175,-0.0630252741458976
"59",-0.00485498858612671,-0.00638855456049991,-0.00271456978213681,-0.0380111720373798,-0.24281825271785,-0.104894605736279,-0.00695533292017316,0.00138481069475902,-0.00765104967662686,-0.039806312427541
"60",-0.00335102008138304,0.00803010779975496,0.00800572857701062,-0.0175344898189568,-0.199363090136237,-0.0913718638083469,-0.00224301114299769,-0.0354559807079766,-0.0368293373897357,-0.0388928583840545
"61",0.0185907713770063,-0.0162574086129767,-0.00485460372667259,-0.0318476818032675,-0.15829147699723,0.00197102937377166,0.0129559179947455,0.0351328330057778,0.0328365944763389,-0.0316312363140403
"62",0.000537206607047175,0.00123735381013398,0.00285036459493824,-0.0419093006665485,-0.23157107376115,-0.0234345554075547,0.00828120228011538,0.0220942341804945,0.0145685258160907,-0.0284921938814389
"63",-0.00425721395364369,-0.0217005482979369,-0.00674673236170473,-0.0327764108957761,-0.224529574044044,-0.0407374493419131,0.00911895309427415,0.0291170828886285,0.014325633812716,-0.0267474494513006
"64",0.00353603667344856,0.00225220703601614,-0.00694152721291379,-0.0279445987872192,-0.102053977711633,-0.00654229273600697,0.00213125073903343,0.0242436807016317,0.00633143610952994,-0.0230776429598293
"65",-0.00509527399337782,-0.0124740796637579,0.0017828821399352,-0.0219533249752772,-0.289293888646455,-0.0654866935987824,-0.0123027506928382,-0.0128176005754094,-0.0254276750549796,-0.0371682148279788
"66",-0.00165054539482705,0.0142892600966244,0.0158083867095435,-0.0295182640301158,-0.301746264533058,-0.0861145957954034,0.00492717890654186,-0.0394508314332247,-0.0490276655222585,-0.0659637469719825
"67",0.0148727942765911,0.0024464436114543,0.0113300155230515,-0.0112289109765035,-0.177112970323222,-0.0370455112146954,0.019267816027906,0.00281296003964338,-0.00454704144856739,-0.0454816432316311
"68",-0.00613329116489034,-0.00721783020830417,-0.00860812912193695,-0.0277048444949554,-0.181189997233672,-0.0810784355616417,-0.0106634917539378,-0.0211708470088898,-0.0405743309169449,-0.0501352398318954
"69",0.00354554848995369,-0.00364724097855051,-0.00567474847169552,-0.0207304629806856,-0.142525339535459,-0.0665910120061712,-0.00211244124526005,0.0184138230212843,0.0102922128174216,-0.0403005543713894
"70",-0.00148608591919602,0.00274695827698313,-0.00905303228927261,-0.0209980880814737,-0.0943230376494701,-0.0474608183352968,0.00598078705701347,0.0087062126946735,-0.00118441104180863,-0.0380506145104354
"71",-0.000915080191481664,0.00311221940795948,0.00224545100068743,-0.0229018363348966,-0.102574027597999,-0.0555614998505809,-0.00784259998474376,-0.0145424802816283,-0.0295832003684192,-0.0309560249940528
"72",-0.00298442352756289,0.00226174416680644,0.00170090464773676,-0.0229865462849041,-0.0850029810449327,-0.0422912515285354,-0.00105359271634218,0.0192754959705416,0.00656534375202123,-0.0254015365388358
"73",-0.00409645838071758,0.0123649456619424,0.00949478978198637,-0.0247763009723612,-0.184175799397105,-0.06249038409227,0.00414049945421045,0.0172179454706761,0.00528859412014057,-0.0294333029146148
"74",0.00346152629885699,0.0168789460109383,-0.00327686346858127,-0.0076593618946392,-0.108993602194323,-0.0885124804584482,-0.00414606511864133,0.0501838656667506,0.0334281630189936,-0.0335942270821743
"75",0.00568001506200583,-0.0111442789447712,-0.0105887306911838,-0.0447763551161528,-0.16267129771124,-0.117788100265247,0.0116202037178562,-0.0344428681102282,-0.0486123169855643,-0.073551395685553
"76",-0.00657149314261682,-0.0242185418448026,-0.0217938567001461,-0.0137860221456598,-0.203723215510828,-0.107141594834289,-0.00818379555992951,-0.0434023244830727,-0.0485943202255459,-0.0689395019033017
"77",-0.0043859716451709,-0.0258348682928475,-0.0161928889578739,-0.0383894272923094,-0.223704878373681,-0.0889430293059782,0.0059675743679362,-0.018997598440444,-0.0250400852388908,-0.0766823838657873
"78",-0.00854552637074448,0.0040276477199982,0.00127140112832865,-0.0312099728923951,-0.082949873450898,-0.0342973127448322,-0.00858450144708931,0.0548491726833345,0.0403262323791882,-0.0241540077143854
"79",-0.00801670004075181,0.00111364356256106,-0.000370860750741781,-0.0230829496292533,-0.130633063411522,-0.0719217867491423,-0.00841087639979944,-0.0588659969548313,-0.0492959453128061,-0.0420805711686563
"80",0.0136554798347766,0.0315664986743649,0.0055028867253715,-0.0249320622609973,-0.206020695915259,-0.048566209303978,-0.00313015198269425,-0.00469985335892749,-0.00587683777273789,-0.0553657399339899
