"","S-BART","T-BART","X-BART","R-LASSO","R-BOOST","CF","BCF","S-RF","T-RF","X-RF"
"1",-0.0192870528225746,-0.0230501034608988,-0.0105518090213858,-0.0265771188332236,0.0351885156720055,-0.0652822193858732,0.00642576166911202,-0.0636322568569003,-0.0656600377687353,-0.0494848389196317
"2",-0.0691102538673238,-0.0611059775221143,-0.0236748867163825,-0.067718272156639,-0.366799380078144,-0.0567420847027881,-0.0416981567757729,-0.00938374421706078,-0.0221116083848498,-0.0406505355043769
"3",0.0528219407575735,0.0574681098673648,0.0676568035989159,0.0466943982268951,-0.340171321529472,0.0133757111158103,0.0856071801532405,0.0455065677853293,0.0323345008968949,0.0518397499506163
"4",-0.0804137856766465,-0.0845604403170588,-0.0766873941821153,-0.113893596832848,-0.179484263904104,-0.0727552116557614,-0.0909224760107877,-0.0875343200478602,-0.0981202081714757,-0.0877224350937444
"5",-0.0546556647251678,-0.0806257595921908,-0.034668787927593,-0.0342121006849487,-0.0254631425824291,-0.108064284144783,-0.0260656817482176,-0.124253342774816,-0.144668259181977,-0.113217419317896
"6",0.0146272855589629,0.0363061137069225,0.0395619956467072,0.0039946466954616,-0.0215877541385136,0.0234540079775517,0.0266377085156804,0.0110228376076729,0.00832944164883525,0.0426203035596945
"7",-0.00663742150019211,-0.00457238695479157,0.0236897774124049,0.0128980248420689,-0.0571042944089058,-0.00449862768020309,0.0103746994456266,0.0164694008798583,0.0102021049364922,-0.00138870904335291
"8",0.0686512670404484,0.0644538879770197,0.0748773563697503,0.0519626094504759,0.0608165029896228,0.0690674787768074,0.069641648967879,0.0419525311808507,0.0272482717377741,0.0246346417683101
"9",0.0538977824282011,0.0585407401526156,0.0688089590597681,0.0212930213041563,0.0133524181305832,0.0520646556226487,0.0449167793759976,0.0204751659710031,0.0142691303569894,0.0277788665282227
"10",-0.0157418105286372,-0.028692504250702,-0.0123597579963381,-0.0277815428799121,0.0318243388694906,-0.0335918403121077,-0.00648010178560148,-0.0335638646611177,-0.0323478659542182,-0.0192276463875016
"11",0.0503097554971641,0.0415839434984645,0.0433555665875506,0.0317199780225976,-0.0445048469804385,0.0286388899784106,0.0503597196003681,0.0526894038820387,0.0434708889061838,0.0168747395025009
"12",0.0235417963510052,0.00133419562120272,0.022123433702669,-0.00810244067577219,0.0737941078777696,-0.018914346207111,0.017479442227846,-0.0435725762468391,-0.0466046484894391,0.00662351668945576
"13",0.00726718666486613,0.0247547240125938,0.0113755896777478,-0.0398551355727811,0.0533022213277057,0.0684259857778612,0.0106342425461178,0.0573125495524328,0.0422126018594656,0.0241949666371112
"14",-0.0813575586971915,-0.0750112286774484,-0.0705186268255295,-0.0782130368127159,-0.0188964990276649,-0.0707445235031936,-0.07697667442503,-0.0460596334948822,-0.0476238260104297,-0.0990424514276489
"15",0.0751714862655733,0.094340799674432,0.0828451447163922,0.0432855051819216,0.0121358586265664,-0.00152891637094132,0.0678077926509641,0.0319276184164499,0.0376495494451223,0.0219059520729054
"16",0.0747743139040687,0.0580708625863355,0.0722196040311087,0.0163192394844629,-0.0594024639270959,0.0785059308582489,0.055151208531871,0.0349506160289691,0.0273631626585159,0.0575378158870282
"17",0.0345497520803766,0.0317981684464078,0.0392920887871377,0.0395515170671362,0.174396532380977,0.0596404592436006,0.0147530043414091,-0.00706141539668829,-0.016650442200244,0.01389515916354
"18",0.0374727036126206,0.0538741523441293,0.0417156087052139,0.042298078800829,0.0310062013082856,0.0536619024671612,0.0378884568716119,0.00400563121657768,0.0130069602439509,-0.00708759966301054
"19",-0.0348852896466798,-0.0178874685190867,-0.00349876201013719,-0.048681312102808,-0.0291791358714239,-0.0454185055128251,0.00922644019737298,-0.00380287694840425,-0.014918858751686,-0.0266814333835725
"20",0.0492755464145186,0.0242013838904755,0.0288825375072034,-0.00785892563140081,-0.0891962900934822,-0.0882733232147717,0.0389558357474617,-0.0323951021397583,-0.0335010880677494,-0.0203876130866367
"21",0.0497806832979551,0.046052506644141,0.060788743644717,0.0524296300206242,0.0917428392557576,0.0103674750629064,0.0563656815296657,0.0487601271916572,0.0409305906292766,0.0467594847280293
"22",-0.0266627799820717,-0.00657699084340423,-0.0118947702553487,-0.0359863432925763,-0.0480567030729913,-0.0207233843982833,-0.0106357017739925,-0.0109142009209489,-0.0118030971158362,-0.0504683308827862
"23",-0.0436424708146399,-0.0726337979511553,-0.0348945801639422,-0.0508845010193795,-0.0744400073139922,-0.0648257044452516,-0.0286648307472704,-0.0188949333982748,-0.0192747352291375,-0.044703297760773
"24",0.0445574680953991,0.0621516495647804,0.0341755445591791,-0.0123859375747338,0.0810311112079283,0.0940266524122247,0.039052067474958,0.0624899433368391,0.0565592684183805,0.0323132252142002
"25",0.0795621283626875,0.0724087821234459,0.0838693864855463,0.0756603687622283,0.15121115660911,0.0546014578620612,0.085647437930022,0.0841418907461192,0.0694635918329199,0.0914135859787028
"26",0.0287354217936538,0.0262359428415934,0.0373520372650875,0.000685027888304571,0.056558303836783,-0.0202385259969441,0.046006511083094,0.0548350268405869,0.0542662319487631,0.0427656966467505
"27",0.100771144910804,0.080638799597625,0.118396472105514,0.0884647195419523,0.26165133569664,0.143654966369278,0.10897143139575,0.130821693975904,0.118505344445735,0.115451216652631
"28",0.105318641032152,0.109469167254726,0.115616999236386,0.0731572441919492,0.0894958040172314,0.0799036516322674,0.119127805985173,0.124821193836315,0.120739900087632,0.0831996396860482
"29",0.0998851556857554,0.136942478159067,0.106452222669621,0.0539321804208224,0.0779369211791099,0.111955040784249,0.0952997394980594,0.127376106034796,0.114093471228892,0.0581646991654384
"30",0.0539752382240225,0.099294994372821,0.0633607057166276,0.0254369801211629,0.0377384565011089,0.032354610492076,0.0504735583940351,0.0852542470835779,0.0770877598206805,0.0221396383253818
"31",0.132738283868187,0.118978284115133,0.142972201350615,0.0657637490509995,0.173787265150105,0.0976520277152265,0.117316729008309,0.0698493650965202,0.0618295345605987,0.093523735347887
"32",0.0370145714923164,-0.0066366561194253,0.0609083456941491,0.0149713960675922,0.028517995131909,0.0683963667366481,0.0495197672629639,-0.00321754168444691,-0.0148358624429731,0.0414616534733685
"33",-0.118981531750977,-0.111894379467878,-0.0949734253981245,-0.131168258577948,-0.0589274143781463,-0.109853072618159,-0.0888857235585806,-0.0705332338619113,-0.0817528315261113,-0.0893927285684136
"34",-0.0418364076483951,-0.0565889578423809,-0.00368719575707496,-0.017914847002439,-0.0355625557706031,-0.0514749198288964,-0.0215644331187287,-0.0688576764023982,-0.0750333770017542,-0.0357420702298082
"35",0.035218615133873,0.0534222450261968,0.0392115766243099,0.0067063102772838,-0.0611095189748005,-0.00828195356089413,0.0326817902951843,0.0179522396208271,0.0214173595152759,-0.0154171545003954
"36",0.0327475578062654,0.0567617987273393,0.0370910313876241,0.0198698086889944,0.0895583860925768,0.0936518428484321,0.04431822319663,0.02754142148596,0.0236393515856132,0.0475711880059072
"37",0.0179944529044202,0.0226632026495836,0.0175966712397195,0.00312895811539743,0.0328350800160852,0.0457557022622594,0.0295524880619513,0.0335769276110054,0.0300878686825771,0.0192269003027882
"38",0.119120280226148,0.117380085347253,0.116858559282872,0.0841287894196931,0.118337446438893,0.106776236717149,0.099469222161606,0.102964651903468,0.102157499049396,0.117204339241214
"39",-0.061703132096836,-0.0594617090729799,-0.039970504771312,-0.0889731467680606,-0.172499962723813,-0.0782657667780964,-0.0511486363951182,-0.0217281789199871,-0.0312799185618396,-0.0702525562415351
"40",-0.0228855462122739,0.0181742220342732,-0.0211058335598135,-0.0328091200281047,0.0189471123803234,0.00550765196203842,-0.0111023379821743,0.0124104436115366,0.0107985272512329,-0.0139570349010403
"41",0.0743086671874163,0.0556949071820058,0.0719900970657079,0.00821908941006445,0.0408531912797031,0.0539341091429209,0.0684339014208641,0.0548796390898556,0.0525239481645036,0.0470384018985811
"42",0.124774892545579,0.112416694556757,0.120534109899068,0.0883546663245793,0.175510460726291,0.198036372381405,0.124994426616528,0.121076359229867,0.106490201070467,0.10725727783144
"43",-0.0451801962207102,-0.0200741268318491,-0.00971597837465395,-0.0417527313841428,0.0767374961501961,-0.0118284575493731,-0.0394177522302834,-0.0264402396369351,-0.0335630603314762,-0.0483822502864805
"44",-0.0803809934688153,-0.0684448602176419,-0.0642081296738624,-0.0884140389190199,0.0015256251808112,-0.0366262063217255,-0.0738541239691954,-0.0987229605995642,-0.113750700854659,-0.0895916641513956
"45",0.0415947612941884,0.0547280067126749,0.107608531033799,0.059110314885128,0.0147706769680925,0.0732728875567396,0.110865497132746,0.0950177234143214,0.0852456133250837,0.0761881088522501
"46",0.0111783078650747,0.00430730645715193,-0.000592445466140356,-0.0301690951554285,0.133078228468747,0.0286847768984,0.0143642431628807,-0.0107273111072091,-0.0115489451126839,-0.0250210532664784
"47",-0.00633703546426565,0.00331377996162891,0.0155621047808974,-0.0354903278408693,0.052792285768366,-0.074777566394109,-0.00793224389561805,-0.0145720348126296,-0.0301637008825746,-0.0527418678535839
"48",0.0423323189660021,0.0232747866977665,0.0281817908959012,0.0228842125102009,0.0397863965862801,0.0463756668567761,0.0322201656709953,0.00961565283464923,0.00165235413366961,0.00394599557328344
"49",0.0176510669415615,-0.019007277286604,0.0116126687975558,-0.00691527565451476,-0.0434852758658824,0.0196189077083836,0.0192438614498945,0.0249541423933871,0.0278766139654985,0.0238731709063488
"50",0.00853619293196251,0.0606010031526843,0.0345779676600181,0.00741392801588051,0.171575255386606,0.0961136331151863,0.00546122306383343,0.0199119977337283,0.0231824332707568,0.0221702265964791
"51",0.0132036842838683,-0.00532223296886298,0.0135703990028631,-0.0126829970443401,0.0472824655288862,-0.025211561965932,0.00493487995373596,-0.0261571656609592,-0.0404647782513683,-0.00729295711733206
"52",-0.097263437897387,-0.119224153475955,-0.0957042857403266,-0.0557864775252272,-0.0385468598207031,-0.0621056246628872,-0.111418802121118,-0.128816130308493,-0.13597382423732,-0.101764424244611
"53",0.00518664921564329,-0.0204161879903972,0.0220011969650914,-0.0120760809423026,0.0726915381051775,-0.00778000642476608,-0.0150928765268548,0.00400160654696823,-0.00130899811902954,0.00369362567654383
"54",-0.0234502136667084,0.00659673985932734,-0.0039194983492885,-0.0430314670965133,-0.0517722891379866,0.0139794886598035,-0.0152037434611686,0.0151943947304858,0.0140926009323991,-0.0364252540342791
"55",-0.0222800034152709,-0.0315370212808336,-0.00532158375190433,-0.00102128355962557,0.0940850655090102,0.081671992745225,-0.00957465481683482,0.0368677614281619,0.0356877131226979,0.0188655536236443
"56",0.0522589390764117,0.0745587866248537,0.056679870087366,0.0414091120309945,-0.00386776156179606,0.0594400050820041,0.0469589785384913,0.0670029644430947,0.0543899478169855,0.000639516586252397
"57",-0.0206490719260726,-0.0365044043626116,-0.0169295744950139,-0.0325241629932419,-0.0170398242551709,-0.0131020771786678,-0.0175337054867149,-0.0676857965467994,-0.0718295511880144,-0.0568853922556058
"58",-0.00605716610301995,-0.0158179444988396,0.00921496379168496,-0.0242808155194811,-0.0259444661956422,0.00561699954080514,-0.000227278302309404,0.0143957731440498,0.00767358457924445,-0.000195352353737243
"59",-0.0246299421097532,-0.0167446414431038,-0.0112751700756369,-0.0589938770875913,-0.0565572637071142,-0.0800887766327692,-0.0143376624458214,-0.0352212518947036,-0.0383315143520968,-0.0724888945698381
"60",-0.0422596599992518,-0.0199067010477134,-0.0149110974364139,-0.0583729428762831,-0.0413711675672955,-0.0470679340073379,-0.0172455772413681,-0.0399510494080702,-0.0440642916012464,-0.0536075132892376
"61",0.0215745332049361,0.000425607754006249,0.0439639293080337,-0.0214945576278814,-0.0690479651758829,0.0797402581891965,0.0201290000038804,0.0134000323079733,0.00883056219964382,0.0124022075337398
"62",0.0909384772865025,0.108189238823745,0.0853064466908492,0.0434621997783678,0.0861178010852132,0.109215659355734,0.0614442467669901,0.106237968754043,0.098940584776031,0.0607298515460041
"63",0.00653731249090416,0.0134471897126825,0.0206418939350871,-0.00782067562663491,0.105791580799859,0.0296316006005348,0.00331193975213033,0.031107745167936,0.0179845147148129,-0.0126389957043218
"64",0.0708882434870341,0.0595247554759771,0.0676088448911083,0.0233313931745429,0.0278381243879584,0.0450195482026526,0.064218020953852,0.0945648680822331,0.0837601098052424,0.0478367449947249
"65",0.07475312320255,0.0668303847518531,0.103196712696091,0.0713609636973024,0.141146475115103,0.1177195903407,0.0901650987299602,0.0777730005110323,0.0772187028960137,0.0967190707172752
"66",0.0375561774773589,-0.00814905626023625,0.0321094804917519,-0.00386918165435559,-0.0105319681358461,0.0100640764871499,0.041089640076499,0.0142720385200786,0.0150934965463606,0.0286856347587554
"67",-0.0131925911054404,0.0167574113925399,-0.00975821649596365,-0.0345981716457575,0.0127421896086174,-0.049215247093866,0.0036833030085989,0.0243146408394115,0.0203527738221157,-0.0336737455116447
"68",0.0443501684082424,0.0349861154376669,0.0419366284407527,0.0343305220247145,0.0663835082631762,0.0395349748172323,0.0141151629610433,-0.00981939607070793,-0.0122762202260325,0.00472036320877379
"69",0.0539481809748864,0.0686777261871996,0.0697853018028952,0.0294533682960032,0.172830789551046,0.0608517670989004,0.058253656753753,0.0858617480840776,0.068132723013201,0.0334984715388442
"70",-0.0968774794892735,-0.0832120815712418,-0.0620459937446135,-0.0777257285512532,-0.105212257155081,-0.0737166247851267,-0.0716952446696754,-0.0201506284833082,-0.0194556565052931,-0.0672939301920591
"71",-0.145307198047273,-0.140140471506811,-0.143852306251801,-0.170546157907155,-0.111433455803996,-0.178859047318682,-0.146727912049557,-0.164923143454096,-0.183036360082295,-0.172186703744052
"72",-0.0106645062384004,-0.0597234802807633,-0.0226585460458156,-0.0656051627889487,0.0123820891740198,-0.0153911562903831,-0.00952195852141634,-0.0419324778090972,-0.048534137979204,-0.0363239873024454
"73",-0.00121187433136007,-0.00691764108145009,0.00164036655831005,-0.00643459538934022,0.0126678214026201,0.0321068896113665,-0.0100852045247993,-0.0233807394268658,-0.0133577764242891,-0.043307331264929
"74",-0.0432568308766763,-0.0509396371081366,-0.00570412696353263,-0.0156692452806837,-0.0953272414972744,-0.0152528959495898,-0.0134027574611007,-0.0299024668688161,-0.0287324111703319,-0.00152697992458793
"75",0.0277158545835273,0.0270732898138268,0.036017020236081,-0.00656866334415564,0.0640571203102118,0.0442476218630746,0.0159096097996603,0.0172651023668966,-0.00255082399174726,0.0182735318471728
"76",0.0572198393324611,0.04677148842581,0.0555020770805684,0.0391698353262789,0.0951741767618846,-0.018573970668539,0.0594280384271297,0.0565420444388016,0.0656758938206849,0.0326574318056245
"77",0.018051248711567,0.0226472911728169,0.0301808756252093,0.0162444236030376,0.064196408944951,0.0531055012008095,0.0449188935974159,0.0426082126619949,0.0361928846788788,0.0113379013760514
"78",-0.0787421394287911,-0.106680494672154,-0.0445144894569012,-0.0834535793504436,0.0452648830502811,0.0234441092624701,-0.0511025675610573,-0.0421053717957346,-0.0408800833070171,-0.0538345924309281
"79",-0.0314242922382178,-0.0290594679807106,-0.0176934839495741,-0.0365015844697163,-0.0444330943020162,-0.0179758392015315,-0.0350757376418444,-0.0196645458590539,-0.0280367537644377,-0.0355666775680783
"80",0.0439394407088778,0.077110181931981,0.0605166320303879,0.00535778623898371,-0.0380400748331368,0.0502912288983028,0.0570979631521114,0.0774721568547807,0.0510737702160495,0.00434875252349801
