"","S-BART","T-BART","X-BART","R-LASSO","R-BOOST","CF","BCF","S-RF","T-RF","X-RF"
"1",-0.0973338603119679,-0.159720309302378,-0.0966829236739027,-0.0778644244142498,-0.0266707828012026,-0.0721632681850857,-0.0174164054481562,-0.177322215244286,-0.245442311580617,-0.0361686506177495
"2",-0.201660976736726,-0.296384796680014,-0.185309534621703,-0.285580316233313,-0.346136040490286,-0.205532894837734,-0.17218856359357,-0.23135886921613,-0.245748144681786,-0.162154056669545
"3",0.318689028784167,0.265153061214758,0.340400154259149,0.318161085241055,0.189379439454949,0.315301708263036,0.390272909938197,0.186341762914424,0.160288728852476,0.318895647748562
"4",-0.34552733222673,-0.392743785499691,-0.400303372507859,-0.404135740102846,-0.565653816707143,-0.439838285898307,-0.355404712422154,-0.42801292608614,-0.478416407008128,-0.495143481176223
"5",-0.0749371109284329,-0.131297453139623,-0.105557750849814,0.0142466629820114,-0.0752738972344168,-0.0899343579654592,-0.0424918540638365,-0.244878439070621,-0.260939021954686,-0.222402612580301
"6",0.00130632413816492,-0.0727632320953038,0.0262791157869985,-0.0296092459261753,-0.153432171774945,0.0406774642716501,0.0434076136057847,-0.0241755978280929,-0.0683496719090453,0.0584072080446692
"7",-0.28903882153912,-0.403142020105904,-0.160315867348572,-0.0940248038890713,-0.193501222202627,-0.0636770132924787,-0.142047165125472,-0.325680416812652,-0.347226839460136,-0.111044955984896
"8",0.49166951915359,0.422361203379267,0.428466004063223,0.475621065631255,0.484986259245469,0.535785267606004,0.439059696591313,0.373987860847316,0.363611057384492,0.391712687163915
"9",0.418452335022931,0.436751743196094,0.370129503714427,0.288086349029892,0.0983910241295049,0.31140604541916,0.443359207602292,0.29683933744867,0.309463782617538,0.362658702863195
"10",-0.0780699932189655,-0.145458006092947,0.0424448733686725,-0.0341777756183564,0.0230426614191565,0.0242422466081782,0.0379525048212194,-0.117455198680432,-0.169145557348997,0.0938073150312522
"11",0.202239505962098,0.174153165525808,0.159561242568888,0.097795839235762,0.182863046934814,0.163624064310931,0.186324672777196,0.0935399373409289,0.0989132832216017,0.0806809371059737
"12",0.0288748383070122,-0.0559259294536652,-0.00527919537138436,-0.00400180278046006,-0.00642601066721751,0.0806765787395374,0.0218303526396549,-0.0821347526427234,-0.119080152797652,0.0063584608693956
"13",-0.14840908396427,-0.215064425050169,-0.213357569569958,-0.218828919825587,-0.284927644052727,-0.132449881368524,-0.159140086205902,-0.224008914268585,-0.260102838049238,-0.128671350012661
"14",-0.446928593500191,-0.486695810119693,-0.477242240075123,-0.490120237275697,-0.411245474214179,-0.458944176403189,-0.444911085344137,-0.539324872786007,-0.574446669080036,-0.59224002918649
"15",0.586796052607506,0.605638710907425,0.580464773667542,0.433237216836705,0.236540217198185,0.497207531270408,0.588317017180867,0.551492787219847,0.551901728574354,0.540873003700483
"16",0.360108158881343,0.313764281829687,0.32553778964576,0.21642226873934,0.192023199834507,0.323763975908578,0.333752027697735,0.204484069126061,0.226416375623055,0.312948531261327
"17",0.290016964058204,0.233248482470866,0.168365350900796,0.264542763395231,-0.00365023774106709,0.291699730164813,0.209839357141626,0.22934022891259,0.200930440958016,0.207407868915054
"18",0.0267389367621701,0.0293521099137208,0.0262213921330896,0.0942912468850669,0.0910533224371465,0.127445380504889,0.104381864142508,0.00290753871449002,-0.0145393675553857,-0.0425738175543299
"19",-0.143066556281304,-0.201576407905826,-0.138255822643319,-0.19762427073646,-0.163925472918973,-0.082290332499222,-0.103511926514409,-0.215455224710406,-0.216385235855204,-0.0508744729707735
"20",0.185682392233358,0.0670655274607401,0.0973277628225042,0.0335956031572816,-0.0720308974562294,0.0967441403315149,0.0898948865575225,-0.0949582605515947,-0.112919774905858,0.0566028519984129
"21",0.27723366835388,0.261660584917274,0.232637622725749,0.283091723560551,0.214725743157471,0.2499426676284,0.320632249032535,0.300314110833634,0.319009854348716,0.185295722900501
"22",-0.0968697658803009,-0.14983363253739,-0.0256361032729701,-0.0805832582766715,-0.0580753578479699,-0.0445235739181555,-0.0332998155250835,-0.175415143853299,-0.197984397539994,-0.152906107688381
"23",-0.171968838242794,-0.281159243941333,-0.138946537150592,-0.123970506020733,-0.0801342875322591,-0.0965305724915449,-0.118535905301227,-0.246842112179071,-0.246889845053361,-0.0557558383309063
"24",-0.00581753352991308,-0.0349358085945744,-0.0811292829324375,-0.115136129408911,-0.0315358281353511,-0.0314094451221118,-0.0401215924915606,0.0067173342365591,0.0259590395208394,0.0333844205186148
"25",0.0547634337721813,-0.0550721110261165,0.0520697330952718,-0.0271116154931705,-0.242580823221321,0.0733063545999181,0.10379911185954,-0.013892223413445,-0.00622030735435973,0.105368778142429
"26",0.0703315963619799,-0.0203414051453891,0.0891550716171616,0.0795069860451067,0.102503409799438,0.0618719282170916,0.0940883923941023,0.0147977658190948,0.0289458100963107,0.0748904762982124
"27",0.539003848513076,0.471844959154008,0.51549944118613,0.583650587393483,0.514749048690262,0.601275284330669,0.546239159944743,0.518366362136299,0.481815009699513,0.59364085126676
"28",0.365950429869929,0.363032748733214,0.351261605471242,0.325545017899681,0.230292822532418,0.420641241280873,0.410773877903749,0.354581045970628,0.332152604136964,0.448254128769262
"29",0.483714116816147,0.595536297592359,0.470684875223235,0.311707998635611,0.109524331049758,0.243615539421211,0.507866064434539,0.557374968187648,0.556918632543721,0.210091055751296
"30",-0.284908871102519,-0.299420810839366,-0.23195474379379,-0.269964236408883,-0.217157325151534,-0.246513966170747,-0.233201223302699,-0.419082983264064,-0.410587616534561,-0.417154035272725
"31",0.4723947718268,0.441743602524352,0.490229111258947,0.305837994677098,0.0953967768745396,0.416123201704224,0.445324934612172,0.442087196449982,0.427820254591607,0.322911479932065
"32",0.252647948834536,0.159205387424053,0.27320027519078,0.347394605676277,0.0198314078375331,0.24302771160742,0.290953478696854,0.146032249806617,0.125365530036289,0.260898740255463
"33",-0.593634500003746,-0.622032427674509,-0.58202858560297,-0.606117414651213,-0.481309072018569,-0.479544942786078,-0.532331622441448,-0.648517543737526,-0.699829466912825,-0.506514606571616
"34",-0.188001992191147,-0.287520952176613,-0.0759571893769024,-0.136991968243109,-0.16479730887724,-0.0950651956206425,-0.0985465116697799,-0.301851207416906,-0.297338445109809,-0.0170706418747724
"35",0.170905525413137,0.273023743857307,0.120301203380431,0.0445681375055997,0.0524377517454466,0.0703837469172525,0.156778192489057,0.248291996039551,0.253154935164051,0.019902311932047
"36",-0.00501459376245011,-0.0291626513610894,-0.0126093502308705,0.129386246577071,-0.150173634188672,0.043931087624248,0.0675423870453593,-0.0662306798816545,-0.0740515348979482,0.0260151085446098
"37",0.0773397250066773,0.0393381760884151,0.0501409124540395,0.122242705739953,0.0964567053203073,0.129158924159322,0.0946846358811882,0.029721914070631,0.017776145583331,0.112211490357375
"38",0.447078552378451,0.346753860495454,0.374942354706765,0.388620591114502,0.272535597394278,0.432139124528479,0.3800726179385,0.274732410655761,0.293705832655184,0.451907870269123
"39",-0.433715961755385,-0.518952455454921,-0.435606968649948,-0.486777567215164,-0.433804069235669,-0.373061135467675,-0.430917200435524,-0.464648177431249,-0.491154937311691,-0.424101431185006
"40",-0.236257285471583,-0.198525740179164,-0.268132949680123,-0.0979260083638875,-0.224017766455627,-0.168059200348866,-0.194500069644183,-0.137928329503761,-0.146905986194245,-0.2089902296756
"41",0.0959724003977169,0.0680981136310394,0.0579185423995598,-0.0978167102199371,0.021992523255532,0.0689013644204035,0.0497453602804678,0.0224109640587696,0.0260678256335231,-0.0227560166247485
"42",0.51903956711195,0.463520250940242,0.512371896723122,0.365020314727313,0.136482922522402,0.476274630353456,0.505279284590253,0.400092539995365,0.374639061263357,0.445002003862314
"43",-0.0580161698953546,-0.149350528141176,-0.0657403222595464,-0.00715743895836853,0.0637658240171507,-0.0271581206758797,-0.0312373162625798,-0.141524022087708,-0.180349300876249,0.0230199999463572
"44",-0.0244628600449825,-0.0536982568199816,-0.0258423282927608,-0.0839894409286254,-0.0824504560609609,0.0437894145348165,0.00832994572719707,-0.120124487328693,-0.123913802107877,-0.0311420537764704
"45",0.322425675020753,0.241137533594667,0.472549720744837,0.375699759913439,0.225248841440983,0.365984530541715,0.454721430176641,0.281202905805002,0.25520735067367,0.417199648019674
"46",0.0451458304557137,-0.0662825549492265,0.00233714352572601,0.0290760663581631,-0.264370872222295,-0.0180719519887433,0.0509145353280085,-0.0524838090275412,-0.0726787580261848,-0.0275835236151744
"47",-0.0603919243790834,0.0189819566888478,-0.000876212406020827,-0.133776261645022,-0.207834851103486,-0.0351624838794755,0.0188515087573497,0.00884105060686825,0.0400347301653651,-0.073512929610458
"48",0.246476415437839,0.258205679731333,0.221346640049097,0.277926596006869,0.11020091388156,0.315930266690017,0.269984509746778,0.177591464627644,0.186161900849095,0.208776211457903
"49",0.315394322456176,0.239383477156945,0.324899922633609,0.363088252801185,0.246692525119281,0.395503950117042,0.351058351497145,0.229092624534405,0.242237456846698,0.337300498274474
"50",0.0827629087457415,0.14314725860922,0.145899414557155,0.225291056532337,0.256981729243584,0.261595485638487,0.190997996157807,0.125766512969446,0.128691272980497,0.0916435156034451
"51",0.258186809051449,0.159051184262791,0.241940991076162,0.283825796513173,0.305928632871408,0.355397660627967,0.281929727688389,0.179140649510687,0.160858766586104,0.377212243448063
"52",-0.0176966688829807,-0.119727583292032,-0.100098201984511,-0.0417957189005492,-0.0481892441271319,0.0254018276258459,-0.0749363449849565,-0.113564936945608,-0.16380398163263,0.0615527918222704
"53",0.0820225565577793,-0.0373678815625025,0.118997991136339,0.0124381715398471,-0.144170698830765,0.132591161194968,0.11998221520278,0.00566647291680643,-0.00621711927593836,0.10149291480449
"54",0.168150574877404,0.162653720940978,0.217549572370007,0.0278984709184363,-0.0710827995833184,0.150544196833064,0.160534246367676,0.0501210177297173,0.0578921852344265,0.117798271819937
"55",0.125319186086492,0.0620656975126989,0.095235582406894,0.286479743190018,0.249761652487262,0.22662682506166,0.132813492146872,0.0566256415757924,0.0773192185090444,0.160932233802281
"56",0.235820200329441,0.262053021216271,0.207199352937977,0.198620355838666,-0.0138861847614497,0.120557998111951,0.250798931711018,0.227165426283683,0.197752153778462,0.0918530734930355
"57",-0.0313901097574824,-0.00289735849219571,-0.0285099402681993,-0.091249389154506,-0.106320518823004,-0.108501944101788,0.0181373777240492,-0.143003534809886,-0.161845156432461,-0.12101995500137
"58",-0.0371072485233423,-0.0599302731724979,-0.00783791629870129,-0.053700161352279,0.0180098615068801,-0.0427708195403329,0.0153728970248229,-0.0632184732326333,-0.0584278371824235,0.0154926435938072
"59",-0.00563050681179657,-0.0677105554275366,-0.0168995710147228,-0.154542157753673,-0.215957616558115,-0.0506170389991834,-0.0302204352394674,-0.227206718127064,-0.22648510806199,-0.111427505598228
"60",-0.285535320339665,-0.326890268497832,-0.215421135083781,-0.160351466574028,-0.236324491203211,-0.133208648532033,-0.195888140268746,-0.274015879854114,-0.30842178217956,-0.204046151931687
"61",0.0148809691702884,-0.0799781908661181,0.0561942838946057,-0.122389296697685,-0.106259171327833,0.0072647844209423,0.0526923519707714,-0.0899474359218062,-0.0979913512826448,-0.0620496820458638
"62",0.460220412602096,0.46014895539411,0.382557074790016,0.404203175353954,0.367570923925798,0.377606989562622,0.402129291754856,0.33634517762644,0.330493104829517,0.330683284634135
"63",0.0106135848463988,0.0216061535443436,-0.0024911797371555,0.0491684027434626,-0.316288373604248,-0.0107933151520772,0.0320799686926622,0.042094555390498,0.0257945420083073,-0.0264095561669176
"64",0.426108020332266,0.391981635075812,0.427949367026141,0.339273999565123,0.204611787269347,0.330511324886145,0.431390683074022,0.37110658565928,0.32344082847384,0.341604275497888
"65",0.555970930635686,0.44773078828678,0.53860250303857,0.474950756085101,0.593612215292031,0.586915419563479,0.562356981971768,0.37235672238712,0.351756139144786,0.498489474052109
"66",0.145845775671724,0.0546327040508245,0.197169050443941,0.150047179035214,-0.0444381155218554,0.23384930514309,0.235458461070427,0.00965168432685107,0.0590452465771133,0.243377311149094
"67",0.334958591251535,0.306488405827992,0.258246887330063,0.184912978878939,0.202849800886677,0.358134976484614,0.322862095829121,0.245783298964995,0.260930275305803,0.318390031077152
"68",-0.0673411004843469,-0.134217523635025,-0.0563612874970365,-0.0713908491275538,-0.0690548424478085,-0.00449693838911708,-0.0450556232871545,-0.09772760854111,-0.146919836817175,0.0161609622937881
"69",0.563357661653117,0.504365447972084,0.509120143368416,0.431381465508422,0.320269982404149,0.507567514220989,0.503853704023757,0.389849538672804,0.393077218584111,0.417153394312606
"70",-0.305073235431219,-0.407319382645035,-0.249480137922353,-0.123638745517304,-0.32611846405324,-0.216034943466702,-0.255352551717834,-0.332903422251972,-0.360102465828385,-0.233057753003922
"71",-0.651549238437894,-0.666933249347986,-0.665159927437421,-0.712402853210721,-0.667948841588878,-0.637772230154916,-0.695757131247976,-0.773951925648297,-0.770787355768897,-0.722104257771516
"72",-0.105352013568632,-0.171541077662315,-0.123964440026028,-0.281692614223669,-0.156478548809736,-0.217572505276578,-0.130517406558103,-0.284871505313517,-0.311796250856218,-0.299284880290997
"73",0.124301520273044,0.132461780310453,0.10654346136101,0.158105490854136,0.11481081075174,0.158523434308418,0.143028840586735,0.109335211679162,0.0899622973480872,0.0478336058294384
"74",0.163587650825426,0.0912251938342273,0.292591923382138,0.204796622848675,0.186693731415165,0.340145813920764,0.288139899377167,0.0215838956915517,-0.00216022328301219,0.223729767813114
"75",0.23784596046256,0.170055057372637,0.170590700919804,0.160323650398544,0.282879149440885,0.259255989600569,0.185955012837305,0.220687639151041,0.199225065921923,0.209593836555274
"76",0.252035078305259,0.223902562273786,0.217104403648703,0.273326275552462,0.196528288095357,0.2637517761323,0.267896715022168,0.188553416121686,0.213921308091181,0.212393772396205
"77",0.27456244164999,0.248788629362598,0.268853546091659,0.313488430305646,0.248843648053661,0.301514050623354,0.325936660948373,0.245885358875046,0.222227055606195,0.236418127581488
"78",-0.464701139383701,-0.612155524060459,-0.422233663399867,-0.421264899025467,-0.760075763906692,-0.424971773985541,-0.40698904398599,-0.558088600653228,-0.570998341309523,-0.394697023820319
"79",-0.0751024682973647,-0.109969010357196,-0.0966319179305723,-0.177735375721884,-0.116302837620259,-0.0570454102669648,-0.0777114555787664,-0.121122369855723,-0.16393844943559,0.063792176106384
"80",0.138322987644796,0.163611433544703,0.133378104814881,-0.0248264604616566,0.0555616574254311,-0.0144420436737323,0.15827054708897,0.195466655197552,0.136162228239713,-0.0628008824884902
