"","S-BART","T-BART","X-BART","R-LASSO","R-BOOST","CF","BCF","S-RF","T-RF","X-RF"
"1",-0.298532337322042,-0.278661132136194,-0.239524784740137,0.353431812840649,-0.357945592813193,-0.0559100712379197,0.871495570849508,1.9792230765149,-0.360278309291136,0.258143874824247
"2",-0.741892573954523,-0.846866347345509,-1.15373053895477,-1.22704532621472,-4.05003757201562,-1.28039430413076,0.0999195486188868,1.75515956983343,-0.523006922289815,-1.27216551235127
"3",3.9206074116113,3.86689533294541,3.61848534993263,3.19169820881821,0.877858441918906,2.66145046362491,4.57528876536037,5.22208902364503,4.83411667263284,2.89726288479984
"4",-2.78519654182958,-2.90253321439506,-2.7830710607222,-3.19333951387057,-3.55926005815721,-3.16580461681891,-2.53754371206987,-1.20680516910534,-2.98936926859804,-3.40555729097842
"5",0.111500790114936,0.19913328556414,0.258901045470218,0.553453818304358,-3.64382743712965,-0.848555406144327,1.9983235066246,2.80947269956302,-0.415973947964249,-0.375250657712745
"6",3.43949590458647,3.64055325519085,3.33682623931312,2.60238794457032,1.81970987064775,2.34062351339046,3.95106402785404,5.0539396361182,4.19326840160124,3.81883777775882
"7",0.834675193846564,1.34477261648703,0.71663577649661,1.56495053509165,-1.00483335914162,1.05119214513943,2.65409958354359,3.26153221219396,1.51321064670498,1.10799020515628
"8",3.37625571053854,3.68766078160601,3.48581202479432,2.55996438834374,2.05824149758979,3.09323032080145,4.06034630336059,4.8874204161886,3.99216693008512,3.28144049331685
"9",2.84859049799339,2.70564952763134,2.67205910797205,1.85008177999471,1.11289504217092,2.57933376367311,2.84918529663834,4.13465822629604,2.73538895571147,2.92214303099916
"10",1.28946452032823,1.29565983610703,1.42288594790083,0.59404634940901,0.526559477754246,0.602454418031688,1.77325023096265,3.58994480107835,1.10991542608322,1.57552225867924
"11",2.90005879057301,3.05818491289049,2.94381174344551,2.1471187245665,0.503785114149279,1.54362405329617,3.4608449224363,4.96287196216659,3.28096517214466,2.7910654285258
"12",2.6764734265793,3.30909809191618,3.27825563347522,2.77898383591062,1.74865706544125,1.93388792733151,3.4800656605474,4.3908069977576,3.48247915640643,2.89053368805392
"13",0.0765791416159981,0.140383739338191,0.0412932778532819,0.202796025333799,-2.66614805995148,-0.30029614570898,0.77174362025312,2.74652205182172,0.0804087363372599,0.255494678606676
"14",-2.98102531361091,-3.38634001721327,-3.17316272171735,-2.96928404109567,-6.1589149358017,-3.61786118390206,-2.05010768900289,-0.832814784480496,-3.35205226025163,-3.18517291606074
"15",1.16656442413875,0.620104388436022,0.929081793151807,0.474361629229524,-1.353375351704,0.718704603147988,1.80475667789892,2.76285861760142,0.104652913115303,0.425374019911749
"16",2.28252135798789,2.18500523321616,2.11990532399432,1.85516574162194,-0.139037098230498,1.85936206233246,2.64930067385405,4.04506795776116,2.36862898725447,0.990081879494612
"17",2.99585585483088,2.45175041273871,3.03930694424306,3.73179910917924,3.22878184401838,3.30020029695732,4.46999872692974,4.51777096094321,2.21178915730454,4.02606133946605
"18",1.27127644789944,0.832491510583105,1.23324044047941,1.25670829446643,-1.08608630029034,0.954747395118209,1.84522225317232,3.61516799784471,1.48676193555894,1.45010202828212
"19",-2.91176497975038,-3.20483540547431,-3.30247614184939,-3.3673592604186,-4.93124221999835,-3.54927941791369,-3.27219846856598,-1.15815613302116,-3.40890776525241,-3.37398262997759
"20",1.42584243581335,0.847193452868303,1.12937942390821,1.68779232542072,0.45244971968654,1.50499789696136,3.22359809068482,3.53054231777675,0.715463693119532,1.19358446025241
"21",2.40951997732507,2.371566243584,2.65149913503797,2.62312113958886,1.81891424290993,2.50816233622518,3.47821853700793,4.21275549535259,2.35503731209487,2.75811948992355
"22",1.33721575662947,1.51952728249498,1.45002846770806,0.62161066671026,-1.31066185021772,0.531222186256416,2.32979563015472,3.45771620099836,1.4077742542265,1.29243735695512
"23",-0.260618013142268,0.520674703792184,-0.139500529104028,-0.304868848939493,-0.491863971176649,-0.575619317431092,0.8731242364552,2.42927748703295,0.864545566274072,0.543736440945264
"24",0.122693348046987,-0.0850996222781123,0.49569211081455,0.0480703593346444,-1.94797408005681,0.16101356254986,0.294479770621662,2.58714068563311,-0.152339950924645,0.763175966705281
"25",3.62132145660481,3.35238770569975,3.41105268057722,2.70083545279824,2.81156516792247,3.50069019576988,3.61622010280273,4.60883661620432,3.22901268001554,2.92173516000552
"26",2.69638622399314,2.56674905947351,2.51193516191737,2.16362286328473,-1.68633707014233,1.46771300168229,3.24106408884979,4.37152485894317,2.2716575605921,2.67232651483155
"27",3.19953546838386,2.86549345814131,3.15160073312549,2.49065445286488,-0.319081795467143,2.28518379270619,3.57462535576532,4.96170544738656,3.36897793678074,2.8065561749125
"28",4.76019431382278,4.56017405317653,4.76832443834232,4.37878680281683,3.88762359759764,3.75757839263408,5.03013772119675,5.49919378320374,5.02678711428562,4.36361829612105
"29",2.64754188043507,2.67609548991971,2.63935202848866,2.16962260030449,-0.317630148659372,2.36945455662157,2.75489121482916,3.7394786527759,2.08265261793976,1.25997221423379
"30",3.39426277885047,3.30339723811039,4.0198691888343,3.76387279115718,1.57809663952021,2.96210358653882,4.13178597992373,4.21699180813691,3.33806607790643,2.80057140076022
"31",4.57559330543484,4.54630473169808,4.52548127032754,4.01581318380822,2.31692043146988,3.94919303442565,4.13468174941336,4.86937953900594,4.2303663160017,3.39755246642995
"32",3.37348419166308,3.59679978725734,3.46521498251397,3.70286992460057,2.40978915942218,3.71848538441004,4.35738074082806,4.75800670936584,4.04340302896802,4.9024972404929
"33",-3.74578502075684,-3.90332578579026,-3.77513624490137,-4.42019913476039,-5.02043502699979,-4.69804836243839,-3.65370696625508,-1.41155229799607,-3.13974599450509,-3.2071658806322
"34",0.150925024825263,1.10893027437188,0.0789909135359096,-0.171565704865512,-3.17154056893355,-0.161565951133786,1.6100341267063,3.25441520299078,1.22398264898928,0.727844081614356
"35",3.86969193272059,3.67166972675757,4.0325813894909,3.06152740964031,2.62369728885495,2.86218911506407,4.15697105970538,4.93296129112212,3.86411642340294,3.48423337324377
"36",2.19217752400668,1.83692157968211,2.10101366075627,2.50160878421637,1.83117581893133,2.43093228179228,3.1470616929593,4.24287110961578,1.63235863831354,2.75561847155314
"37",0.822423847909199,0.75661214048552,0.79377502914322,0.757372550241138,-0.423450759456294,0.356038495263231,2.25371617902041,3.73259249473447,1.26199568856028,1.62826581183395
"38",3.05292698764784,2.49318732704579,2.71024470664079,3.20584024113524,2.56793059191991,3.19616727876148,4.21905430277448,4.15678425683164,2.12212956070601,2.90393880002508
"39",-1.27893288756225,-1.34047552247044,-1.46817248069092,-0.844829094330323,-2.29897812266144,-2.04633024836643,-0.793785526034222,1.30597407890282,-1.28182387989731,-1.9842018688934
"40",0.438428804046857,0.00956229229130148,0.639447895828581,0.229133382860366,0.710360971572568,0.0145098895402544,1.65152642584115,2.51623279441578,0.158712098744763,0.820206548752698
"41",-0.604178859685038,-0.800892100075084,-0.670632493230031,-1.2359676087296,-3.01521426195419,-1.17522512173906,0.111926233171074,1.97450437316958,-0.830569943386755,-0.17553796680737
"42",3.96118486512878,3.30795605379611,3.82610207318517,3.62004045755228,1.9540003553857,4.5310338238879,4.25807019312388,5.28925701396661,3.46126123427834,3.85477639966085
"43",-1.54410834251543,-1.75521276731399,-1.68588834870656,-1.44878369338764,-3.71120631899311,-1.73381655085029,-0.676932353412207,0.907682384364855,-1.83955359134896,-1.36898915731608
"44",0.917084501255285,0.751224013966156,0.701478196833208,0.686092683203731,-1.47233124413557,0.836956625193812,2.16563551574241,2.90599471053886,0.948468909280928,0.447715711826211
"45",2.4300182235297,2.85383251797909,2.24658539589267,2.03741359879341,-1.23505653471551,1.07633200579846,3.15309309453999,4.13021408671157,2.77365180534038,2.38770212444247
"46",0.616603947080531,0.440952043661928,0.802799876174032,0.182031662871578,-0.882921180069272,0.965267440181152,1.33892376676975,3.29365936426001,1.0670432053017,1.91456327295981
"47",0.176255087628555,0.295250669011342,0.270568261572121,-0.528543242715136,-2.76770357905557,-0.283476901157775,-0.336922367363768,3.10086961021684,0.645894719968993,0.0881338057717131
"48",1.72962340808356,1.50656542815693,1.88304878453561,1.74743369262704,1.06732303530131,2.09694868044068,3.13076395513247,3.93508307391018,1.50916678333264,2.16699465625817
"49",3.30599279544373,3.77947254320162,3.40833139147756,3.22238131288593,2.11761923820498,2.67647522890439,3.80850135584379,4.77433971674831,4.3752072792879,4.36053310668212
"50",0.37517434080267,0.859963549932108,0.514135363682631,0.415211946601021,-0.138563085989146,0.525203646405043,1.02165091434101,2.24305313031963,1.07375508351725,0.129224334526461
"51",2.07202625610733,1.29152743865059,2.06197638304834,1.80647799869066,0.599720815137479,2.09539599183763,3.38154123476692,3.84133957351541,1.07081787064965,2.44704904506399
"52",-0.522032164182561,-0.632896359915189,-0.322403215303214,-0.35569795295896,0.0825282810057751,-1.28345012769515,0.346466874091751,1.84254516027871,-0.549798063793353,0.15888505315533
"53",3.1269614331372,3.44190585612283,3.26851633800611,2.65951617862848,1.53612340433917,2.55754154469397,3.86787449300864,4.82065688927234,4.04445368935292,2.92661965060225
"54",2.66552269832899,3.22327316560913,3.11293581035727,2.99848016357762,2.57238431534736,1.86415867406463,3.66551224254081,4.36196433789913,3.0350720915284,2.11551047161325
"55",1.65592465619514,2.30264077462459,2.14259294257113,2.3083159445503,0.304275826166175,2.20200045448653,2.72300133375384,4.17100238705367,2.73032307817386,-0.00883074434636431
"56",0.287369819430816,-0.857076976461212,0.00459645906897005,0.285146507768609,-0.650862676853454,0.309870714661692,1.24222730684487,2.36879554911219,-0.224850015175954,0.451495913452655
"57",-0.192421181400925,-0.624374768420077,-0.421660190783749,-0.460883562326141,-2.73286159413493,-0.257192965499949,0.080615443952472,2.09527870213611,-1.02412163376029,-0.785885769100681
"58",2.05283854157157,1.94023565085403,2.15839788702248,1.65072786220207,0.66153826417287,0.949499255744767,3.125495947013,4.1817366717368,2.27038556269921,2.45265499803994
"59",1.14476020372075,0.859139385112886,0.990548930822882,0.206328179606387,-1.00923227706663,0.656724708599659,0.965613914693956,3.23116756739194,1.14131583555256,0.724348124542982
"60",-0.773016203154143,-0.927282489195413,-0.73693268380741,-1.21604781751826,-1.46167561698614,-0.964792980369248,-0.750127912705671,1.4647218720123,-1.01455416335408,-0.181506539263185
"61",2.16313573896184,2.05402023696396,1.95785168813067,1.46880360647446,1.07975372941412,1.15169195086845,2.30158767947623,4.08410883391671,2.14816820510041,1.3418407754744
"62",3.90228326950986,3.86334117553946,3.81999989781715,3.70290545772482,1.19207966941031,3.7005868775753,4.48407742302496,4.63892347370492,3.71349608646336,3.53077622600543
"63",-1.2351851207406,-1.98253372781362,-1.42401191892655,-0.337513824504382,-3.59161380521706,-0.642613087411555,-0.108009794296461,0.939891433629815,-2.09733765978274,-1.55194981198887
"64",2.57233744782708,2.84653037931151,2.52613903992245,1.6707831802405,0.834883072683268,1.99134596606357,3.11801728128054,4.4394416165438,3.13048447446987,2.06762459996135
"65",5.86346920227591,6.11871336376118,5.87295101119083,5.04300973478729,2.1210507402804,4.89291597345303,5.51526485302015,6.35253980005351,6.75642921258555,5.66755425719235
"66",1.20160827909156,0.933399402604061,0.850907781266106,1.08244076051079,-0.547730032495722,0.614219888021443,1.63822428663549,3.32503329537837,0.817374901362804,1.17609115870264
"67",-2.60033171353148,-3.09243162017457,-2.90853027541491,-1.37207883145333,-5.09282063556035,-1.54871903689019,-1.14988478276559,-0.813685659969979,-2.72381840735965,-1.60488362193446
"68",-0.399729261172909,-0.648318410221741,-0.591717974511563,-0.58024388461471,-3.20688256699078,-1.18719040243451,-0.365492932507182,2.17222720025551,-0.841241365892663,-0.921991651780635
"69",3.49650761200809,3.26148076588979,3.5672025497898,3.3850100495627,2.1482838839443,3.25516840060703,3.65943846064757,4.82043939488357,3.91526851231324,3.93773094161326
"70",-1.61345872810746,-2.06128120299811,-1.82737189231716,-1.87904344144652,-1.67650719159414,-1.80310357955456,-1.60968169229116,0.975064672462353,-1.50625365696645,-1.16324792836537
"71",-4.77871680037413,-5.10529199760272,-4.70593282963431,-5.00243702016312,-4.96735725564232,-4.6810478494628,-3.93284478575489,-4.00284171987627,-5.35725196648166,-5.05366170565124
"72",-0.163797742874678,-0.46209572842035,-0.307398408075032,-0.781279760002098,-2.86808754148526,-0.875502023861111,0.305089140400149,1.9007725614245,-1.02097083661425,-0.823381776745806
"73",0.349068423727448,0.07912605918188,0.187348201529117,0.325862685360729,-0.184172825531971,0.170629338903441,1.34892936647055,3.23192770536273,0.712394264159192,0.612398271447913
"74",3.51785628841456,4.02538894023571,3.55941532893068,3.20537488981063,2.66547928227817,3.23963451694573,4.40401212565209,5.15099016954978,3.81373846107243,3.20604429446901
"75",0.847234559886615,1.35737755568551,1.48162696733951,1.72150917645411,-2.30509573762058,0.0461588635551244,2.23179395916459,3.28383396482963,1.33678333626686,1.03779546466803
"76",3.69153437021975,3.38776988539382,3.72693328673007,3.63829022272604,3.06715566152682,3.02479427625314,4.78861310213908,4.75761375618123,2.98837636755443,3.84991769939562
"77",1.26764392469829,0.868735801653922,1.1626537079633,1.6770534317821,-2.29459660566818,1.97364306955633,2.26156668169807,3.18576267582606,0.763972703147584,1.49485728345557
"78",-2.75658307304261,-2.15677910991021,-2.76965703941144,-3.21708802650497,-5.4183200789471,-3.5323891609399,-2.3751381883548,-0.0219985579761503,-1.81523945268171,-2.66838349106055
"79",0.875832025061128,-0.141343793763655,0.517092942541927,0.802659078572456,-2.17802378058954,1.18476903533191,1.41136245807962,3.52532099084832,0.26705304933464,1.50648122324756
"80",3.40256013383768,3.11697638511416,3.15775732340758,2.37800054090056,0.307586210896587,3.10307638604293,3.3317514211027,4.57712670188781,3.1769391632932,2.65548318984436
