"","S-BART","T-BART","X-BART","R-LASSO","R-BOOST","CF","BCF","S-RF","T-RF","X-RF"
"1",0.0409822056715684,0.094583755389003,0.265384965393231,0.336100099559804,0.0305260309261513,0.225066958851812,-0.144058692286708,-0.172189764074377,-0.0671699777379766,0.976550444857624
"2",-4.05827988224469,-4.58680473740466,-3.94232270435378,-3.82350635887531,-6.55455674741173,-3.97023605180045,-3.75466844883825,-1.76933397669598,-4.78852863225462,-3.88111343537873
"3",0.971650755340206,1.89271978046211,1.63926685282947,0.0514285764685164,-1.26283096339572,0.384300035995523,0.122583287328829,0.540129243014668,2.24333710738741,1.43428472035606
"4",-0.982680427316515,-2.04471223241937,-1.68734476703472,-0.312908118719116,-3.276895412537,-0.919353584298102,-0.424057880289728,-0.720802622031322,-3.04410382445935,-1.45386203256664
"5",2.16940672914928,2.07655262006417,2.08971981844891,2.15557699687761,1.04057288824281,1.87800667538835,1.01045538405625,0.678446130560977,2.02239670657686,2.26764195496944
"6",3.82084964715135,3.32530722352161,3.72487826232359,3.84261859071233,1.91419391011644,3.7447226007991,2.43615538846049,1.55895727231364,3.04279496450595,3.73753036473727
"7",-1.25600658526172,-0.761434553124416,-0.858752216448071,-1.3565146103264,-3.48681448641802,-1.63871240096349,-0.677639661917254,-0.820804419724838,-1.06254339354535,-0.88692329675056
"8",-2.00521869822337,-2.72389625667052,-2.38811572036164,-2.04913164916661,-4.40781695164136,-2.27035332396788,-1.66200689622856,-1.63488889465461,-3.62108488072146,-3.65162370605915
"9",0.58928675942759,0.262345195398476,0.161617462947477,0.191068345668273,-0.578948313978092,0.813739073169415,0.278263963314851,-0.18327750580879,-0.119926868408985,0.537042686765729
"10",-1.02807190640265,-0.409463691983999,-0.788599130064348,-0.486143655057346,-1.30906719698777,-1.33228816157592,-0.986987650021095,-0.461957018647418,-0.472743279181871,-0.604946720555361
"11",-3.58346914783381,-4.10147117315427,-3.42603247088671,-3.98973984675121,-4.81142588962087,-3.84657006780779,-2.46774594641759,-1.77708751283954,-4.20820253980534,-4.39275176999168
"12",-1.28481486461509,-1.54766179102496,-0.88137549344181,-1.2647122393933,-1.41234921051428,-1.62175909902294,-0.66851079391593,-0.736984834734318,-1.75513296791938,-1.35688394899505
"13",0.940742038056124,0.655397003223713,0.997764386131381,0.92663286967841,-0.212254173125186,0.639651042698887,0.364422702834363,0.425707302706733,0.803901198962311,1.7433001935943
"14",4.36525045128928,4.59140766166852,4.54719990016138,4.21259402461047,2.82176112529857,4.24946981455797,2.29850777527251,1.73965214609026,4.23203689289523,4.40614747493428
"15",-1.03603588022922,-0.240663226616394,-0.852527938111934,-0.551546899803209,-0.711911314372075,-0.66382918965918,-0.24156212437177,-0.342192798852921,-0.317377946946932,0.523204691906806
"16",1.9824053595093,2.12123838687673,2.40455972258657,1.50547376504003,1.85120727411037,1.82399428462377,0.448909743320165,0.834823103433245,2.47814131586739,2.654288546091
"17",-3.46785324574073,-3.25223710151158,-3.50646077731019,-3.85828061134201,-5.36287206760245,-3.31852914301565,-3.04592338857486,-1.33812937279852,-3.06406651015802,-2.80107004546046
"18",-5.02658300439788,-3.9064482091072,-5.17374395916818,-5.21290196171296,-10.6485782412705,-5.87887318363434,-4.52772907906899,-2.64260966478465,-3.09817104350103,-5.52523307608586
"19",-0.14447790637759,0.359210343892068,0.0861316617496927,0.0229521142754516,-2.59830830313904,-0.610866432683799,0.081285165442293,-0.247652488960369,-0.0621689025220161,-1.67822538012015
"20",3.40994477053697,2.97760224385137,3.25503163415086,3.62609371008631,2.96689568394488,3.32519156762447,2.13489533126966,1.5330698463943,2.96175762192234,2.96092460543884
"21",-1.19775060171306,-1.66596639823526,-1.28868450546725,-1.57551134702209,-4.2097436503492,-2.12774144817763,-0.814772762171095,-0.627524111394688,-1.52455421656572,-2.00087180331259
"22",-1.04170682701149,0.202962491089663,-0.0714073375085072,0.0613890022906736,-2.86994126964022,-0.951764657490983,-0.438647041558564,0.262481556697325,0.805182951417836,0.726301383391194
"23",-0.825231440685894,-1.35016974851349,-0.939859150898773,-0.804846153191796,-2.79093592109469,-0.586197175444576,-0.896913517212733,-0.423335373401642,-1.21044358942244,0.819470888619473
"24",-1.21215696747217,-0.544649890250492,-0.499255477840966,-0.80656614838357,-3.27884047076705,-1.35588237527853,-0.748638301636041,-0.651443187486042,-1.08415657146411,-1.1283907149943
"25",-0.459364842735132,-0.154367121083922,-0.190547569513185,-0.856004272080708,-2.30683215979963,-0.645526244858761,-0.441321640778635,-0.374878942966461,-0.546554728751666,0.817252657879699
"26",3.80010431766757,4.14388323082052,4.13045499821309,3.61773757367842,1.90217236195576,3.42582204438442,1.4321766709804,1.34051810489612,4.02237511082981,4.62568666999427
"27",-0.796269587665297,-0.879284528939692,-1.08818246526193,-1.17424851106942,-1.73404906668555,-0.990842771050994,-0.651137091492718,-0.347767883422835,-1.27908767174744,-2.1311809120771
"28",0.0341067606032878,0.164248125209881,0.427216081572237,0.0336851561982669,-2.01406868208647,-0.435367307541227,-0.240633196704146,-0.0240639427700779,-0.257018170131634,0.620178883141173
"29",-0.69814158849368,-0.267720212930051,-0.380725835785707,-0.0273752882756205,-1.17461680624667,-0.975606022376505,-0.274532316695247,-0.513983995657865,-0.584994089443053,-0.684401232945813
"30",2.14109460772951,2.38014790194042,2.37347791683215,2.45684115831796,0.92151115488278,2.08473980727389,0.724129069406291,0.666848408877171,2.25269964860078,2.5532832348508
"31",0.125687102466486,0.98907401962581,0.294640161470169,1.39141845330484,-0.262099669779225,0.275749127953343,0.177353740486224,-0.00796213155581957,0.663117136988607,0.729579369564438
"32",3.54076277186589,3.64906767700775,3.53000654249831,3.3744075750188,1.94688651564248,2.60911823958998,2.44602142603138,1.72583949030115,3.91349138168806,3.56655769067669
"33",0.882721481283175,1.43365791852109,0.714193081570669,0.564555462160309,-2.45807679349565,-0.0356283955216958,-0.120950322328939,0.357073214319017,2.17928124798669,0.886134399856781
"34",-4.14778649183721,-5.0741843936353,-4.97670207065681,-4.3868467727906,-7.07352261952722,-4.49246349955158,-4.24601106591919,-2.52512680709095,-5.68767612290489,-5.31291943909988
"35",3.96256192289168,4.32515935081673,4.99721523654224,4.16310719672355,2.99453277836708,3.84273585842433,2.30295831681584,1.78769798505874,4.15666539247344,4.72057766028801
"36",-2.793014051775,-3.04241204276859,-2.60072879027298,-2.96072097449873,-3.40639015959303,-2.76635131911165,-2.08569540254237,-1.37257370432573,-2.68521548381874,-3.14192291607187
"37",1.69975024781782,1.35704376675872,1.62232664724282,2.4314637562652,-0.160084821169209,2.02247711795593,0.825314769440653,0.635228895823866,1.4329773029044,2.46847858539572
"38",-2.39151243196724,-1.72718650703411,-2.42582878482614,-3.1764838917558,-5.62728127728665,-3.49758008210736,-1.94641035119147,-0.946586412776794,-1.95263543698405,-2.38603825891106
"39",2.13150617371614,1.75340082801276,1.88781043114981,2.02742403477414,-0.877963108567721,1.83282267684272,0.749874759421037,0.226477274139013,1.54154139703938,0.704802052369686
"40",-3.87282398812979,-3.56934627584212,-3.54316278186379,-3.62019056369872,-5.58026178767146,-4.04440677714969,-2.55509088051551,-1.75892580054405,-3.25639593837545,-3.66668305721568
"41",-0.814368544686013,-0.302511145520478,-0.544949877489808,-0.574030394764076,-1.06231393266208,-1.24977850244742,-0.613423984900976,-0.253086830426126,-0.634955753028662,-1.68622879708321
"42",3.73767219415992,4.11626072425389,3.953216061196,3.84200919050908,2.41581620464757,3.55461674223629,1.71410478824492,1.56004726886749,3.84441452968463,3.95575220300195
"43",2.31133445383194,1.52858771173203,2.0163723399642,2.41347983163099,0.56071474804547,2.45428893774432,1.15839282585452,0.738414211044145,1.43141878614259,3.15476627837692
"44",1.65390569582143,1.54864375190431,2.27922060144924,1.64738311235736,0.7606727148359,1.56360194587757,0.581798677111497,0.666039330618722,1.19900834587862,2.67636163043665
"45",-0.527645580468425,-1.20636508010664,-0.307762046689951,-1.02657527863959,-0.89463626568237,-0.830954939794174,-0.664881557159966,-0.237257527501396,-1.23202517461241,-0.877803536665799
"46",-1.95287330290177,-2.35076812823689,-1.63883155712022,-1.27627876770173,-2.31772944193006,-1.5245256861862,-0.685427409048478,-0.92516113113571,-2.17467289704543,-0.5482783034039
"47",-0.242149538173996,0.953776267140242,0.192368602005188,0.259372806183605,0.288746284237236,0.337338981373959,0.035235297255205,-0.0876760549759597,1.24349541878432,0.727519887820697
"48",2.33104012715252,2.59964546396992,2.66979718785733,2.45790365140172,0.909249081756806,2.29793646034739,1.61182540939478,0.966899423896578,2.81052862661815,3.84812482694451
"49",-1.05902847830616,-1.24160180307132,-0.860068490894731,-0.91695954586677,-4.17905066186514,-1.09750099286444,-0.458632726288821,-0.694441888481379,-1.98479513637722,-0.524618041369042
"50",-2.37146367781454,-1.37637385566376,-2.21673623611034,-3.05611986726026,-3.64080166818486,-3.29472399014393,-1.54846208768823,-0.952815020565495,-1.3646520841282,-2.43437949030159
"51",0.671323522055629,0.420966053041363,0.448800098148186,1.24054872870598,-2.61752243293739,0.848215348006839,0.478167315874698,0.364958275766934,-0.208725433004388,0.754935850657523
"52",0.895046601289766,-0.0251978992613081,0.606653252017255,0.675017856396458,-4.12156898219641,0.0597849219305116,0.0929352577108062,-0.0340816345107689,-0.191407826509369,-0.0205150429603804
"53",-1.60103915073813,-1.52594922740862,-1.63707155344146,-0.986563457196052,-3.30022307637444,-1.67687350373574,-0.655651804398619,-1.12457069767615,-2.22349980902984,-1.42308577488778
"54",0.42988503819741,0.400685954179525,0.29801396937903,0.498382073810062,-3.98501663037434,0.788543874639908,0.134890494796793,-0.0538601356298745,-0.146622222567361,0.387005992379565
"55",0.737748211057374,0.455263698878143,0.656062560139323,0.585875827393662,-0.759438821394812,0.36493061702528,0.0520485021976686,-0.204365467346993,0.20587293663484,-1.88429706277525
"56",0.864556386388828,0.793008177551708,0.878377591224671,0.550538785609277,-1.19906345819804,0.489001392535594,0.220263040208997,0.394296392197032,0.916981489936333,1.18025149287288
"57",-1.05476923976194,-0.954903958503616,-1.37515036593344,-1.436119426464,-3.15995379523904,-1.52122260904771,-0.644580099131779,-0.543555255494107,-0.43084712875863,-2.3124211979463
"58",0.425019680681777,0.96738953236913,0.686757196374056,-0.519663856099555,-2.7444612981741,-0.212332802690286,-0.300223435180308,0.207382982427424,0.967906334183433,0.34389240634955
"59",1.58414033729625,1.51907376583063,1.60517058197661,1.39178068112419,1.57688291449296,1.50041806751014,0.457535932658633,0.468598574138524,1.70806393419441,2.83401460807377
"60",1.31074620553071,1.95631542593686,2.07363610278527,1.40246254738703,0.418200596473888,0.760159775567913,0.434486427358241,0.539803491210059,2.11914022397336,2.51632630872863
"61",0.146079750326457,0.245548312536709,0.433419695845545,0.12310715853071,-2.90823961092084,0.183968954602831,0.0499258555633507,-0.421744503387033,-0.854256810390786,-0.560339793008275
"62",-3.42522989062734,-4.01663431360683,-3.97371159252887,-3.22866063288474,-4.30250853911535,-3.61463042759079,-2.38884936699681,-1.77879384833428,-4.0626384267871,-4.66028968612092
"63",4.13801348120998,4.11767732495065,4.35718639198432,4.49642925789763,4.04514648627473,4.12268853599747,1.9942642010083,1.3863543910077,3.97926006416917,4.78357419363309
"64",1.15925181354153,0.969632815738416,0.936105536924829,1.74758090250521,-1.59254098730135,1.60855932781598,0.933181219875706,0.294806739879311,1.07639103854468,1.21914101640018
"65",-2.79821997452462,-3.1991508470332,-3.14190412177784,-2.64994020081118,-3.97555746786768,-2.65398225936824,-1.69038413957195,-1.20699101139885,-3.11011133886321,-3.43538349685615
"66",-1.66511677306659,-1.62577545278655,-1.49277851275875,-1.28964423864298,-2.84792814786127,-1.21471689461513,-0.626211922706494,-0.553673464770711,-1.36315316782085,-1.54753207286109
"67",-2.68753728299529,-1.89016593643609,-1.62944527059781,-2.45886357092622,-3.05224729576516,-2.14946789953238,-1.9323689153386,-1.13696780528682,-1.73246539913466,-0.561921051774626
"68",3.05356266769177,2.78175719311584,2.93030835053815,3.46020200660876,-0.092394532541882,2.98781998087389,1.39615711726675,1.04897690767592,2.60138160803101,2.93774062253622
"69",-1.37425753893666,-2.36232457242299,-1.43346410209417,-1.42780820603675,-2.14939484443453,-1.95044661322788,-1.04729709732115,-0.965898568274209,-3.27030051482749,-1.82589960335517
"70",-1.10075507384642,-0.830883209040747,-1.17645776816779,-1.10692200665177,-3.31862106896322,-1.16409694558747,-0.518738958268789,-0.199617070405662,-0.743584845071477,0.227442484962912
"71",-0.347049431166858,-0.702981495659513,-0.403167784432655,-0.362361329209638,-4.41786563519865,-0.843648644705999,-0.224815848873171,-0.148152015401643,-0.952475548057813,-0.85244401286568
"72",-1.23066016980436,-1.48788767872054,-1.56748226298458,-1.35204605581924,-1.64301285736579,-1.14424477913985,-0.915276560765859,-0.268509661651342,-0.945823963641068,-1.07054553451897
"73",-1.80032209145233,-1.82867707740961,-1.67570106590123,-1.01219249238419,-3.37578981242467,-1.01544267510103,-0.466069328031118,-0.727395497565895,-1.6758146935998,-0.606947973499348
"74",-3.1587882856142,-3.53378199154754,-3.39001980925429,-3.13222367994635,-6.88827051956644,-2.81322602513163,-1.80694722403555,-1.48789383751854,-3.77489310542654,-2.19726903099235
"75",-2.78998589256745,-3.48237671600924,-2.9531932959552,-2.8095418186418,-3.60734793502423,-3.29239472846637,-2.21115846519291,-1.47005874580807,-3.39369346698125,-2.89147932031624
"76",-2.45366768469942,-2.07261777481928,-2.4635460392082,-2.88591568185186,-3.27184872384545,-3.24864008733677,-1.63081233392495,-0.997795600557952,-2.7999740435567,-2.29446288913054
"77",-0.80468599447376,-0.329571271038187,-1.07441529939524,-0.61470664170509,-2.97597379141312,-1.38506513017842,-0.54518323351366,-0.578005231799175,-0.242305124855472,-1.47443653110958
"78",-0.571883171030767,-0.428070668510666,-0.321538532737123,-0.322260523492349,-1.38714005138169,-0.0254101922425582,-0.265440987403673,-0.532828271389008,-0.519790618398071,0.347897187192941
"79",0.415740320965052,0.876621099850792,0.595120071045768,0.445123031749836,-2.02619914880193,0.267154557164659,0.153385499140903,-0.089063218282432,0.368070363467414,0.621823543479513
"80",1.98033577954586,3.02461548000346,2.99061224805321,2.86295125120553,1.49566906038672,1.26157846453514,1.14905342335764,0.952217758875707,2.78250049449161,2.3434654633971
