"","S-BART","T-BART","X-BART","R-LASSO","R-BOOST","CF","BCF","S-RF","T-RF","X-RF"
"1",1.7464123011432,1.6458958829765,1.87689665918559,1.55669110124536,1.69680323451757,1.49577280869062,1.11276476747252,0.624014092426674,1.81081374486287,1.5090562281653
"2",-0.630552231344149,-0.596636207971642,-0.63975482538882,-0.674586088890778,-1.41233349764602,-0.816978306265317,-0.71689029272268,-0.211665543114267,-0.740149617195129,-0.492969640774577
"3",-0.660326734709655,-0.918360502052265,-0.710512891486247,-0.619887357002977,-0.464698688967659,-0.588934018555991,-0.508847292624584,-0.149723937955953,-0.597179365360131,-0.419970993568656
"4",0.699280122703201,0.948346222404701,0.898088493111716,0.717071030937755,0.147028885207045,0.501052262563251,0.124523012780986,0.351699178546778,1.13163933878051,1.08352652325265
"5",0.894034689224216,0.848612170566205,1.02174902173487,0.70919031967667,0.235805864952179,0.742158263358743,0.288259645184947,0.369274829115186,1.13680379258262,0.804696881461434
"6",1.40319384033204,1.21041215873182,1.28836589143869,1.28746075467913,0.739202182739973,1.1179690528123,0.632368097888914,0.634264523588766,1.60593559422831,1.59843671061997
"7",0.468519871427025,0.549064193673796,0.529002674937622,0.17799464437181,-0.364261095605369,-0.0854406127601881,0.0934789090459092,0.251210478116881,0.662291612265245,0.135560522663551
"8",0.00320876615658769,0.0471022169828246,0.032489091807472,-0.184999552307124,-0.363721745088696,-0.287116175437635,-0.118590469342399,-0.0799268011062864,-0.203302147842589,-0.263498004368902
"9",0.632472975310239,0.761946363777988,0.652153168600698,0.601747533783543,-0.19614738153864,0.240652852905509,0.32311710987423,0.320199522632785,0.912868552440115,0.40177979194086
"10",-0.62329648727774,-0.741610061943132,-0.57984541403499,-0.639817694701478,-0.708266694497302,-0.491302580289324,-0.401998290910454,-0.116045288588284,-0.30660020961683,-0.430758014529826
"11",-1.55086810113882,-1.54811376237302,-1.70613203570008,-1.81697547672274,-2.18819007277489,-2.04625041946483,-1.17626959941542,-0.823214368557367,-1.69823962872423,-2.02173375892053
"12",0.315388999129273,0.200840106120654,0.198634446361633,0.438628365367347,-0.174681539647281,0.0799217020557735,-0.0575830457122961,0.233656606932943,0.532118340795354,0.127059593230326
"13",-0.543377292563307,-0.422704279916643,-0.285951660369485,-0.361144505172372,-0.94822455678821,-0.507998493106769,-0.566482957652797,-0.145052142721839,-0.237169126087652,-0.0253291793329735
"14",1.76803347960924,1.87273669828685,1.89198244494687,1.5554541530466,1.20721337161848,1.38036862130057,0.678579159534081,0.590878536578695,1.81874555090199,1.57790362981772
"15",0.167988251916635,0.0527973297536287,0.284492810410697,0.250786890578824,0.0648774090223014,0.310894023117432,0.039265139154441,0.119493550775594,-0.132184392236835,0.689575869462795
"16",1.16636602419142,0.983293439858052,1.09887778911225,0.991760749844135,0.448431773111224,1.08829311569683,0.389063470976032,0.459463865376632,0.792439902339,0.942153365291512
"17",-0.56304496448143,-0.775685877160099,-0.561196389415425,-0.818567289166073,-0.705251691161621,-0.903856854912183,-0.383951654292699,-0.0855761259673578,-0.680669840530828,-0.636594899756499
"18",-1.81481640811419,-2.05442607524318,-1.8886989147868,-1.92050679723445,-2.41841653768172,-1.91880894723681,-1.45041317473005,-0.972970719200103,-2.05528414789051,-1.99870538222795
"19",-0.902280945713974,-1.11449075503351,-1.06100424223671,-0.719296740159043,-1.73251069111311,-1.16029536580902,-0.435624042818619,-0.498475094099303,-1.42177904894913,-1.48595880741386
"20",1.94453305729901,1.89677345032587,1.88622320324384,2.02327230077504,0.991997032624531,1.70944458259723,0.967039450506491,0.903030404125352,1.96747600314129,1.9300157474914
"21",-0.154318071748258,-0.206336815477606,-0.226166186997934,-0.496566310630486,-0.747697835964129,-0.805463917897429,-0.321778884718097,-0.128755325407494,-0.293389995267072,-0.725098692050626
"22",0.015749941632312,-0.199688271028578,-0.17385567071273,-0.106381400445533,-0.885731633752584,-0.416721086978573,-0.178305916015437,-0.0528760517344755,-0.0625514049156039,-0.364757737562469
"23",-0.781297007984044,-0.677398121543632,-0.745203499104544,-1.01141512204644,-0.979011319577694,-0.972495891889383,-0.318249580629426,-0.10604123679959,-0.648591761686364,-0.224683736146712
"24",0.564515679193709,0.379448929473038,0.492855193155045,0.43400525326886,0.170347972856305,0.467881746631245,0.122924282059087,0.16241902258338,0.102962250631999,0.512538899947245
"25",-1.12347146693173,-1.08278204556604,-1.05586849126196,-1.2053387607528,-1.57951079308987,-0.914446950521036,-0.578768801812638,-0.366785001754761,-0.910900282859802,-0.726979005932498
"26",-0.14139219911963,-0.165450038899424,-0.202065261677101,-0.194309283417527,-0.583812771787482,-0.0113029461015495,-0.119513055161557,-0.144403292659969,0.111019862855034,-0.486022702092149
"27",0.0915696600852787,0.0378510563370557,0.132659633908023,-0.189136825165885,-1.32009597547145,-0.476297400550471,-0.0817885462025462,0.0351732470599779,0.0324183488747038,-0.154856109120377
"28",0.893568070777078,0.862901873009231,0.930091037238051,0.699099065071004,0.901056826114655,0.569136599871252,0.112617052385394,0.382057334862503,0.82574070668688,1.16976002569684
"29",-0.0311119600174273,-0.00874930270065919,-0.0326720025188506,0.215718043789594,-0.0708929030224681,0.0970144094284996,-0.039719447975902,-0.0280806917021173,0.00249464999754917,-0.092777812219447
"30",-0.66251307452127,-0.671286079401017,-0.605183424006482,-0.516473947786155,-1.68182905763388,-1.04727552026864,-0.317590618072662,-0.302106046676636,-0.581766438484192,-0.822458398391655
"31",0.00484859470861253,0.0502710347364595,0.159765112080244,0.276914663351006,-0.217162724584341,0.0564836666421778,0.00375254056389593,0.00842469414388101,-0.0233596000145739,0.232452677391452
"32",2.76585689943879,2.98032978695484,2.84966800595001,2.64605377053567,2.16674593488771,2.43511159911106,1.76003932945502,1.81981764466639,2.72439946216416,2.79224284221863
"33",0.219153633429486,0.286206642966629,0.389646432068905,-0.193609860563972,-0.208203368993237,-0.407177000668422,-0.033460515678555,0.0371303424299003,0.0140100837232597,-0.223331917856471
"34",-1.36549855279158,-1.08331685770646,-0.964985277119752,-1.64455215678664,-2.67053926285977,-1.70383686350897,-1.2263841035261,-0.527801016966502,-1.14624919990699,-1.18080034450256
"35",1.72948810207024,1.75293833263639,1.79883238024456,1.50314254965383,1.22004877775908,1.55284634881299,0.856060551037305,0.840870692179753,1.7848154311238,1.70839425696838
"36",-0.815317489618281,-0.757618910866592,-0.8081428258023,-0.661791867403377,-1.06502069246431,-0.64689197569268,-0.461335593244565,-0.298171283818093,-0.50791647253918,-0.850220993607203
"37",1.35630775518639,1.67813357901132,1.60820094621106,1.28946520516036,1.0281028226018,1.22508293289184,0.708133912698204,0.46841088268492,1.34668624590314,1.18202494021023
"38",-0.479766182117631,-0.605229841770491,-0.389299654928565,-0.588594380678794,-0.848162828768832,-0.615871418220654,-0.310776600997657,-0.202895886448014,-0.560335677311602,-0.28400456499696
"39",1.16427105279683,1.40497425327036,1.31670114218901,0.952112080913109,0.747781759127975,0.819545904345015,0.419730808494489,0.457050428108827,1.43993760966047,0.986051615435595
"40",-0.405978837945121,-0.373734189107299,-0.38457376039939,-0.564049289212824,-0.469391699880362,-0.593615391030832,-0.288007147235348,-0.181743070002525,-0.395159807897383,-0.314276886011014
"41",-0.0991524444104304,-0.156520362671714,-0.0965306300449362,0.111850309478924,-0.720337380493141,-0.280184006234173,-0.252556020677433,-0.0892325352303124,-0.130100777969059,-0.481379682393089
"42",1.03174090967027,1.07913373252199,1.1938262518077,1.42371336314484,0.82820737734437,1.3042013679219,0.587572525645628,0.36880077199733,0.885811511506426,1.05828897958784
"43",1.40630864499078,1.57915533683332,1.65415879285391,1.26343001324922,0.902169310682469,1.42966869530126,1.03418544780727,0.559965728736315,1.29651295357063,1.21531647285088
"44",0.99688926448678,1.09353295090231,1.06324709438152,1.14257042204677,0.930746365338564,0.796167672387769,0.278127347123907,0.420861271090974,1.20623512823779,1.30587905757639
"45",-0.719947972184083,-0.685691136741994,-0.747814148132428,-0.87646432855265,-1.25650372356176,-1.15979207600884,-0.422142281441002,-0.268336020263971,-0.761030515034994,-0.724620573350598
"46",-0.665774175317779,-0.546701442837284,-0.688373306793692,-0.419152738308538,-1.02631933987141,-0.790119845704502,-0.316151503192407,-0.35133712145747,-0.720401905020889,-0.599188974608042
"47",0.448718543154021,0.502246622540284,0.395996264107305,0.514196606013049,0.466433120891452,0.654178397286753,0.0589192714500188,0.0782233576814668,0.630952054712953,0.545539217099051
"48",0.864747568038413,0.950235228278931,0.976220455072204,1.11528012485845,0.0683736445743991,0.835038196866456,0.615061842800331,0.239212823308204,1.08355899487645,1.05936307108538
"49",-0.546574952931421,-0.464055517692795,-0.48334416101967,-0.468070875585319,-0.942893419414759,-0.883745016748782,-0.299648365545102,-0.119951775958461,-0.442249664375859,-0.476234512889405
"50",-1.19634008399074,-1.4217976587815,-1.24094631413935,-1.24966678756064,-1.71752686788306,-1.35216149655148,-0.700892353861241,-0.586505551037826,-1.64633076491318,-1.4954070264518
"51",0.166014526296289,0.0925143671635209,0.126979926278862,0.00258001578081757,-1.4757536415528,-0.105602379706674,0.0792131902136609,0.262536102509403,0.200532287000174,0.278757599786702
"52",0.270935959356878,0.315536531367424,0.238849380265583,-0.0672997126372898,-0.765365786701593,-0.628589349639775,-0.0441055523132491,-0.0557800541158582,0.153632535309088,-0.246138364626604
"53",-0.0778214116725526,-0.206631843300293,0.0739427207342321,0.0930553693474157,-0.741782257828163,-0.325278520018718,-0.0378051751904031,-0.105180492003759,-0.492697904507319,-0.150437181737577
"54",0.296240169915092,0.0878078588680199,0.239507623551315,0.762044432182061,0.303272437304258,0.357110432064616,0.121333429498422,-0.0578216211063655,0.162124516457085,0.327368310293021
"55",0.831719752462541,0.870272226287376,0.913022234915749,0.865696893881164,-0.311564483126858,0.508012311784276,0.39957749880846,0.260413053535646,0.722224938292657,0.754347933145426
"56",-0.492908746141177,-0.593546773056205,-0.560867306526088,-1.01108454663789,-1.34857439398766,-1.12787625535986,-0.455652764388618,-0.119364333152771,-0.463267135620117,-1.02767487585849
"57",-0.605263600684909,-0.716871779945099,-0.645776960422721,-0.438389851318996,-0.758701423183084,-0.717031431607384,-0.266232898161222,-0.412374664201096,-0.779322838123608,-0.805942050387475
"58",-0.42024858205352,-0.53129534744114,-0.424308252999374,-0.790814877793139,-0.986627303063869,-1.19724892189454,-0.323589203260143,-0.0366832528795515,-0.320881155748216,-0.593646659801781
"59",0.583324343380867,0.50018793133175,0.494891739072451,0.282400663490881,0.139595573117543,0.146398647189415,0.0781226925694338,0.313500833882432,0.898400378134464,0.727608794032655
"60",0.527998982426521,0.180881426450243,0.361672975486067,0.359597858925724,0.328969515692022,0.410716261908111,0.0856783901146146,0.0417210777899376,0.301380287435718,0.695731095257212
"61",0.153381362054144,0.156358699469189,0.0763567499673254,0.084533762870978,-0.539032695814967,-0.0692951402970096,-0.132278513341119,0.21497376111089,0.213208587802186,-0.0493538567998144
"62",-1.43694219449164,-1.35692081022655,-1.42739187794411,-1.38783122434291,-1.8441594408614,-1.69204317392598,-0.793183550849399,-0.463533983565867,-1.25216417945921,-1.55935359318993
"63",2.05778581686842,2.07712163441066,2.18895233798041,2.09229407958998,0.995675502842619,1.83337048887915,0.929316389483295,0.867588124202408,2.04905430779202,1.74616528843894
"64",-0.0737751156685041,-0.118161843961453,0.00616822615538818,0.133691300353511,-0.853068381547928,-0.441352427770141,0.0172251351619336,-0.110820436295662,-0.372211441738915,-0.380271289233033
"65",-0.572962910023597,-0.549590911425842,-0.484933479478617,-0.548058499661339,-0.709214061498642,-0.746640909678295,-0.186965781053388,-0.0698907136917114,-0.187700176239014,-0.349982997223214
"66",-0.728949106605079,-0.786217711776176,-0.658786746248015,-0.6093101204422,-0.74903117492795,-0.698802958971272,-0.438160986903162,-0.332252912787327,-0.69686775188522,-0.711829220359382
"67",-1.03038994835925,-1.24169959540136,-1.19524891433192,-0.805089023850362,-1.5917769803379,-0.87643233972766,-0.627435498970224,-0.710207453140846,-1.29279698316868,-1.38185948689368
"68",1.10293947883003,1.34695788524895,1.12066759231554,1.14647513778764,0.138110416948564,0.688633037616389,0.376512378926138,0.48681423645611,1.30035944225252,0.705997185978118
"69",0.217045325473706,0.437376789980875,0.251656009867978,-0.389614974807156,-0.84143396860278,-0.369096827856871,-0.0882684062869816,0.137972166813702,0.600171540362901,0.0481075069913193
"70",-1.13675350487358,-1.36655851233494,-1.13035281447882,-1.02615109798236,-1.35222431272268,-1.27494767450065,-0.648763495860991,-0.385422230690949,-1.28270600193231,-0.660573439880757
"71",-0.735823817087673,-0.661930762038147,-0.57794662655306,-0.571787726073938,-0.959528144448996,-0.865751385143328,-0.352270989886952,-0.52307706053664,-0.879736959449644,-0.819819021243611
"72",-0.523723526547431,-0.625820935291228,-0.311878162334664,-0.554204409236391,-0.996199807223792,-0.893780442826904,-0.352468106746809,-0.306298592795245,-0.953980640843812,-0.16952601817311
"73",-0.59464613506401,-0.507551267864141,-0.393663457218329,-0.170422142490931,-0.482818251475692,-0.366880938728467,-0.230190219422401,-0.225579463133291,-0.54732611199387,0.0305559420683431
"74",-1.41811016400018,-1.39061124615441,-1.31515237550174,-1.34882514093281,-1.47741595283151,-1.59525398830563,-0.89166398356135,-0.475361170592131,-1.49642405686555,-1.33174195712373
"75",-1.33068262096592,-1.32105828867469,-1.23018761024949,-1.48741242108003,-2.40147566845811,-1.61923009345598,-0.904894886874992,-0.706040028081947,-1.4909506793991,-1.31619756063572
"76",-1.48956308467882,-1.64857689573095,-1.51275306501341,-1.89517137539375,-2.19846460968256,-1.52898513365326,-1.10111140800534,-0.699277317032832,-1.78261640366544,-1.76771640141486
"77",0.335381928661715,0.23371197025731,0.330184943265844,0.48360745510529,-0.202316720969975,0.106360676292617,-0.0506684600540609,-0.210091601247373,-0.0897083122268496,-0.107771925299416
"78",0.308505130643654,0.360660780262344,0.3202574348034,0.430379997591238,-0.298242684675994,0.197848535158737,0.0774217625356342,0.0358182491022648,0.125028751071356,0.132299489281791
"79",0.302730869933597,0.291439237618451,0.36660051337731,0.475087824472515,-0.152591542139942,0.228054739100945,0.170590805289498,0.029761370490579,0.330993334452311,0.283634678787046
"80",0.738457370390927,0.352393323070361,0.591539671562559,0.77848417492184,0.699736410751939,0.924198435412434,0.324955264165116,0.164647499720256,0.41495310763518,0.678856461464564
