"","S-BART","T-BART","X-BART","R-LASSO","R-BOOST","CF","BCF","S-RF","T-RF","X-RF"
"1",0.326564984540392,0.350282950975841,0.391816045385897,0.35570512437323,0.00319867831422016,0.310026929339442,0.113892821247107,0.0717312031174556,0.314129009544186,0.531075830956974
"2",-0.0157132433813464,-0.0384424074507136,0.0216985698899111,0.0837186935822573,-0.0627759378403425,-0.00193186371310277,0.0526055169421761,0.0425987175382707,-0.0369523590356768,0.0405013385285962
"3",0.151764255002029,0.218567200861844,0.258826493468182,0.0400470612879666,-0.213282741606236,0.0885130557581053,0.0762362099110588,0.0729923284651147,0.20866031740226,0.181837424065057
"4",0.214845119615118,0.133842519034417,0.201355879117016,0.184007183348821,0.0381026096874848,0.13391271271269,0.0649439252703245,0.0538405575497798,0.118504876050484,0.109382252639915
"5",0.10622208698299,0.0223131738337516,0.0594150675024624,0.115286528734662,-0.160540023352951,0.0310047353652327,0.0368507778214561,0.0642396067525004,0.0984422977154071,0.0406021206830953
"6",0.587175500728534,0.640199101637967,0.6787524936465,0.490689669929057,0.01928507554112,0.454798422243266,0.278888344156627,0.237288099699168,0.65962143589282,0.587818578809784
"7",0.0395463823406523,0.18271740602564,0.157512799248069,-0.0557178279980226,-0.349525571800768,-0.134559757055807,0.0118307619597381,0.00542663600995783,0.104378366573325,0.0231342946532438
"8",-0.0953653787187683,-0.121638716290485,-0.0718500202804555,-0.165670328570502,-0.291363871656358,-0.245328882892373,-0.0480130634357463,-0.0536790005613807,-0.163179582901681,-0.250882740309768
"9",0.117640954331928,0.0807186438203457,0.106223127473917,0.153041244609959,-0.23377102955748,0.121239953016834,0.021074272973958,0.0289921074697416,0.0352722732988122,0.0550799112738552
"10",-0.0493704039672933,0.0031731205770864,-0.0392139084636738,-0.066718572711164,-0.2829430392012,-0.134226674524277,-0.0549447908448073,-0.0172105346779855,-0.0263260673381046,-0.0466891612012719
"11",-0.474443995457937,-0.493930685285382,-0.413722497786815,-0.381193341261661,-0.615572510287166,-0.501964806041361,-0.166027331744926,-0.19344901011374,-0.467441249596559,-0.521576464550932
"12",-0.386259386378552,-0.354234855295795,-0.299011599549949,-0.281110944698072,-0.614384142681956,-0.441878125262116,-0.188153565609547,-0.168867155454044,-0.349821625318069,-0.483742045290306
"13",-0.0948689886291386,-0.0404935546093262,-0.0532101290685653,-0.0250251591302647,-0.319789443165064,-0.146910143397775,-0.0335123326621221,-0.0493209041380313,-0.0934969835839923,-0.0137424630221512
"14",0.734707678892826,0.692536124160904,0.741393954506651,0.664115015041849,0.524352258071303,0.643462857411388,0.413055583311824,0.200172853574418,0.608349238571368,0.685828335975336
"15",0.00959875343612881,0.083794365826154,0.0105561072884918,-0.0078120813615088,-0.104650284629315,0.0267700818719042,0.00460505576658825,0.0252909671151989,0.0912266253343785,0.0504343361143301
"16",0.00790978927183601,0.0363378883885004,0.0307873416731579,-0.0880768285166202,-0.11602146551013,-0.189944845025509,-0.00838596626730976,0.0720453819878117,0.0989572109783147,-0.044292787814028
"17",-0.111859281341846,-0.0556378300024478,-0.0617413724059416,-0.191579558082521,-0.55631254799664,-0.20664401160357,-0.049266425724924,0.00138222250191055,-0.0222617295667299,-0.163059773089475
"18",-0.521766078083888,-0.433148613772198,-0.529004031183317,-0.596362287925893,-1.06102647259831,-0.815843666719572,-0.445127851293493,-0.12930655910958,-0.383535944498502,-0.551037423953589
"19",-0.356330448873849,-0.283002127015535,-0.305211670767549,-0.227204637545364,-0.418369052931666,-0.475757116846698,-0.165147713831667,-0.103057352805709,-0.331120994875374,-0.494267447881907
"20",0.623388967850228,0.627471852738952,0.651304364893821,0.641661370802884,0.421927124261856,0.33344762029259,0.294970577606785,0.230873256389584,0.520137963550431,0.425546431620488
"21",-0.0463415886192319,-0.131502885328365,-0.049552391871618,-0.111005736301851,-0.276271137408912,-0.137750154073031,-0.0163146192867164,-0.0351225280331166,-0.0859726228778572,-0.144431652871975
"22",-0.125117503911917,-0.0185588035363823,-0.012202209067208,-0.138177067128536,-0.290934415534139,-0.233196934983044,-0.0649617550867318,0.000842889149983724,0.00527505079905192,0.0306408377856227
"23",-0.247390062299895,-0.340936093801549,-0.242099105072363,-0.1127566541499,-0.293845147825778,-0.160675477098474,-0.12744124005406,-0.044165068028266,-0.314857470884658,-0.115164350444292
"24",0.170476666597555,0.139881534048279,0.258141853977445,0.1460251312164,-0.522266188636422,0.0369134524970688,0.0484025125829917,0.018741892057684,0.119393061629325,0.110884973393504
"25",-0.199264413487542,-0.174570711406306,-0.154497034479009,-0.307241522727533,-0.269173528067768,-0.270020058773725,-0.0552998579699172,-0.0792745577175688,-0.24747749395957,-0.156428936742293
"26",0.502138469828904,0.494284150789616,0.563472275249541,0.439494648798199,0.385884125716984,0.452590582158708,0.228296218741846,0.164878842505542,0.481528260491111,0.546281572133551
"27",-0.105349913644576,-0.0352764346490569,-0.0807665423864194,-0.187392173708447,-0.80084539949894,-0.299744934716789,-0.0415278632406909,-0.032402491301633,-0.0732755794953764,-0.217450266050028
"28",0.359866718142378,0.360084362985106,0.403855620471288,0.29309972390002,0.167218327987939,0.171907701597751,0.154418242840405,0.112804549463679,0.31808688399497,0.343048911647364
"29",-0.128636153708071,-0.0432102328331205,-0.0571679978002648,-0.0765572579225979,-0.215343106538057,-0.221727543096135,-0.082814783724852,-0.0429588769163404,-0.0705478047685964,-0.0685895712939698
"30",-0.234179702161665,-0.281529390024756,-0.192830208110141,-0.265620217863937,-0.230751372873783,-0.313809684304245,-0.197416097806185,-0.0759541849434237,-0.294005773562096,-0.226063959381353
"31",0.190814727416381,0.284684225041893,0.211228170587371,0.262036877665059,0.079978269059211,0.162346401984326,0.0612965533044369,0.0939084843256588,0.350688963998353,0.122665090478688
"32",0.47602993978757,0.451598242659881,0.562543659633245,0.457176199407891,0.0486979464767501,0.361097767660181,0.337679000149545,0.181342240757181,0.401372082645575,0.43587260974956
"33",0.0868634280165137,0.131095570335207,0.138681111751502,0.0331114878079806,-0.469381641596556,0.0359355421587689,0.0111950838728985,0.0403092187993667,0.121283032236056,0.038026873460875
"34",-0.478331557708009,-0.498213122094126,-0.532381648474067,-0.436218002633352,-0.636532576754689,-0.583908929354733,-0.351954296074205,-0.23970277413078,-0.549544575421707,-0.565679603334387
"35",0.209997209456365,0.258331314043431,0.264481655756104,0.119870290076943,0.0780622474849224,0.0787477794508003,0.0444590189218597,0.0951022489024548,0.219567766972288,0.216869542094778
"36",-0.223662150072968,-0.192485061975704,-0.160450542161379,-0.241019611007716,-0.50226510502398,-0.366025577365178,-0.107349444519061,-0.0962012057954615,-0.170640579678796,-0.269053556853598
"37",0.297531432981015,0.255241128715471,0.280803544840503,0.264017917387287,0.34744250588119,0.258601920866742,0.0472325591164442,0.105872797587561,0.292339360092232,0.259047303851314
"38",-0.00503081088560872,0.0895058439408891,0.027575915294725,-0.163675367940201,-0.618632789701223,-0.194187688480582,-0.0522180999125301,-0.00244819426110813,0.031600147485733,0.0139132451437994
"39",0.27579934673486,0.21798293051434,0.253806627228556,0.203987167705508,-0.389596959576011,0.225734963779757,0.174185321443662,0.0745961907204617,0.243619064266762,0.188265862049521
"40",-0.111630345067111,-0.116879755939638,-0.091953264125954,-0.183755185560029,-0.312054879032075,-0.318420546036006,-0.033823742382658,-0.0282049310945832,-0.0797311684726614,-0.137853646876783
"41",-0.0301749013849758,0.0873419270345041,0.0946562448580163,0.0109557214238436,-0.151275703683496,-0.167243294006922,0.0114371231960749,0.0218749708599514,0.0184836917453342,-0.145675457940485
"42",0.321399538717342,0.298229494000491,0.291752155705325,0.358441260541868,0.184300739783794,0.347508902411029,0.114953869131588,0.118157648604754,0.302149253348782,0.386688167700479
"43",0.0777846937712481,0.0545061935831414,0.107092098565372,0.141436663279574,0.0261843728367239,0.0734910337265039,0.0306658002157956,-0.0182479488111175,-0.00808356346282284,0.113361319142578
"44",0.143174910063081,0.087124053476611,0.192249520028882,0.0648842893854137,0.0787433702498674,0.0161429506014353,0.101919658369601,0.0814848490670621,0.0834075283845618,0.16073552330689
"45",-0.0479740630025965,-0.112207749987061,-0.0468750088455584,0.00627595200642489,-0.337556796148419,0.0403190158983339,-0.0724940226335677,-0.00433262446185458,-0.0640386797264046,-0.01054859547032
"46",-0.050131852723931,-0.0200500337779486,0.0278376078421062,0.0128867683274661,-0.204268330708146,-0.0852898725351723,-0.021479855105507,-0.00369032401019056,0.0265015127398654,0.00882424559303316
"47",0.115545289826365,0.200236342279802,0.165781422349644,0.164232871302947,0.0534901511855423,0.115085886820254,0.0699124459096084,0.0351310176337325,0.210629320251328,0.172735855239063
"48",0.137729431769338,0.131376659715542,0.180882564600997,0.13510584940043,-0.341301038861275,0.00122149814254392,0.0391133112868009,-0.00254061364907823,0.217803928159898,0.196581652010522
"49",0.0937455522240747,0.0284291803335741,0.128944629399965,0.0211071433001087,-0.0907541834749281,-0.0280447029939247,0.0636714274596164,-0.0342144928789246,-0.0327725271783952,0.0330301419977941
"50",0.0309912517102056,0.0935391343211311,0.00872645351138748,0.0417187314508494,-0.563534395769238,-0.110163277752905,0.0190679677052244,0.0306675260045887,0.125507680715713,-0.111054384938614
"51",0.0261245785308199,0.0532407358651179,0.0340408224192285,0.00801604151832455,-0.157916406169534,-0.0627590683845059,0.00234752728819339,0.0356802049573961,0.136353484876863,-0.0764921188090027
"52",0.133888298691151,0.0540274830159986,0.200873958713701,0.0511596586848613,-0.364151201210916,-0.0155281926696334,0.0292833370597973,0.00756885774335147,-0.0364790535183205,-0.0235474303678554
"53",-0.190704126131894,-0.20845363034432,-0.176097385029928,-0.294561670974208,-0.387860121961245,-0.367298458825561,-0.0893897144793986,-0.0495330721734633,-0.197292748681722,-0.330959404038514
"54",0.0985249611092969,0.117923503255925,0.170342644462706,0.118069600049903,-0.0127022518427111,0.0512715361513757,0.0432021808776375,-0.0280693105366676,-0.0779550913806375,0.0786853256332526
"55",0.189352981304945,0.187251278637565,0.22796772317995,0.178275999796815,-0.194979971274734,0.197175233060718,0.0367015139542895,0.0456260764493351,0.104381579213438,0.103255549215941
"56",-0.0951050160826813,-0.0989259435933996,-0.11537676688698,-0.210833177275837,-0.413726270198822,-0.238320225070305,-0.0481448623594427,-0.00667254130045573,-0.0977206495073107,-0.298259607291397
"57",-0.090088415320061,-0.0792587297321567,-0.108422677447055,-0.109792117686756,-0.155321077909321,-0.23191433021989,-0.048503683729565,-0.0849462572803122,-0.200023249411218,-0.353117126661018
"58",0.0634304585232961,0.0421921344258367,0.0789209989255544,-0.0667021028371561,-0.125564052723348,-0.0365151059175269,-0.0011868611328355,0.0798654609492847,0.140700648937907,0.17484914619413
"59",-0.015603927798143,0.025277265927695,0.0537706966714938,-0.115669946313533,-0.342767313122749,-0.0865289673806144,0.00301964875371944,0.0516283059758799,0.0414240839225905,0.118749024064155
"60",0.403845205717808,0.435892942196903,0.440281805023839,0.471269302395106,0.239900057204068,0.40729329547447,0.107889664609952,0.16178064847149,0.398606061935425,0.550356255006648
"61",0.0822482487021714,0.0632784733216968,0.1150230680614,0.0452384545369929,-0.226976373232901,-0.0518714175844844,0.049766175116668,-0.0401251503590787,-0.0701346156302463,-0.212570628603862
"62",0.223941426236733,0.265788295115854,0.259793401467817,0.16732960821683,-0.0106625404441729,0.104042358030016,0.0903641428210422,0.0451998593026747,0.265629128490328,0.104922205069704
"63",0.625481245001117,0.661395372421001,0.689290191407427,0.567255328347885,0.384637294337153,0.492428129929902,0.383175160127904,0.225792763269704,0.590934377791323,0.590492275474848
"64",0.151370190869192,0.0850727722581102,0.107933833237205,0.255373252397224,0.0225442228838801,0.103542083100363,0.0205077320924757,0.024937749178092,0.0412427275767445,0.111021941320158
"65",-0.20966354087213,-0.197515339272268,-0.192197943355643,-0.168735298214994,-0.171472667716444,-0.205383953544461,-0.0723084147510139,-0.0502367403315402,-0.128508545886511,-0.181446024399369
"66",-0.111029730663932,-0.0946433508230058,-0.0761103716444133,-0.0550485595630337,-0.425286250491573,-0.115208928186691,-0.029496522536592,-0.0120010064995807,-0.0944686426996366,-0.0984979688229906
"67",-0.119293284967324,-0.105262151514773,-0.0575340964377758,-0.235891304810018,-0.514230318367481,-0.201561923250692,-0.0508450169292382,-0.106251723057515,-0.188940750049041,-0.165764474120668
"68",-0.165753525178564,-0.262043789272876,-0.175027130557228,-0.163599654940164,-0.149231473915279,-0.180070631017839,-0.119508972881637,-0.0602881675181182,-0.322008975174116,-0.257448620957445
"69",0.235097126192257,0.212177266325755,0.329858640275651,0.153873105100302,-0.2485868986696,-0.0432258885200331,0.103224179143534,0.0057007053068706,0.0764673841851098,0.0617691035741133
"70",0.00749373029133929,-0.00274546647337384,-0.0157983161957787,-0.0222906639049828,-0.299140159040689,-0.150898312913775,-0.0153908337699923,-0.0311316635115031,-0.105050179926834,-0.0422661746105574
"71",0.0549695130693189,0.0107447789238589,0.0437556239088913,0.0847478288028618,0.0142190910992213,-0.0443338262786423,0.000749834406208122,0.0423094223846089,0.00318734483285384,-0.0217847312541445
"72",-0.0263594621435955,-0.0310268118119034,-0.0801722850645572,-0.0513942765157144,-0.375931733287871,-0.120487400080918,-0.0409422045925679,0.0145153052112588,0.0244963653469732,-0.127582976228139
"73",-0.0624028114471189,-0.00104273179077489,-0.0714267595090313,0.0368575250396856,0.037806888576597,0.0112538306193897,-0.014532773739547,0.00840669750901798,0.0804862360115306,-0.0367553053562423
"74",-0.267127467535115,-0.230381461950952,-0.225963991053627,-0.225878624334949,-0.467503163963556,-0.305845720307832,-0.118572759313673,-0.0827673503330776,-0.289702061768417,-0.162870191501188
"75",-0.299614611300336,-0.380132810763829,-0.298355640009896,-0.258186789415,-0.613934360444546,-0.316280906642177,-0.125642907036015,-0.127084074275834,-0.399535069508212,-0.319337228790017
"76",-0.428567928091953,-0.41661306904062,-0.392738283189801,-0.460546806281512,-0.744597939774394,-0.547093666232464,-0.196557414258175,-0.159393247516676,-0.485449111324617,-0.529464025794905
"77",0.135296521137779,0.294295194150096,0.134243206108373,0.175216572016105,-0.304414797574282,0.0171192872062244,0.0442258283774937,0.0362685042111863,0.268827679445925,0.0341765727786345
"78",0.0799637072780352,0.0942829838031307,0.11350963630349,0.118374015485786,-0.0529050885234028,0.0467098001235877,0.0340092861389499,-0.0150958876803989,0.0343287287794087,0.11112428488225
"79",0.0696708671005705,0.0829365403847493,0.079807288126399,0.0910282251444766,-0.195084000006318,0.012086515201833,0.000187695795985807,0.0488945988796217,0.0669568108870844,0.132598102935303
"80",0.155953806875187,0.210684050104637,0.184512282677594,-0.0347992041444941,-0.10964690009132,-0.0334473836907998,0.0589407128810847,0.0529068773919409,0.248527815053751,-0.0509327610545302
