"","S-BART","T-BART","X-BART","R-LASSO","R-BOOST","CF","BCF"
"1",0.0105827803286254,-0.0156397988897699,-0.0078393413571618,-0.00809480918771298,-0.105804170016199,-0.0209588896906243,-3.64628493037609e-05
"2",-0.00653347812405774,0.0224812470090422,0.00839476515890763,-0.00117308601559761,-0.195110705681145,-0.0531112103701103,0.00703524824533308
"3",0.00368326045589348,-0.0100281735538056,-0.00101113205565959,-0.0027798062638974,-0.233974354341626,-0.0358709312105729,-0.00068778264250722
"4",-0.000240198485882364,0.00819927467617053,0.0155187331105198,-0.00256512307279908,-0.140469858888537,-0.0245340179811059,0.000486670261994735
"5",-0.00292669546199565,-0.0233510737117364,-0.00776964299656739,-0.0056817986594035,-0.135268142912537,-0.0154978709172303,0.00557670805236682
"6",-0.000141497084474184,-0.00710582523035202,0.0043385412699218,-0.00599770501162855,-0.0631753006018698,-0.0295591564328703,0.00269445680096375
"7",0.000189138820889899,-0.0055844407167307,4.96564960800605e-05,-0.00297595666143632,-0.109043577685952,-0.0310025350177036,0.00275591609420965
"8",-0.00759368149134652,-0.00751126861081269,0.00110985937020746,-0.000172611138583691,-0.247025769203901,-0.0538404956146207,0.000134142442058406
"9",0.00770415058180188,-0.00247189168960894,0.0108850385484065,-0.0104835255328244,-0.232573854736984,-0.0272202655583213,-0.000827658502882413
"10",-0.00472525769538532,-0.0226778749209608,-0.00794013076477777,-0.00281353908905076,-0.272119324654341,-0.044462529534116,0.00240170974254991
"11",0.00402392182671012,0.00307441475325177,0.00914224959589262,-0.00425492651659126,-0.00929169327719137,-0.0381796054982479,0.000704366994758379
"12",0.00579314191815877,-0.000669245385887122,-0.00123696077499092,0.00321527439137881,-0.221533724106848,-0.0478583287949888,0.000838643165540569
"13",0.00101146277620111,-0.0205565682762056,0.00255718011071502,0.00121031831023186,-0.123027712106705,-0.0110498153163172,0.0023365094959882
"14",0.00102497996085728,0.00553022419336683,-0.00146206395476496,-0.00126086759109605,-0.0939473393373191,-0.0453618395323719,0.000103497828397634
"15",-0.00716877054131632,0.00027378510772254,0.00111402766308089,-0.00317602999008877,-0.155465153511614,-0.0257465064556151,0.00145986474612133
"16",-0.00339828516285019,-0.0280142632424888,-0.00400873057988933,-0.00687967131738855,-0.239450111985207,-0.0319129659423439,0.00136783458789501
"17",-0.00434315747781579,-0.0225959607266133,-0.00768417954276889,-0.000828142704094237,-0.135870545636863,-0.0463364148858796,-8.61492074402457e-05
"18",-0.00213370209596368,0.0014716172023903,0.00776613688627651,-0.00641090428277091,-0.133516197092831,-0.0288741354693665,0.00110930529536744
"19",-0.00169435205256573,0.000875863538705493,0.0105435956363624,-0.00158549896138176,-0.170810450799763,-0.0310583109973569,0.000955147172941986
"20",-0.00175232906770436,0.00139103177662116,0.0011583225701461,-0.000503085973937656,-0.0797318818513304,-0.0409052379630188,-0.000621749452723172
"21",0.00348301044633177,0.0018792376309007,0.00594212696346061,-0.00256900901927543,-0.266699609346688,-0.0325725426760719,0.000541146985159974
"22",0.00162620361419917,0.00270233821878052,-0.00603201918909414,-0.00536243056440002,-0.182317045982927,-0.0621876271222772,0.000124817525370469
"23",0.000967172660403931,-0.0157094457819462,-0.00176233933877158,-0.00631527022998328,-0.154658197425306,-0.0369748241953959,0.00201577557362878
"24",0.0128011561884777,0.0138040295412287,0.00847927923060385,-0.00315579325263581,-0.189558486454189,-0.0464053844621028,0.00191255891165797
"25",0.00884417921451264,0.00541252862830451,0.00168559209542859,-0.000817204591978154,-0.152688345406204,-0.0281367759440422,-0.000221202568620876
"26",0.00677211230141848,0.00401695364480656,0.0091793008191048,-0.00476723805332572,-0.186467356979847,-0.0418587740110019,0.00183640450793189
"27",0.00654951468841003,0.0100618529575828,0.00511573138184921,-0.00403496576948582,-0.332534150220454,-0.0361926312826703,-0.000222971197991396
"28",0.00529640594562778,-0.00840652430856847,0.00427090400218071,-0.00110024521349721,-0.153352099005133,-0.0222514061749689,0.00102098137543982
"29",0.0117154524919135,-0.0227048742545933,-0.0126671667799246,-0.00604268193326221,-0.305491662584245,-0.0468785618352628,0.00037330886057116
"30",0.00135614043463246,0.0146698911204633,0.00246547161108639,-0.000376812928417354,-0.283377408050001,-0.0502948604519145,0.000321114957397895
"31",0.000997571318214689,-0.0217357337213656,-0.00284506409557808,-0.00283838064252241,-0.0947981723584235,-0.0275604411009873,-0.000258855075194939
"32",0.000993448893550247,-0.00717855494568301,0.00602685372268588,-0.001750868010667,-0.148863985668868,-0.043275199525633,-0.00170069869765027
"33",0.0016894640932844,0.00763106126188906,0.00804997286291798,-0.00199914709310496,-0.191411923151463,-0.0437406506064045,0.00506838167033493
"34",0.00390521412411277,-0.0243942029915218,0.00274273442494743,-0.0073977876702966,-0.152875715866685,-0.0402803328658278,0.00144823994966216
"35",0.00503279919726506,0.0124383623228391,0.00889784694583798,-0.0074890304047877,-0.0561114691663533,-0.0168587203599225,4.01901060444727e-06
"36",0.00607986433020597,0.00718300463741358,-0.0028079856015402,-0.00395247224707244,-0.38184393197298,-0.039936388976301,-0.000258474338131859
"37",-0.00477976567868597,-0.0361500957851541,0.00187346237015897,-0.00379974984002523,-0.174278253689408,-0.02665920037885,0.00121424376664692
"38",-0.00338853950883417,0.00786744008327045,0.00962817017513751,-0.0048669542371485,-0.221896474249661,-0.0416922143312009,0.00243502014663728
"39",0.00549616925386187,0.0188609876636171,0.0151817618745601,-0.00325471676499787,-0.211278744973242,-0.0326979446139208,-1.12514634985238e-05
"40",-0.00180521002864207,-0.000921419014300083,-0.00153491845425446,-0.00306002524927263,-0.0419057789258659,-0.0235606575540541,-0.000664845136969721
"41",0.00889615894648295,0.0142897098677564,0.0112115545232426,0.000719085744928474,-0.340799102559686,-0.0343317092206013,-0.000223814288726052
"42",0.00182522875741821,0.0177485878482461,0.0102321473266624,0.000313503257845784,-0.335794012062252,-0.0335690714422406,0.00305796112428022
"43",-0.00677700236019608,-0.0107777208740748,-0.00455075263234727,-0.00817724936431403,-0.12556571746245,-0.0162948061808611,0.000355936733207785
"44",-0.00376926869092858,0.0138590350643584,0.00688400768704508,-0.00293693129745698,-0.176948984153569,-0.049428776978528,0.000304440980552783
"45",0.00742636671901666,-0.0238061941255518,-0.00971255281752407,-0.00177492593934888,-0.130743975751102,-0.00453581568723696,0.000228983507772897
"46",-0.00638584631562489,0.0127388266070409,-0.000664921081247567,-0.00187528641963116,-0.461670709773898,-0.0393003698488623,0.00111319986252279
"47",0.00157819717277183,-0.0118378693044823,-0.00353234765740758,0.000306250039175888,-0.241680559702218,-0.0418986453660154,-0.000233337542151514
"48",0.00419612924493293,0.0141724866356715,0.0128368224366555,-0.00109097431811886,-0.200880807824433,-0.0559508965311795,0.00491083018567775
"49",3.74448605161901e-05,0.00590011792830942,0.00185994033273554,-0.00432046450574798,-0.268842419609427,-0.0371816063842485,0.000868971069060631
"50",-0.00753239090421009,0.0198783959816228,-0.000942212882463345,-0.00242865848581737,-0.0797443091869354,-0.0492831590711901,0.00155786926387835
"51",0.00213546531205622,-0.0213788363935835,-0.00151402535450143,-0.00518165373129696,-0.111035630106926,-0.0384669771987107,0.00298319170111255
"52",0.00793522942064668,-0.00798269373915833,0.00285372764175508,0.00100583029154925,-0.1476458623074,-0.0332058914357523,0.000652375889180523
"53",-0.000475897095613773,-0.0262830529164712,-0.000264066919526735,-0.0057187442818787,-0.0709068903233856,-0.0713346259252015,0.000750764623050817
"54",0.00132609999856037,-0.00447648393368233,-0.00745256135356697,-0.00490632373390543,-0.108512863516808,9.51952404079134e-05,0.00307222561977368
"55",-0.00919448380076508,0.0219818813816378,0.00680923898220637,-0.00150072180499202,-0.0248216820182279,-0.0477133061497206,0.00171670051523603
"56",-0.00165409289969562,-0.00334575283171027,-0.00626864144331031,0.00171668746901715,-0.112302578054368,-0.038021748357733,0.00124837076477678
"57",0.00103051085759257,-0.00988889685991771,-0.00304403734665481,-0.00583592792131187,-0.148533086758107,-0.0334421027091403,0.000135898878865556
"58",-0.00130969127577341,0.0162751430940703,0.005812809943859,4.70279797717335e-05,-0.247197970747948,-0.017785162083906,0.000531152375443047
"59",0.00885279178460941,-0.0235014135877997,-0.00851997298484916,0.0010615627599871,-0.162070395890623,-0.0588038586674684,0.00118108536480589
"60",0.0033556157387853,0.0349763253173603,0.0173604370879685,0.00443613889239567,-0.0743347976822406,-0.0387748706028901,0.00220411811462512
"61",0.0023816659493855,0.00596123673414604,0.00926274642075489,-0.00220784493733658,-0.224484060890973,-0.056567843951649,-0.000224342988551794
"62",0.00455770517011744,-0.0251836177703538,0.00741556318676266,-0.00411444812730109,-0.209804996848106,-0.0410709091250403,-2.80357956131016e-05
"63",-0.0058614943712629,-0.0115482095569197,0.00614390808235159,-0.0115548943542509,-0.182029884308577,-0.0303079320991359,0.00367906423729503
"64",0.00298471347292147,-0.012016396414278,-0.00100508775250603,-0.00114423166356202,-0.173080258537084,-0.0367332294175968,0.000644136785928257
"65",0.00327469289944168,-0.0225426874704171,0.00227873976253398,-0.0028879150924063,-0.130409246776253,-0.0231337237021638,0.000460475431380548
"66",0.00533815570857717,-0.0147372432332367,-0.0135214564590891,-0.00113954663316412,-0.212165829725564,-0.0422873767772126,0.00386111940323486
"67",0.00365853911022269,0.00449061483160701,0.00384986117912116,-0.0043084585852445,-0.131666380912066,-0.0302147672785615,-0.000693177560745769
"68",0.00193071712873456,0.00426514268181706,0.0137906889921762,-0.00271829809354771,-0.247409101575613,-0.0619383294457688,0.00233658633650441
"69",0.0112613990784487,-0.00458165238825141,-0.0020243810016024,-0.00682224036544825,-0.27875870000571,-0.0317581285455405,2.71074674445047e-05
"70",-0.000177124800038005,0.00192373551966678,0.0068399389000993,-0.00512010287387958,-0.295658246614039,-0.044822983015533,0.00153455224539842
"71",-0.000507159162661646,-0.0316478651282861,-0.00513396315915889,-0.0062097897330995,-0.190959696192294,-0.0334110924797473,0.000215611130747583
"72",0.00249447043353853,-0.0330154811789727,-0.00041885833398743,-0.00529663267184826,-0.100871513132006,-0.0405155361329258,0.0030748156656218
"73",-0.00610032371406352,0.0103613016034488,0.00777001937407763,-0.00238281456651449,-0.248352577909827,-0.0177847148658081,0.000287680346253767
"74",0.00838972785777609,-0.00505843196454593,-0.00140517960732974,-0.005101861963235,-0.236008432693779,-0.0515219702581825,1.66414652390751e-05
"75",-0.000587657107727877,0.0368425075540935,0.0158758286940301,0.000556405236117499,-0.174531189259142,-0.0329455748328741,0.00012361442697705
"76",0.00354455079429585,0.000138561377311071,0.00343753264522951,-0.00369221563115994,-0.0786655233241618,-0.0405385594282941,-0.00227916105920253
"77",-0.000770450364006389,-0.00174720176662541,-0.000420654237484249,-0.00493934133389282,-0.267766509205103,-0.0318468534628764,0.000218451331181242
"78",-0.00347451442596674,-0.0151676901075555,-0.00283422868823896,-0.0100608062620364,-0.138105824589729,-0.0320823566193195,-0.00183495590047873
"79",-0.00375424813639619,-0.0137508690566574,-0.0091473866361177,-0.00308236104800007,-0.216320296749473,-0.0620811892252561,0.00420548628135344
"80",0.00592177324044004,0.000838182883755713,-0.0100282776863644,-0.00790589584744498,-0.106986868195236,-0.0214142541358971,0.00067961146972414
"81",0.00326906098390978,0.0112467429722723,-0.00720979462407085,0.00135653881962299,-0.224420893937349,-0.0433387914814847,0.000102561727930585
"82",0.00675441336744853,0.0227767643745225,-0.000255475528683056,-0.000932089415101767,-0.188059941865504,-0.0523541378639686,1.25647577643465e-05
"83",0.00255397785735877,0.00153302809486566,0.00440796626615622,-0.000746449214378994,-0.32669750507921,-0.0495367404252216,0.00224977293856417
"84",0.0102821071779325,0.0137025134866335,0.00262363839066848,-0.00791768581365865,-0.247022695839405,-0.0478414978632729,0.00215400947118022
"85",0.00595428604806973,-0.0093146027045844,-0.00129282792464577,-0.00613066502954805,-0.245203822851181,-0.0297847054308477,-0.00170971028232777
"86",0.00364079495484344,0.00200401769730083,0.00400946091826807,0.00223728363806548,-0.179940229281783,-0.0454167045427815,-5.41169747225691e-05
"87",0.0121258039182945,-0.0236088677776283,0.00114347952299266,-0.00131041079749508,-0.254844315350056,-0.041978411975969,0.00134885825646339
"88",0.00648098020327114,-0.0115683097526744,-0.00523580963563917,-0.000449856180170864,-0.307079614140093,-0.0321720191310345,0.000913403917396905
"89",0.00315242888272432,0.00538923418860982,0.00099585701273388,-0.00757687374782563,-0.149954657536,-0.0312845020923611,0.000143103269088103
"90",0.00708705269613956,-0.00330723525199922,-0.00567914613265965,-0.00643468072650513,-0.333720003254712,-0.0343342803986363,0.00269386968391953
"91",0.00874311351857217,-0.00987929563649265,0.0123329981861613,-0.00320186267256896,-0.110709725413471,-0.0125584251371799,-0.00251580984591721
"92",0.000378382300222029,-0.0421421526401118,-0.00742055378397055,-0.000655743894469543,-0.221327319741249,-0.0178828884948803,2.5425229205314e-05
"93",0.00470785293205922,-0.00833931551183408,-0.0012326567193899,-0.0076519867906082,-0.139793450944126,-0.0214044405613693,0.00204813666011493
"94",0.00987353457870108,0.00901407897360843,0.00913436347078067,-0.00161197664565644,-0.181907915975899,-0.0645867190025079,0.00300909728089995
"95",0.00574183702790116,0.00381150904078016,0.00895047042579296,-0.00331086221423259,-0.15197932953015,-0.0257550121301296,-1.21063333778943e-05
"96",-0.000969041126734373,-0.0100778370699717,0.00386019268941257,-0.00309213789706033,-0.547816511243582,-0.0413261613082767,0.00190418308833633
"97",-0.00459811959128489,0.000499322791674735,0.00723371272192705,-0.00991242017473681,-0.174798374064267,-0.0572825397911989,0.00319045113097631
"98",0.00284278739084833,0.00572805336716632,0.00934884815518249,-0.00739659423524115,-0.276302476413548,-0.0221772159449077,0.000217862184883696
"99",0.00250621029944032,-0.0168467797835202,0.0107869814310078,-0.00822808413112395,-0.273886672221124,-0.0313308832965993,-0.000961309171173776
"100",0.00338522312593162,0.0137048772098265,0.00250077075483363,-0.00222157230634755,-0.106913456693292,-0.0524402850329646,-0.00112661868957114
