"","S-BART","T-BART","X-BART","R-LASSO","R-BOOST","CF","BCF","S-RF","T-RF","X-RF"
"1",0.349501085425054,0.331484096642678,0.390985619011603,0.35570512437323,0.00319867831422016,0.308458408863436,0.190648486868651,0.074056562674473,0.28567190664223,0.454617285452221
"2",0.0369197645029261,0.0700526004413554,0.0634501397531379,0.0321726166915307,-0.0627759378403425,0.0169488622159523,-0.0210813191793148,0.0550679317334803,0.0530396535144589,0.0935406026195564
"3",0.0183966604705828,-0.0515899202680378,-0.00751250680717462,-0.0468850321250975,-0.213282741606236,-0.114714207945746,-0.0622001469149129,0.00255788015626773,-0.0341682760547306,-0.108133291607505
"4",0.277728353632173,0.313744764692171,0.34289831767846,0.184007183348821,0.0381026096874848,0.134573682319821,0.0555611565900021,0.0778447296539647,0.23036526038301,0.280242061351234
"5",0.0964150623212153,0.0688271358026016,0.168605880916275,0.115286528734662,-0.160540023352951,0.03004260805331,-0.0122738579090289,0.0428343305782396,0.078490923862068,0.121676579446199
"6",0.544002192005888,0.481381911488309,0.541016200976164,0.490689669929057,0.01928507554112,0.455414217587613,0.303793079336181,0.244792685451278,0.572180053795198,0.470584583319336
"7",-0.074145802585754,-0.0964319669960267,-0.0363593352718391,-0.0557178279980226,-0.349525571800768,-0.135788297261068,-0.0211696621430032,-0.0195077954465327,-0.0928140139277977,-0.177520642522098
"8",-0.111772734976113,-0.152280570609544,-0.0770306406469604,-0.165670328570502,-0.291363871656358,-0.245398910679034,-0.10295633018926,-0.0945521540850757,-0.247612797406565,-0.243797365317243
"9",0.278309498646242,0.367924606253552,0.37011705653941,0.270388458689753,-0.0248932898491585,0.121026925400291,0.194475577378329,0.12757136621548,0.332095923314568,0.285642215906219
"10",-0.161169355818112,-0.192504833084949,-0.125207592809581,-0.164755013479244,-0.2829430392012,-0.217078794751496,-0.112142823236584,-0.0375378033751813,-0.101934391775249,-0.120674006263232
"11",-0.442358775032343,-0.355050911741876,-0.388565424071948,-0.381193341261661,-0.615572510287166,-0.50252369437421,-0.21734381901716,-0.17845902203593,-0.362452576979707,-0.438075456793827
"12",-0.4202039224435,-0.410586978353588,-0.426085993143088,-0.296048028603184,-0.614384142681956,-0.442185071188166,-0.300558227721425,-0.169906143314582,-0.400989779756089,-0.489643931153272
"13",-0.129084686038575,-0.107720349046697,-0.0353031586079706,-0.0938515871426724,-0.319789443165064,-0.147027930487232,-0.146902344602503,-0.0342643659982721,-0.0408178343433715,-0.0141473594223101
"14",0.740450095419216,0.75471552261408,0.794946001650804,0.664115015041849,0.524352258071303,0.644054234140035,0.43923334107473,0.218242797695222,0.677252328786694,0.666367681674184
"15",0.0205107102978533,-0.0193718785662903,0.0752856258740868,-0.0078120813615088,-0.104650284629315,0.0279235545267644,0.0155917222256383,0.0208075672503144,-0.0205543510702126,0.102385068534791
"16",-0.107174743966311,-0.186328269632015,-0.11318674397685,-0.0880768285166202,-0.11602146551013,-0.188953191073788,-0.0555393894841289,-0.0221254578624589,-0.208257560236046,-0.160983161612847
"17",-0.15771744162198,-0.21459592805131,-0.124097482391536,-0.191579558082521,-0.55631254799664,-0.206438723459857,-0.0345802251992746,-0.017953522292226,-0.159605794590012,-0.203379173360658
"18",-0.735724454773829,-0.766212476541171,-0.683192623498844,-0.72845403206927,-1.06102647259831,-0.816034578761985,-0.585686502670637,-0.278579033622446,-0.747598303380863,-0.759855408577118
"19",-0.409689508748298,-0.406349333949375,-0.379514297087285,-0.227204637545364,-0.418369052931666,-0.477108960357461,-0.230599901918526,-0.135747896685145,-0.453517001694169,-0.489789679571251
"20",0.500547373589357,0.465413268432979,0.498358403723852,0.488120730368214,0.421927124261856,0.33460679794992,0.212159326106437,0.220819834678892,0.468399505766611,0.327376663064382
"21",-0.00706162077670284,0.0198477470922441,0.00729968556878615,-0.111005736301851,-0.276271137408912,-0.139449657897516,-0.0216076189414184,-0.0501917725871045,-0.126243310215872,-0.0996145414739161
"22",-0.182868896272545,-0.246486903090994,-0.184787498780092,-0.138177067128536,-0.290934415534139,-0.232724606567065,-0.0627323803587828,-0.0826226949691772,-0.359883379936218,-0.18961347171169
"23",-0.0664598943172589,-0.0427211166034553,-0.0340682642858227,-0.1127566541499,-0.293845147825778,-0.160529556764011,0.014343247853307,0.0171493799960027,-0.120791499731971,-0.00473199011970011
"24",0.0977415473192921,0.0643750770399835,0.0679113669543218,0.0549197325322723,-0.522266188636422,0.0356627075497589,-0.00346447660651193,0.00534660703553928,0.0106722116470337,-0.0560366281228209
"25",-0.280004694155548,-0.341706061584786,-0.249140330713885,-0.307241522727533,-0.269173528067768,-0.269459401569893,-0.139069162122076,-0.116550465653226,-0.372183414254609,-0.267106465340692
"26",0.452329724394237,0.414528267504724,0.458410717696405,0.439494648798199,0.385884125716984,0.453454068037827,0.141157967762942,0.163134496945601,0.474307766327491,0.477648906721641
"27",-0.146071768871537,-0.128765662483535,-0.0994547471898739,-0.187392173708447,-0.80084539949894,-0.298489433993901,-0.0839363466038856,-0.0379644421970143,-0.101564281127032,-0.237153590471546
"28",0.322518360256794,0.290782281173579,0.335659821885969,0.249487488539228,0.167218327987939,0.172443476181882,0.0430255684436635,0.100965219385484,0.232671312257355,0.339123021492531
"29",-0.190580287844008,-0.185551089617533,-0.165108821347784,-0.0765572579225979,-0.215343106538057,-0.220263843343305,-0.162463453197316,-0.0706341295015244,-0.182765935148512,-0.157338717273503
"30",-0.0987076201179624,-0.0806933658988297,-0.0821763006874434,-0.162380674944527,-0.230751372873783,-0.312826290475719,-0.0561223341027574,-0.0548080104743423,-0.107908226907033,-0.258414628922061
"31",0.142695335525531,0.131900842629108,0.223998057685775,0.262036877665059,0.079978269059211,0.163035410985674,0.0389554988277604,0.0222549211880392,0.00902668011089987,0.140190472214414
"32",0.558939834653379,0.576406540397362,0.562766835388589,0.457176199407891,0.0486979464767501,0.361454619133553,0.304610859814857,0.226325017434579,0.539555373015227,0.441611778736379
"33",0.0819332501168985,0.0984254736077389,0.132321684090946,0.0331114878079806,-0.469381641596556,0.0342938979070911,0.0490224561306287,0.0106814295746559,-0.0469642323116923,-0.014617858794622
"34",-0.314648129237206,-0.247345956008167,-0.192097579272415,-0.311330791477792,-0.636532576754689,-0.410397240162341,-0.206133666801705,-0.110130781928698,-0.2776949852705,-0.257463157323223
"35",0.195774913398486,0.181441510876145,0.239652739288182,0.119870290076943,0.0780622474849224,0.0787108673736008,0.0463276410996923,0.104463402229019,0.167054541503327,0.190717032486604
"36",-0.230813789661843,-0.209071043393231,-0.217138756540577,-0.293873230772924,-0.50226510502398,-0.365933122886689,-0.111836897687167,-0.104758464373075,-0.251747369766235,-0.307671526876981
"37",0.367129537780393,0.424664095146101,0.461458765397611,0.264017917387287,0.34744250588119,0.258518509215476,0.148598060937785,0.13247528131404,0.336013130239538,0.370090823952305
"38",-0.120941883921284,-0.178797456537002,-0.0790123254897296,-0.158421187952858,-0.618632789701223,-0.194284474336549,-0.0904611488938279,-0.101840519715869,-0.156069156669435,-0.135208343427572
"39",0.47124366177759,0.572797755319489,0.579236904440941,0.270753618163042,-0.389596959576011,0.225490984169184,0.268451246009761,0.171715698990167,0.482843927308625,0.46012797920188
"40",-0.10952071075901,-0.103347652087484,-0.0836075609067809,-0.183755185560029,-0.312054879032075,-0.318101763109362,-0.0356184858841745,-0.0535651320411313,-0.201892203861667,-0.149186146440816
"41",-0.0911051346042248,-0.120962710741129,-0.0957708098407519,-0.0778336772492508,-0.151275703683496,-0.16710424563025,-0.0876698600011274,-0.0396704435348511,-0.125259852409363,-0.224462731454641
"42",0.283503197493371,0.292282312967655,0.370493908977264,0.358441260541868,0.184300739783794,0.348772288035449,0.0992029661296346,0.0638696756071717,0.2321986751702,0.366654191690495
"43",0.0840473089267102,0.0971889793761064,0.145199346056448,0.0996283243283005,0.0261843728367239,0.0740395174489313,0.0815360451259536,-0.0275559723377228,-0.00186319793424299,0.108467106323354
"44",0.0928018530677626,0.0769529647983419,0.124480176591598,0.054190515461794,0.0787433702498674,0.0173236256273637,0.0034308928733915,0.0371600250642462,0.0332435211503362,0.106484549194562
"45",0.160942442474287,0.217845143675735,0.229469048799251,0.127501148892339,-0.337556796148419,0.0418736317719977,0.121823411464587,0.070871820164084,0.163766953829076,0.214078867157808
"46",-0.00593122756981604,0.0234060151921031,0.0365737855374974,0.0128867683274661,-0.204268330708146,-0.0872640753046331,0.00958210638433714,-0.00914527600504963,-0.00639120896024058,-0.0334289700123383
"47",0.0923075988710601,0.0842271997385924,0.163873146880402,0.164232871302947,0.0534901511855423,0.132209785350149,0.0317445894456267,-0.00523491339250044,0.00955980757008428,0.135264088925815
"48",0.0967822420117226,0.0656299660775214,0.147127985502185,0.129756726574232,-0.341301038861275,0.000881407166276237,0.0143048463693763,-0.0823723418372018,-0.0415344211391937,0.104832510105664
"49",0.0848936134916947,0.125899889551211,0.130439056737791,0.0136970896443296,-0.0907541834749281,-0.0279302057197451,-0.0134640354828329,0.0153341076590798,0.054481660895668,0.037880676691845
"50",-0.1337279684297,-0.177090653285191,-0.0660598321342494,0.00122733796782911,-0.563534395769238,-0.132688980905881,-0.020634435641284,-0.0526791859057642,-0.186454168250484,-0.168702766035266
"51",0.0869046426818944,0.0559179766336448,0.110349785929934,0.00801604151832455,-0.157916406169534,-0.00554898722870792,0.0930053805361306,0.0722703155206174,0.0783529330273064,0.0425450061615326
"52",0.178077549450679,0.207968455582314,0.189022569410877,0.0511596586848613,-0.364151201210916,-0.0158259718287126,0.0641080822185437,0.0433957431374527,0.119573217097337,0.0134834394997281
"53",-0.239705697943255,-0.315826082515238,-0.217356634791539,-0.294561670974208,-0.41724388248261,-0.367245550712087,-0.0933829596167898,-0.0729478027925913,-0.399298720570453,-0.414904306375357
"54",0.0459321958930401,0.0714600088635271,0.109279721050742,0.118069600049903,-0.0127022518427111,0.0521523665256828,-0.00762347566282635,-0.000207638012543889,0.0554290436606371,0.0770412297742098
"55",0.235085163684966,0.247237996237863,0.28715918060924,0.19819713025722,-0.194979971274734,0.225134749697071,0.0820338490600941,0.0688809300622632,0.121596527676429,0.137890410184502
"56",-0.101275337822212,-0.138439743808172,-0.0709843538538955,-0.210833177275837,-0.413726270198822,-0.237953069592424,-0.0503032288370373,0.00282397270202637,-0.147381901741028,-0.282733796140814
"57",-0.062718031496529,-0.0504743659057129,0.00843824217208957,-0.109792117686756,-0.155321077909321,-0.231594466612477,-0.0782078565895819,-0.0881136199574412,-0.119726231068741,-0.25553466425243
"58",0.0182967264751631,0.00987691857351621,0.0827038963137156,-0.0667021028371561,-0.125564052723348,-0.0374172329728226,-0.00735084244513133,0.0851420183030386,0.1620485905617,0.116581351696027
"59",-0.0348474806084624,-0.0539658949440054,-0.00330509683135898,-0.115669946313533,-0.342767313122749,-0.0865204947911993,-0.0223195752460365,0.0344775971912202,-0.021849549005902,0.0424980557795708
"60",0.403995292108704,0.375962629283971,0.437636974145744,0.471269302395106,0.239900057204068,0.40658904089584,0.156732100040729,0.152089639946266,0.34813566953557,0.490693141863738
"61",0.0461794532577406,0.0315449684405143,0.0704319415960847,0.0181799291747677,-0.226976373232901,-0.0505766911941226,0.00624194418612687,-0.00843926972033931,-0.0165710729711196,-0.224334337262572
"62",0.18473918200097,0.172612642074089,0.206025549725244,0.0440224603057876,-0.0106625404441729,0.00988513390562683,0.0631321621442649,0.0187018255549153,0.104015619736018,0.00503592209781865
"63",0.549752733033871,0.5236361101527,0.583018428750017,0.562559194503831,0.384637294337153,0.492405916328541,0.260609837574866,0.17147532706398,0.453425631111051,0.453128821274433
"64",0.213159668599597,0.211955278181288,0.294284955343349,0.255373252397224,0.0225442228838801,0.104269714537269,0.101144642833483,0.0433083406218295,0.161608972438115,0.220806505145973
"65",-0.172527153233054,-0.184975071781699,-0.127649349316178,-0.168735298214994,-0.171472667716444,-0.204867521637847,-0.0216670226747551,-0.0639091347748379,-0.15399991341357,-0.227110318355521
"66",-0.0757763593122572,-0.109737519508404,-0.0485554081740585,-0.0550485595630337,-0.416801470648781,-0.114103489941859,-0.0177304509936924,-0.0412026738939177,-0.169689551052485,-0.0779705761673164
"67",-0.311565301603647,-0.337122410038083,-0.317772276725537,-0.235891304810018,-0.514230318367481,-0.37793328037126,-0.224108741074366,-0.190314184874296,-0.365769909694791,-0.384305520460191
"68",0.0919265232285265,0.20013506809185,0.177487175215763,0.207895361855091,-0.149231473915279,0.0016805350285955,0.115523165201688,0.0593863675991694,0.110807741681735,0.00214131504192173
"69",0.16848341163135,0.193849964967787,0.172418201091957,0.0573602255532843,-0.2485868986696,-0.0428416660628278,0.0150045640372578,0.039089908675542,0.168266301117246,-0.0111186123553814
"70",-0.0126643923936685,-0.0698805565667927,0.0251533398981928,-0.0222906639049828,-0.299140159040689,-0.150150297626709,-0.00452102108693763,-0.0181048866209945,-0.100090687837058,-0.0545022674525496
"71",0.0752289768714847,0.0499489693607794,0.127865058245354,0.0847478288028618,0.0142190910992213,-0.0438516448684216,0.0252633600312999,0.0261574066602267,-0.0287139415740967,0.102055223166443
"72",0.0377404039798124,-0.0428385172657722,0.0666256854608611,-0.0513942765157144,-0.375931733287871,-0.119938954492314,0.0243169510263185,-0.00756607909146914,-0.0482158902090347,0.0267623302879364
"73",0.00223599528148146,0.0170046572556459,0.0958776030462383,0.106729739593099,0.037806888576597,0.0123475931840308,0.037709554872156,-0.0147295900550022,0.00357117310938132,0.0458483261970323
"74",-0.202073176349848,-0.183460871194617,-0.193197966196861,-0.192477133130518,-0.467503163963556,-0.305076757848852,-0.0505143917893513,0.0073003525636634,-0.0737748827253069,-0.146723649467687
"75",-0.200243780996922,-0.189031029608513,-0.130772899288181,-0.258186789415,-0.613934360444546,-0.316150681534158,-0.0651267631536537,-0.102574886783721,-0.270415700617291,-0.207827295429161
"76",-0.436683362765602,-0.440829212689004,-0.390518521318932,-0.460546806281512,-0.744597939774394,-0.546580695182551,-0.214571060501,-0.17906240697177,-0.53479199139577,-0.561877714634172
"77",0.0657349096543441,0.0243191238128982,0.137453726813063,0.175216572016105,-0.304414797574282,0.0174158784184638,0.0167709539715454,-0.0347069163960735,0.00876089719336802,0.0448529234968393
"78",0.0519870335215699,0.0648306407282065,0.0550885204550328,0.118374015485786,-0.0529050885234028,-0.0827421742791276,0.0235500525671989,-0.00240726526393447,-0.0121504299400389,-0.0133098799458911
"79",0.0617035007677191,0.0625173232047313,0.103175053221843,0.0910282251444766,-0.195084000006318,0.0130368158690807,0.109389407293808,0.0393756965952595,0.0175853648523646,0.0689635782783395
"80",0.0208888631318415,-0.0212915855195967,0.0633242073820527,-0.0347992041444941,-0.10964690009132,-0.0307424088857815,-0.0341882792346821,-0.0454534803118025,-0.127500295639038,-0.14254749596457
