CMGP,NSGP,Logistic
-3.2000023731075324e-05,4.01994026886173e-05,1.0131312772244774e-15
2.413715731421253e-05,1.981323838189952e-06,2.6053233644537005e-15
3.4830283219185006e-05,-2.9214255953878713e-05,-4.1775981005658065e-16
-3.140448693283689e-05,0.00016368179871884846,-6.00509295910611e-16
-3.7689632764165566e-05,-3.220326489497494e-05,-1.0777500982131955e-15
7.308654024256367e-05,7.145280872907593e-05,-9.97914749547245e-16
-0.00014435753717363214,-8.514285483233876e-05,-7.38321155470886e-16
9.754022844301878e-06,-9.814561917175646e-05,-2.616339530899594e-16
6.246888388286012e-05,9.467194522751657e-06,-1.702047091138487e-15
-0.0001225733247642258,-0.00015413794415937367,1.3992334627815465e-15
-8.578432491946504e-05,-9.658665188770576e-05,-1.6474277139599097e-16
-0.00011625822002412374,-0.00012711525690295365,-5.861258397211353e-16
-2.601848630844903e-05,-2.5819609345696637e-05,-4.732098137746569e-16
-7.332225487320024e-05,-6.245797016718596e-05,1.798377791954799e-16
-2.6547251324280477e-05,-4.6688341506093536e-05,1.2712477381204082e-15
-0.0004512898927456133,-5.801862660445496e-05,-1.424083542135222e-16
-1.0923884074878482e-05,-3.37139947325234e-05,-6.0903663065151445e-16
-0.00012731415556009498,-0.000134972555778978,-8.392237036536616e-16
-0.00019202076024902546,-0.0015749933010994195,8.119541523378011e-16
-1.516693316850681e-05,-0.0001253004748912768,-9.097536039843388e-16
-6.10525788880363e-05,-6.163141617266486e-05,-7.127818410198484e-16
-3.5941645011031836e-05,-2.0432735598242824e-05,4.544975507059235e-16
-7.342789441043043e-05,-6.754538778312623e-05,5.524036512769072e-16
-0.0001173067478850039,-0.00011538928230672611,-1.4432899320127035e-15
-1.2316134555479575e-05,-0.00013392140707047445,-2.884007918794615e-15
-4.5833838321313504e-05,-3.6588988657064625e-05,-1.0017049846242013e-17
-2.5281677002016117e-05,-2.775233779980231e-05,8.074349270001139e-17
-5.337287143590666e-05,-4.848920601619628e-05,1.921959859023222e-15
-0.00010626517076611238,-0.00010572814625001954,-5.336233247391882e-16
-2.6763244708608728e-05,-4.677942180078766e-05,5.314802591779866e-16
-4.082115203642463e-05,-3.2218053600236095e-05,-2.518765518462569e-15
1.4480779301916811e-05,-1.1658048410661526e-05,-1.0621888856005578e-15
-7.612107866068666e-05,-9.419515747316407e-05,-8.699031435746082e-16
-0.00017492466521542706,-0.00017001361807075536,-6.694981269709277e-16
-0.00013303534123714568,-6.075125882400424e-05,5.336380628650959e-16
-7.875081150269728e-05,-8.762961109791557e-05,-1.0770820388154504e-15
-6.856276415480796e-05,-1.566992747659815e-05,-1.6087087039548454e-15
-8.624002562030965e-05,-9.472712711127385e-05,1.1147178546843678e-15
6.778766675721215e-05,-4.706467516873403e-05,1.1901590823981679e-15
-2.4387166338504055e-05,-2.1570458450140374e-05,2.0169788813907226e-16
-6.551860838496048e-05,-0.00024507043042588543,-1.9135551318742536e-16
-0.00012424549806417995,-2.6026969233930465e-05,-7.239773673185895e-16
-6.316678080509781e-05,-9.950384531793651e-05,-1.5937072450264345e-15
-0.00021057251126078074,-4.830810706300798e-05,4.00206876860926e-16
0.00019206972729651471,-6.344885836888498e-05,-1.0499783643741791e-15
-5.907049378747225e-05,-4.069544076575461e-05,-5.174923850318911e-16
-7.55177151051771e-05,-7.269764577924609e-05,1.016547956922409e-15
-0.00012691371052979926,-0.00013562096839154713,8.357121839372487e-16
-8.6595122890413e-05,-8.596939597326639e-05,7.310110450206793e-18
3.279141814523654e-07,1.6337043275816046e-05,5.524036512769072e-16
-6.814221800502451e-05,-9.117330544166763e-05,3.9554504521058206e-17
-0.00010896249674100139,-0.00011692925674012484,-1.8168961033699656e-15
-0.00012265365283540267,-2.4616615500039875e-05,2.3078651850475693e-16
-0.00013080408495368012,-0.00013545744951113447,-8.057314777870335e-16
-6.118813077885298e-05,-2.6749827996704506e-05,1.910822098159632e-16
-0.00014576401574327848,-0.0001367556823447238,-1.3855583347321954e-15
-0.00014497797403654298,-1.2463710313897527e-05,1.1500318183368155e-15
-0.00016393786119086188,-7.24407115167541e-05,-1.2752445014371448e-15
9.914807049737906e-06,-0.00011703386756414616,3.3306690738754695e-17
1.1007710190774309e-05,0.001197668203133544,-2.681293342490944e-17
-2.6797289389754406e-05,-3.338949948534146e-05,-1.1516211713060947e-15
-6.768810794843993e-05,-4.431652320341218e-05,1.0934148672802339e-15
0.00010262926062149621,-6.593607126632604e-05,-1.4620220900413584e-16
-8.43576415759708e-05,-2.496654396502514e-05,-4.1690007455312003e-16
-7.378022081736713e-05,-8.788719005114266e-05,-1.1328464372024238e-15
-2.8516152283371693e-05,-0.0004414225333942305,-1.0000749135206134e-15
-0.00017912678943661186,-6.104430334890264e-05,8.425407933914231e-17
7.540601253626974e-08,-6.203044262662775e-05,-3.352962708908103e-16
2.7449221482222845e-05,1.9525872690949328e-05,-5.921189464667501e-16
-6.241550574248931e-05,-6.170102932843243e-05,-8.987940980232343e-16
0.00010155073051336376,-2.069500764441879e-05,4.201341902315945e-16
-1.2830758823911602e-05,-1.5470292525910703e-05,-9.095803093314536e-16
-0.0001091773905345126,-8.199348217257739e-05,1.319783193931913e-16
-1.9659543199692616e-05,-1.973045769438071e-05,-1.397788988380525e-15
-0.0001403627840292157,0.0001526160463645267,-1.8851133805880208e-16
-6.536008678103082e-05,-6.55198692343584e-05,4.492331003116463e-16
5.063538449382454e-05,5.012201069178509e-05,-1.39518026761228e-15
-6.758365962703708e-05,-7.55336814964677e-05,-1.9761078092926482e-15
-7.271863873338547e-05,-6.549110341728724e-05,3.0083462602746175e-16
-6.439692932551206e-05,5.5704609644444896e-06,-1.4560301962297135e-15
