"","S-BART","T-BART","X-BART","R-LASSO","R-BOOST","CF","BCF","S-RF","T-RF","X-RF"
"1",-0.351593106353169,-0.51284716770135,-0.373872052035492,-0.216945824021878,0.169985137579537,-0.0977893974295915,0.110151296124128,0.575834848908877,-1.12450859712488,0.396487653206104
"2",-0.870773964196356,-1.21207693558395,-0.795717264354413,-1.01313762107191,-2.73652439077464,-1.03172615587867,-0.389757248167081,-0.30593352571645,-1.29986142992028,-0.750543923683372
"3",2.26409240217168,1.79991941885132,2.31777542558317,1.96767805202477,0.831608089798939,1.84962636373652,3.0639072791692,3.50497813605535,1.51880088993245,1.94191831746254
"4",-0.809046198132564,-1.11926376798239,-1.09713648651739,-0.828546500374366,-1.93682123178498,-1.18280048473102,-0.593254006267276,-0.0306039803268048,-1.21657712353596,-1.50173203008434
"5",-2.60760456202273,-3.297520109638,-3.22112571160198,-1.99283584209312,-3.3752196111148,-2.65698634058118,-2.30385368045589,-2.52894894193713,-3.75965601578037,-3.32022342990501
"6",-0.142978362895167,-0.545745827755631,-0.155857312418176,-0.324465395709175,-1.14150740608281,-0.585095693261413,0.400026239683063,1.52757514843908,-0.206469230156006,0.255736652819837
"7",0.78031766122716,0.192045410982011,0.849777847259985,1.20945414233744,0.611370759240761,0.538860307769949,1.46130177124279,2.15822801162292,0.1670184028377,0.596595612531107
"8",2.53467834960833,2.23817245437582,2.24836409495049,2.7840787999262,1.47438309806503,2.25767774217604,3.40632647994622,4.11768188528679,2.04396518261822,2.42892439129498
"9",1.27444157815301,1.37484283496946,1.49263785969812,0.949548773817183,-0.773511837895059,0.00924562875954453,1.33077943157923,2.53733226960591,0.913138796077119,0.773043971392394
"10",-0.008784207023566,-0.656244053301419,-0.195218796434138,-0.266024896188171,0.170852346281908,-0.10680736479995,0.301221179329802,1.21926004991998,-0.600685751561172,-0.0609553651017392
"11",1.43758399455045,1.15205497070009,1.34380375332177,1.23438494160461,0.216442668389031,1.42597005799906,1.80825852431562,2.77754805728974,0.801429295618563,0.801183173556651
"12",0.625628658737359,0.00214396131263453,0.185120045324414,0.999064502988717,0.453542966136708,1.3612483846723,0.736932760657738,1.92086540610282,-0.0911795678131687,-0.0193631917082535
"13",-1.0726615875864,-1.06407685803172,-1.38217637080239,-1.12273750088286,-1.65451359220069,-1.30190361478677,-0.762020714092778,0.104612008879474,-0.931732148733368,-1.0596408059448
"14",-2.11869014789008,-2.12305334261682,-2.45797664134003,-2.17476402061005,-3.42528979615099,-2.51880136910708,-1.63754888537693,-1.56783104152371,-2.77281330511371,-2.58328013718423
"15",1.60966738854013,1.47099240758994,1.80723581847443,1.26599287047486,0.829898611356698,1.17648428794006,2.05769252101185,3.41212014890041,1.50475568479054,1.86685903985845
"16",1.47011215096173,1.28218488380523,1.21895565645928,0.860408659136383,1.03646554342416,0.78407849301271,1.1127162378193,2.94967839104048,1.29417123896509,0.900477393848034
"17",2.64609661690506,2.63753825494152,2.33615273946542,2.90329833225184,1.15458740928074,2.40278095845537,3.85135107082081,4.59303427973671,2.11152411165698,2.31351132983854
"18",0.861104625024208,0.989192970195174,1.01596353232905,0.625940753902216,0.392110327854973,0.638299927925577,1.47884187644921,2.70952354000953,0.82544471875976,1.0335439317865
"19",-1.16377797084967,-1.46132761357169,-1.23872988544567,-1.51717639045457,-1.67022266748709,-1.25041812877824,-1.46703161847693,-0.242399143506334,-1.58461319849558,-1.0987182705711
"20",2.02078999881975,1.95736140157751,1.72439206753921,1.96596838138529,0.930571148425359,1.63223232328963,2.58409417599408,3.67103327681349,1.36889801150039,1.8445697937243
"21",3.15912881542704,3.0827106226775,3.11000887815628,3.37700677567274,2.29100557708103,3.41896937696055,3.99686662169098,4.5718323101784,3.43413816684643,3.53092817134758
"22",1.00381755208582,0.604220132045362,1.17204881384813,0.792530825495274,0.112394044433201,1.21884351529103,1.27066367975723,2.58105608894124,0.693295827033932,1.40381724293662
"23",-0.42693043118002,-1.17858716465289,-0.597429108681812,-0.180276701775639,-2.18003656146571,-0.267847214387746,0.104411539091384,0.40605676967417,-1.28033620370459,-0.357620448038697
"24",0.284541506478497,0.557939974820573,0.0217311571015525,-0.227966880319374,-0.52960410455497,-0.132148432063428,0.590189599804478,2.2651689383566,0.549136417323421,0.233694732738216
"25",2.63032056518289,2.41831225822512,2.61771672033711,2.59485802685888,0.876635374225058,2.30214667060699,2.74499055234003,3.99663510064489,2.33324249448106,2.72358075530144
"26",1.38810563795686,1.29246626942386,1.24378926121616,1.20401030273415,0.575331551677666,1.10931974109545,1.81688242083155,3.41453623121287,1.51192968078146,1.33758954591989
"27",1.58364746152717,1.34689190282084,1.03799455659369,0.842516584312231,-0.749115911112397,1.13511904784983,1.47733673699124,3.60154118280433,1.21110181119382,1.24232733426129
"28",2.63689548652589,2.47692502331484,2.38710847093876,2.58789715655257,2.22817207619681,2.54130153650417,3.19293589405585,4.24191202944047,2.51303513017002,2.59057517178709
"29",3.97916671983924,4.40499376659369,4.19633205330053,3.16457329814596,0.386024645285003,2.70888649152966,3.95800319929143,4.90222637123319,4.30363024487821,3.00880971737742
"30",2.21702170402788,2.56496470415467,1.65883209880058,1.68673052443411,0.0865972780527096,1.65721273132041,2.60015537566787,3.73234330265341,2.05605282834784,1.061635616558
"31",2.19020746410547,2.02286044404789,2.03816544914958,1.66054216997108,0.561007734123201,2.14127592427748,1.73341146458871,3.66486019862014,2.0905431649474,1.67097873688375
"32",2.35368943500853,2.04176570806589,2.64357046681952,2.21039774439913,2.00011996665024,2.606442154604,3.13012659325662,4.06254924263787,2.33213434438872,3.29285894515548
"33",-1.75689667726089,-1.74280241732908,-1.84508778981342,-1.89399958636296,-3.23476520852857,-1.80275595858793,-1.71568184031675,-1.14941284093924,-2.02548712850788,-1.50965221772784
"34",0.00170942001740706,-0.31280544788861,0.306741074301709,0.0125046272733209,0.0302594727453529,-0.381575259195943,0.876753943600993,1.14470305898332,-0.697783414838503,0.494459338866383
"35",1.25070419683251,1.22578119071086,0.817293262865011,0.419767473409318,-0.122826855532006,1.046948071004,1.17919738850284,2.7465460991629,0.729973717939097,0.377227346845403
"36",1.15756517601173,1.00720715877294,1.13548927433835,1.60384777880853,1.17422792959582,1.35505942114407,1.96843209202968,2.98021540754624,0.714064020787688,1.78284233340607
"37",0.55777597335594,0.401348913211554,0.623688701199816,0.618484195167359,0.304801120833014,0.108097571392157,1.32718696846268,2.42200922747972,0.0818813519658176,1.1318961912459
"38",0.76901190457647,0.840634384368869,0.950582825662718,0.756006979332234,0.0169594095816656,0.879532528992849,1.43617148426892,2.38733563020216,0.707648997411372,1.28246886799377
"39",0.241790820475824,0.114604903119917,0.255633820476047,0.150134336059878,-0.915021340232785,0.0763768629558317,0.348828474864633,1.6579600743435,-0.254533922922179,0.460101219901339
"40",-0.716623049090013,-0.49583128565339,-1.00369000903404,-0.42601742040216,-1.46237870352808,-0.449316537468039,-0.409694741148603,0.861667199064642,-0.396509646898405,-0.301504965010866
"41",0.759454372826459,0.885337918322551,0.732297652561447,0.0705933129820427,-0.597795445654991,0.348417221708379,0.958996719078257,2.64523739153827,0.733507453733455,0.673422394692296
"42",3.13403455302984,3.20504538706403,3.03299586713293,2.88892432192433,2.03496839482254,3.19848796684133,3.62278992026878,4.53272600059944,2.18035879682286,3.01277239565474
"43",-0.305730647062079,-0.583806615309082,-0.414032263097679,0.0527488346327436,-0.42877838177106,-0.071849350703864,0.480952399787927,1.33513668326262,-0.467544022379255,0.109051217863292
"44",2.02786521410534,2.1103047820551,2.27428280575139,1.97649043204049,1.34053203954217,1.8094053068489,2.93695242477233,3.45181796445367,1.83431574884625,2.16881694218797
"45",1.23891267197218,0.61579791420521,1.85544394293897,1.26978412519304,0.46308281298316,0.851900051167167,2.30071322796303,2.28318185806095,0.333511527956162,2.03819853132524
"46",1.60152467579358,1.53272069649144,1.54725159945071,1.12473095594399,-0.296940907990613,1.06521341500802,1.75610255943082,3.17189747976917,1.45366934727514,0.823397781604011
"47",-0.730970463804859,-0.919212571610109,-0.564359422595383,-0.923986680973303,-1.5472301133433,-1.01077327338918,-0.603843111693338,0.333823714119359,-0.819750762840526,-0.657532658967635
"48",-0.612795251160602,-0.598495838817488,-0.772358689913446,-0.857908993741836,-2.59056889274745,-1.00485023335979,-0.116099942017161,1.06755608275941,-0.464197169533091,-0.646639979778191
"49",1.75583817074048,1.09694658895791,1.77090269289289,1.71110697422373,0.0583681202734279,1.58236717722946,2.25650334420988,2.92362337733679,0.4632559533701,1.45280745356502
"50",-1.56954586403417,-1.78880824452245,-1.48383235107612,-1.14501287459402,-1.23032335774887,-1.26987428678879,-1.02049424884171,-1.05315952600283,-1.88177389111288,-1.54311998030561
"51",0.622677088541883,0.412372170854501,0.445508720355006,0.935235509294322,0.667283647488992,0.922465189636607,1.18589711150382,2.31957616237381,0.479731362486229,1.26957539276394
"52",-1.6721795737011,-1.88095465478592,-2.40656452434255,-1.52039350616651,-2.05644163200253,-1.5515114545573,-1.43661070685261,-1.08974860065159,-2.10717706895305,-1.76137614515981
"53",1.027063582189,0.863102496532366,1.24034890474754,1.01334729682734,-0.104698783697522,0.917197033589875,1.71850567560207,2.72344775383402,0.138270334805971,1.0968782964513
"54",1.14976543990821,0.751250632857465,0.870685809997535,1.36673958385923,0.244652481522328,1.09405237155442,1.60826752297543,2.93465114500865,1.0382819540824,0.523322833028127
"55",1.07217371776019,0.858542615378127,0.990540455910663,1.56499275771721,-0.147008733391927,1.57391007295042,1.4460598315533,2.72895568778262,0.901179319154465,1.32064905730065
"56",0.962700084832527,1.28788906631928,0.933868698193961,1.00180278983363,-1.07071109599444,0.450840612330122,1.20446420157384,2.81975019032461,1.43949190335322,0.770253629502125
"57",0.784643759770878,0.72524273751958,0.721692210189116,0.686828115689137,-1.46090763091322,0.650426291833424,1.31538645045983,2.86162654036736,0.52705050856658,0.781599544483105
"58",-0.972649220311281,-0.927711934695312,-1.06437769285329,-1.02501504316516,-2.29465574366111,-1.19018410206936,-0.475027484027754,0.0471089181396205,-1.0750723533191,-0.52588525967204
"59",0.0713144269178747,-0.26637607893912,-0.138637371064547,-0.51337140913786,-0.28884850918297,-0.286973466211995,-0.0443620410958441,0.826635422587439,-0.911207801543099,-0.287381899703703
"60",-1.98477981431212,-2.45732785687866,-2.04176658402257,-2.05458216542791,-2.1917306317991,-1.7546380256899,-1.6523760951157,-1.66304160643703,-2.49416176702508,-1.79001962285613
"61",0.640805811245954,0.224402636107583,0.848616959470341,0.170140172118039,0.354394579979863,0.426812134104232,1.08605911998688,2.10875219808938,-0.0605311483738984,0.321516555398979
"62",1.82779915669276,1.98072130137496,1.61784440079561,1.3703433672306,0.723809727526016,1.34338755963868,2.01100382005867,3.50771270499778,1.84284175351111,1.11252343401046
"63",-0.866688908301688,-0.75631888739253,-0.681240165978903,-0.576901968916018,-1.60081863239118,-1.05301504965898,-0.0835814588710695,0.0328492485042063,-0.775147316112488,-0.961363839763438
"64",2.07355749503503,1.74869788838211,2.05122568742737,1.39928029326939,-1.06609100148936,1.54098524284191,2.33957831347858,3.86947504631802,1.85884925323015,2.2216714608261
"65",2.46742249549759,1.42911033547268,2.18721109165012,1.75663447454827,0.04520096313497,2.93821383174308,2.80411364184726,4.04936239982653,1.36711540459794,3.1805517077664
"66",0.778742703176178,0.405208500773187,1.05706757512008,0.873921106501535,0.627820835194257,0.911117172951528,1.40023343988755,2.17998989592738,0.286049184801841,1.35757827876491
"67",1.38078180473976,1.48180154931484,1.24353800537862,1.21601273195064,1.21553603343241,1.4644267659239,1.94287802559566,2.86122730845713,1.11973555148923,1.77641737833985
"68",-0.0997359479320002,-0.258492035387831,-0.380795417841126,-0.200543555090451,-0.599794965227708,-0.473573491537078,0.366598700800376,1.70354872835707,-0.38572691058317,-0.22193195809472
"69",3.35841220453015,3.07377852053683,2.87667231249934,2.77396640749757,2.69866862188259,3.41098577712305,3.25572502321072,4.45185872374564,2.82604076043626,2.95750719847769
"70",-2.15217604474731,-2.81421668527219,-2.25403752663948,-1.66589307286708,-2.57407463328268,-2.02977095912411,-1.61153739000667,-2.05011672887889,-3.09069776063229,-1.80987816067302
"71",-3.47998460454675,-3.4818140829664,-3.6769723325619,-3.54283771163084,-3.94962263221896,-3.89965366366214,-3.47967936046814,-3.45411593600862,-3.74843133991403,-3.84550295565519
"72",0.248100180657822,0.186595053844353,0.199140570771072,-0.115669705834368,-0.765667605197561,0.0523699330742669,0.681443710899406,1.95723658136379,-0.173571282062009,-0.314494343774517
"73",-0.0326036202770029,-0.169900650499124,-0.17944943442413,-0.134970629279107,-0.810838079152858,-0.438355930144729,0.542499985665003,1.44805868998138,-0.377397260355826,-0.200366637781946
"74",1.91586913266076,1.43101327718308,1.99991407500339,2.46828899849631,1.76667067370694,2.02200548240364,3.28301071786772,3.58941074548666,1.23260618005284,1.78002295584602
"75",0.661918395158413,0.841219851974878,0.222861754903685,0.328425322833741,-0.611182108486451,0.244304171628411,0.71781037824162,2.23337089362085,1.02776527222022,0.179001379518005
"76",1.09766208470122,1.11068838662484,0.925306318681651,0.643221847266073,0.608586720143132,0.632868209913466,0.868998981413081,2.52106072386437,0.89929997982732,1.19397660252438
"77",3.41270018223909,3.48837801260024,3.03458059999343,3.85650950758876,2.29601433893936,3.02303878413525,4.62245479228266,4.99151007128619,3.28739129310698,3.25236817161215
"78",-2.60263838589808,-3.56440316444877,-2.72038760237521,-2.38619819210466,-3.92028401943001,-2.41364228003853,-2.30508713619539,-3.10532632471587,-4.01378176483991,-2.62460592503832
"79",0.344144987351271,0.385381695098708,0.17804720904819,-0.135566463965925,-1.44437424049746,-0.197410118855147,0.510310345419838,2.00660882913268,0.314825944005079,-0.0113619973762347
"80",1.32288366243047,1.42546010660842,1.37529200429068,0.745776090146664,-0.157779183586875,0.173189832958474,1.40094258444727,3.23593824457302,1.48826024081355,0.754962751852169
