"","S-BART","T-BART","X-BART","R-LASSO","R-BOOST","CF","BCF"
"1",-0.0229045180936632,0.0282776999616335,0.00752837449190031,-0.0262259473475721,-0.140532824072566,-0.0569225085488716,0.00214204866297552
"2",-0.0158872015786532,-0.00395470850953325,-0.0163780976196067,-0.0277577229337671,-0.126419476454789,-0.0422152564415507,-0.00776820103657126
"3",0.00195066327257743,-0.0102947310040042,-0.00825424476691664,-0.025672131988429,-0.144957327140595,-0.0627026707941355,-0.00249619342461105
"4",-0.0105088036844345,0.00928738711416544,0.00333751847478566,-0.0172663301150662,-0.0556268108225091,-0.0765050359125235,0.00538353153007322
"5",-0.00299764191950832,-0.0223546221080461,-0.0198992448943616,-0.0251535833631418,-0.131689564876642,-0.0552637107164266,-0.00129325173852986
"6",-0.00238096751508981,0.00849148164226309,0.00279615482330468,-0.0246579723146784,-0.143843539004701,-0.0513508463873206,-0.00571629242218266
"7",0.0139000408954562,0.0284266999405283,0.0192106472189278,-0.0282195636089612,-0.160598723840121,-0.00807142256452147,-0.0106942191073094
"8",-0.00957943361930222,-0.0150889643370742,-0.00786443856030436,-0.0302396927823661,-0.209515437022662,-0.0883819568411755,-0.00635095255026561
"9",-0.00182416758390605,-0.00358263525102725,-0.017425027315578,-0.0370553685583422,-0.275765014236573,-0.135898403469777,-0.0137925897475659
"10",-0.00699005701342722,-0.0184269791064122,-0.00884008299482588,-0.0267857449647503,-0.0993202536103246,-0.098556397606269,-0.0159040282995645
"11",-0.0197237014731214,0.00824404843283626,-0.0148221452036932,-0.0375319311890849,-0.228995005045846,-0.0969756807066282,-0.0142935554464504
"12",-0.0027239767503155,0.0137624529391605,0.00552442329307539,-0.0276610868179375,-0.14799114228374,-0.0652057291362847,0.0035431727496504
"13",0.00144341026152514,0.0197404223554694,0.0185381310599983,-0.0343817953662319,-0.0883540621140035,-0.0243665602301233,-0.00844136791288013
"14",0.00441302761413416,0.00319618373202216,-0.0154411606576891,-0.0170252483655651,-0.167133199298547,-0.154106673223283,0.00845780137787596
"15",0.0124518809383932,0.00128089778181133,0.0054302768794153,-0.015752837072536,-0.299689741100377,-0.108079033232191,-0.0125360981193917
"16",0.0045506548278761,0.00267073243993492,0.000440296455487947,-0.0234951667495454,-0.244402365350141,-0.0737042867751341,-0.00661611041211053
"17",0.00581249572308153,0.00431160446972421,0.00550647897894811,-0.0280461906780178,-0.23452860613957,-0.0993035644036424,0.00576373166262648
"18",0.00182762635916039,0.0326307887547017,0.017686436574154,-0.0283614298174239,-0.136258118026537,-0.0203945857847781,0.00537073957077787
"19",0.00457227171359688,-0.0108112191183712,-0.0223713215656014,-0.032777299835982,-0.247294035274984,-0.0961998276961039,-0.0113505663391525
"20",-0.00663332379697106,-0.0103082446821695,-0.0197571693081654,-0.017093151631659,-0.280041154899249,-0.170126765263239,-0.0104038383283699
"21",-0.00578447753612931,0.0296254054245822,0.0157832695383174,-0.0166507173094719,-0.235766822306915,-0.0390862478958147,0.00367141634861352
"22",-0.000855194754079162,0.0153876865171639,0.0133960780030496,-0.0206683131606451,-0.167916213188662,-0.0547842470211486,-0.00276981874995064
"23",0.000661064543713,0.000264746613891326,-0.00419147870123438,-0.00576225675191171,-0.165473311861314,-0.095116787356245,-0.00604334683019614
"24",0.00141479707802317,0.0189742040107268,0.00995603009963937,-0.0169830633088981,-0.184508892719159,-0.0640707928854782,-0.00282000124311598
"25",-0.00793802999896755,0.0127298704614799,-0.000112858441490183,-0.0242756916120178,-0.172167124354059,-0.0934775077235842,-0.00265107320628772
"26",0.000386549552478712,0.0039170621273223,0.012590412438554,-0.0252564809058666,-0.125237440450962,-0.0366834293323358,-0.00439603506878014
"27",-0.00358899038174642,0.015748447160123,0.00882629552309978,-0.0356781528361521,-0.147254388658493,-0.0481101156421028,2.91308948196567e-05
"28",0.0042912657121637,-0.00890045771635771,-0.00536045632199143,-0.0143494335757863,-0.139124530253389,-0.0681674223453947,0.00364993291893538
"29",0.0112139409924448,0.00842321051466531,0.0173469001601339,-0.0224644311495206,-0.233490304599225,-0.0697193556983274,0.00808030991136043
"30",-0.000772213664493855,0.00793721930917339,0.00333431026918966,-0.0182680751722192,-0.153742298760863,-0.0746152518045193,-0.00854750667875505
"31",-0.00393755139875759,0.00661359253796105,0.00465651264059223,-0.0219620007341748,-0.0959801557422267,-0.106708539645071,-0.00697667081866701
"32",-0.00779998214417341,0.00206237307479908,0.00203092611746204,-0.0265393736316786,-0.174133854349419,-0.0925596667325649,0.00497813472542338
"33",0.000961298996718939,0.0101720040546265,0.00785637388260099,-0.0233204449364554,-0.137365068838795,-0.0776012790956053,-0.000135013343744871
"34",-0.00153006347042404,0.00883040139901117,-0.000579896735125887,-0.0343902706365807,-0.159886874811132,-0.0285750247214744,0.00276852404064195
"35",-0.00472371044960929,0.0294695993107181,0.0114306691709374,-0.0324989416516869,-0.224887277150416,-0.108335540934743,0.000616558455090491
"36",0.00365162742653305,-0.00544775068351451,-0.00287358538719222,-0.0382859140947786,-0.263606683053094,-0.0597069333509708,-0.00511845741828893
"37",-0.00512244550970818,0.00740631751694715,0.0144490463270534,-0.021632658859502,-0.129499404238154,-0.0176123062566762,-0.00178215622529038
"38",-0.00818292560233468,-0.00219860225393113,0.00275202282914586,-0.0219595668512502,-0.196798543623176,-0.033017000154934,-0.00753902841614237
"39",0.0106460922746322,0.0157691089140985,0.0168065156618133,-0.0255911373100629,-0.0659473682732183,0.0185711960718822,0.0139193991247906
"40",0.00753425080072427,0.00479651281973604,0.00705412423676148,-0.0233338741639555,-0.241599366796645,-0.0933107221071461,-0.00157669658590444
"41",-0.0114626785352886,0.00574984670471828,-0.00329821222484854,-0.0334979495838111,-0.193445801025432,-0.0894470236035275,-0.0114199433712007
"42",-0.0134761735867146,-0.00709245908619342,-0.00654912934919378,-0.0312143349127309,-0.0929927943772636,-0.0409823990597289,0.00290319553825336
"43",0.000149008145461754,0.0168053409060011,0.0161263263505164,-0.0136513512817268,-0.202187027501337,-0.0165331312702623,-0.000236498645140148
"44",0.000328949438428336,0.0114767648846124,-0.0017805116255572,-0.0309496215493037,-0.183041985196806,-0.0217564714608326,-0.00774612162907069
"45",-0.0155073033864093,0.0112419334373132,0.000504272258763334,-0.0165961571858238,-0.191020715737595,-0.0768269655161588,-0.0227659622983461
"46",-8.43415021394244e-05,0.00567167658590778,0.00460586982006572,-0.016986964915719,-0.265225656044383,-0.0810794229573123,0.00739993328778926
"47",-0.0031316801814416,0.0236399738429895,0.0103509160416283,-0.0119785215164315,-0.166011737021572,-0.111157344040246,0.0038668520866886
"48",-0.00585737666964286,0.00537677549083104,-0.0091386234594473,-0.0256715609606839,-0.12838056019377,-0.0788120670484355,-0.0275244832077188
"49",-0.00944569598317046,0.00549419665145322,0.00394867593256247,-0.0381514401331845,-0.142189631253225,-0.0227857224032118,-0.00967476509910732
"50",0.0059898548612624,0.0214349537492118,0.0143243238983054,-0.0307121948273934,-0.100551816324689,-0.0205253628055821,0.00511557186999209
"51",-0.00972454317564739,0.0221004851519492,0.0200450897919848,-0.0341372082576553,-0.227011635675325,-0.0822309509733329,-0.019504700419235
"52",-0.00668029746003588,0.0260133898702923,0.00173657048845389,-0.0174029383823746,-0.167845069096797,-0.101657030363531,-0.00139789671764084
"53",0.0044313185255153,0.00727160762003043,0.00251352033986974,-0.027516398979747,-0.139222185444538,0.0123620383456868,-0.0121342084326447
"54",-0.00181594472722739,0.00140394542350906,-0.00460443400232661,-0.00879112058919406,-0.127952632241168,-0.0216685835568199,-0.00415819446492124
"55",-0.00612345809028983,0.0250885944621678,0.0230907410980399,-0.0403222870715294,-0.152387038356768,-0.0694080507776138,0.0303617647008765
"56",-0.0115595161902189,-0.000953629561997037,-0.00244598561749258,-0.023999650983483,-0.199814504208602,-0.0949456636588629,-0.00547094480500154
"57",0.00365729932648906,-0.0310233213110917,-0.0172607965714387,-0.0268501143304935,-0.176192879015296,-0.0798254687124575,0.000285661129403848
"58",-0.0123041829540991,-0.00439647756495799,-0.0133715974698634,-0.039927901313029,-0.168404901751972,-0.0810460203370298,0.0132877340416912
"59",-0.0110250585749552,-0.0159076137248741,-0.00356478049607209,-0.0252817657645598,-0.167830766713021,-0.0993611895014261,0.00275497710256088
"60",-0.000775057565357005,-0.0223502208670531,-0.00613385475910376,-0.0186960173268917,-0.152206502893157,-0.0736638665988459,-0.00815254827758775
"61",0.00827407127810713,0.00523301532129795,0.00258454209899813,-0.0294799326197725,-0.128774511846397,0.0207496092557083,0.0102654616022004
"62",-0.000288187718375605,0.00518607043629505,-0.00297949572767932,-0.0373700899221833,-0.179349581828281,-0.0502240435823736,-0.00760664256449182
"63",0.00338833377281186,0.0325700096152262,0.0191918501556878,-0.029560380272497,-0.155932451017196,-0.0524469083254769,0.0154259536887877
"64",5.42240165561877e-05,0.0053399730419623,-0.00461066935348945,-0.0228509583848591,-0.109708331687883,0.00281568190980246,-0.0028915083156676
"65",0.00205056404949427,-0.00301921287202341,-0.00569805367941719,-0.0221613805054773,-0.382975253897996,-0.0494759250177736,-0.0101986358086227
"66",-0.00609750459074443,0.0161155392574665,0.0124618613375582,-0.031898902867218,-0.337144718007103,-0.0659872739533888,-0.0195136735763867
"67",0.00716979956554516,0.0033853239982958,0.00999123415557154,-0.00331482562046663,-0.218346345991747,-0.0351023912937229,0.0114112169912918
"68",-0.0147520349697014,0.00924916353025718,0.00266528356441245,-0.0287397217776902,-0.253673343099876,-0.0629787314008433,-0.00304923314370556
"69",0.0056620934275153,-0.00865966775509854,-0.00170019917209317,-0.0182687690253448,-0.260701233557447,-0.0662746820699135,0.00412898663835858
"70",0.00181897826356211,0.00949255842613655,0.00477342602583337,-0.0131111580334162,-0.259593679095584,-0.0262606295332987,0.0143679396163293
"71",-0.00398510985703162,0.0177348652859868,0.0107182715745433,-0.0188378085899713,-0.352181325743734,-0.0628722356557773,-0.00518606590399495
"72",-0.00603905568566925,0.00384129320086297,-0.00264559166617411,-0.0293254647036455,-0.112744472839519,-0.0351620879695812,-0.00240147704165127
"73",0.0031228694936204,0.0174005063727365,0.00603940820672643,-0.0198202952840686,-0.107755939272517,-0.0689628467734158,0.0101822025092369
"74",-0.00282251769905081,0.0112382225796482,0.00210227102862092,-0.00905994234071179,-0.285246026911273,-0.0653204940062799,-0.00181048152340553
"75",-0.00693909547280013,0.00192432700367183,0.00056681629031009,-0.0429401324069553,-0.232858002108442,-0.108657988547588,-0.00677860403027016
"76",-0.00589192811735591,0.0398461830222506,0.00212397296526295,-0.0253013858661357,-0.290598847916109,-0.109103620401404,-0.00267570859396005
"77",-0.0137961102617654,-0.0244624448760037,-0.0133132071533443,-0.0338390270050801,-0.231984336062013,-0.0692844067312974,-0.012122880778008
"78",-0.00406624778660499,0.0102058574604614,0.00062991107244923,-0.0339792760090581,-0.148677032831811,0.0058201648869688,0.00161020346353711
"79",-0.00698312535735948,0.014272706127664,0.0129097409246922,-0.0256161581810843,-0.0804794801233291,-0.0856776001660069,0.00108503820460305
"80",0.0152302498439426,-0.00649407110199636,-0.00354528913673151,-0.0230676747445297,-0.143919361581839,-0.078881047575544,0.00385076152369533
"81",0.00271549494094987,-0.00978814361906366,0.00246323846695102,-0.0331556666757195,-0.199908488024628,-0.0332801670792153,-0.0047445802110455
"82",-0.000181277304287706,-0.00664520404838857,-0.00144786664402676,-0.0250401606977656,-0.087159008962971,-0.0349650138058905,0.00393421109276636
"83",0.00347736673926313,-0.0381504189159285,-0.0076875028875704,-0.0177863513361895,-0.189034305675892,-0.0585007102357939,0.000674366409817545
"84",-0.0208436629774179,0.0298343544569943,0.0127456712930885,-0.0364455538424576,-0.190136271217074,-0.0367884282816261,-0.00509774511797413
"85",-0.00665621894268799,-0.0010764313486517,0.000641912117738774,-0.0272049008539313,-0.233523908469004,-0.0840731043275392,-0.00344432712924719
"86",-0.00238995773446312,0.0210330249915535,0.0156871421522511,-0.0255137886862414,-0.122583257714238,-0.0436615204708094,0.0140116780102681
"87",-0.0102765734405184,0.0142393104839163,0.00142332168777926,-0.0405033340912082,-0.18920351220832,-0.0226177725341203,7.12855194778557e-05
"88",-0.00478930532248948,0.00186560602213769,0.00128564958327107,-0.0365640025494862,-0.173369531123262,-0.0361438484430597,-0.00276027459620729
"89",0.00621624195637823,-0.0019387847726491,-0.0111614156490529,-0.0316918487035813,-0.236878196736691,-0.116924951783151,-0.00861744559725241
"90",-0.00345816362841535,0.0573518826827541,0.0246088180042308,-0.0267221391261599,-0.227462630228604,-0.0583537630776017,0.00303587244906878
"91",-0.00877405920630963,-0.0195424847013516,-0.0109060990392244,-0.0337544733991599,-0.19013554536446,-0.104168780448667,-0.011454986596121
"92",0.00114798799422081,0.0148936852269224,0.00860605325537504,-0.0076839618938443,-0.15151219309855,-0.0830022903978333,-0.000849331657241879
"93",-0.0217440990526398,0.0017606113553413,0.00480086959893051,-0.0338892239836073,-0.160878585507522,-0.0702238217009706,-0.0114794120173924
"94",0.00111267585533012,0.0139784008130518,0.00596434586746777,-0.00193225280727701,-0.247348743215348,-0.110403748416187,0.00128107898695682
"95",-0.00266085549048552,0.0119726591396144,0.0115188790788845,-0.0191639195196507,-0.129754751001831,-0.0590202479680845,-0.000673589644979178
"96",-0.00520689348874799,-0.00668769014555152,-0.00694050876389692,-0.0346188978731986,-0.113311746064785,-0.038836442109868,-0.00739432444057822
"97",-0.00798309549742051,0.00733377597488581,0.021885133830936,-0.02185694306635,-0.146856720957425,-0.0841675711974933,-0.0141414006961604
"98",0.0117162604899615,0.00857315205899515,0.0145264716634637,-0.022762324764183,-0.0869327244128613,-0.00859223726098368,0.00212397978131587
"99",0.0183632597317932,-0.0289971412156037,-0.00299237650734372,-0.0187179278616466,-0.204130604469233,-0.00522789381107415,0.0141057131243664
"100",0.00476048339251553,0.00295943596337299,-0.00121689234755427,-0.0340852978981797,-0.199636023345075,-0.0508888106671789,0.0102508422575413
